34 16
0 0.3068601 -0.15413657 -0.19675352 -0.062316 -0.36018446 0.03482455 0.254156 -0.1858132 -0.10236359 0.17817533 -0.072858185 -0.0291936 -0.18674842 0.005429907 0.008890693 -0.20252104
1 -0.051344763 0.28998983 -0.37822378 0.12081419 -0.08966038 0.08063715 0.29602608 0.2867671 -0.27016512 0.22871274 -0.013602663 0.27454984 -0.19851723 0.139782 -0.20461282 0.21193928
2 0.16287756 -0.19281904 -0.24102898 0.022132423 -0.052634664 -0.15177809 -0.15134439 -0.117648385 0.08181302 -0.07485565 0.029314967 0.33124012 -0.03552238 -0.17429583 0.12933055 -0.044392943
3 0.018401843 0.29600206 -0.20813623 0.012408342 -0.010811785 0.27950335 0.31982166 -0.1521607 0.04016871 -0.028074304 -0.018445926 -0.054217312 0.21590424 -0.028717853 -0.23199868 0.002395492
4 -0.26721203 0.13057463 -0.16444655 0.12040463 0.088542715 -0.20244461 0.10427435 -0.19870308 0.10251988 -0.24961147 -0.00568331 0.055377956 0.0015762262 -0.17059718 -0.39292789 -0.21256165
5 -0.06817871 -0.01839609 0.10565902 0.110263556 0.23403665 -0.28177363 0.048935268 0.24220413 0.23335595 -0.271901 0.27807602 -0.31449196 0.061967608 0.045893352 -0.06619244 0.09959813
7 0.34367394 0.31998158 0.05005207 0.18120806 -0.06933851 0.26987806 0.36714083 -0.23542488 -0.0731276 0.15566236 -0.097775914 0.016152143 0.059537817 0.26679716 0.10227328 0.16202018
8 0.30524993 0.083828494 0.09739946 0.24340692 -0.2809949 -0.22905684 -0.006613988 -0.35503712 -0.12306474 0.049314924 0.22009838 0.21800299 0.036957383 -0.07467625 -0.19751084 0.22389965
10 0.18961073 -0.3472686 0.1882028 -0.2684795 -0.31926882 0.116209745 0.015175808 -0.28914127 -0.097585425 0.060511187 0.070074685 -0.1145968 -0.042852454 -0.2611194 -0.16012582 -0.28674862
11 0.3596026 -0.10809036 0.008721421 0.02396394 -0.20366216 -0.24394946 0.36965188 -0.34395522 -0.38456956 0.1518778 0.132875 -0.34610125 -0.04863336 0.24068873 0.28397086 0.2161271
12 0.28662112 0.24259913 0.22210754 0.17927471 -0.06659164 -0.18325226 -0.11132915 -0.37311736 0.2676167 0.10410068 -0.2457473 0.16505797 0.0004433319 -0.19180463 -0.1300539 -0.2703007
13 0.088189974 -0.045626838 -0.34668317 0.0111626405 -0.3700004 0.024163395 -0.1739814 -0.23387486 -0.24675885 -0.25800794 0.14933927 0.26294467 0.24775495 -0.19441555 -0.0559076 -0.11731946
17 0.3415234 0.39427963 0.1451618 0.22808415 -0.16991892 0.14335485 0.09904592 0.24372736 -0.08083049 0.015829897 -0.19414572 0.081627466 -0.16450088 -0.23355423 0.09785998 -0.093698874
19 0.1466291 -0.17172082 0.23025614 -0.037780423 0.11712817 -0.21578598 -0.066824965 0.24151635 -0.23617524 -0.15324308 0.2084055 -0.05281149 -0.3644878 0.34080297 0.2871437 -0.10993203
21 0.18395989 0.38253123 0.09277421 0.23441811 -0.23880847 -0.24993613 -0.06847562 0.2382479 0.20903002 -0.07120932 0.23515928 -0.055601142 0.012904461 0.33556026 0.23277144 0.012023142
31 0.11113666 -0.111946896 0.2608919 0.030825965 -0.19518389 0.3122977 0.31741872 -0.1874629 -0.08023376 0.3712655 0.10608217 0.18771571 -0.013918232 0.055010103 0.32310334 0.1720079
30 0.08835953 -0.038382392 -0.04574359 -0.18802452 -0.0816738 -0.12095988 0.35373506 -0.048454076 0.18939035 -0.15715861 0.16243146 -0.17486279 0.10158984 0.22569263 0.22904782 -0.22484931
9 -0.195393 -0.2662782 0.04839779 0.017286757 0.024859507 0.1444208 0.24259119 -0.10424418 -0.110128 -0.2994133 0.28138906 -0.26513413 -0.21987444 -0.05656416 -0.2341947 -0.11995316
27 -0.25340864 0.09022323 -0.29336888 0.096853405 -0.2486632 0.24986713 -0.3192001 -0.36584163 0.0665447 -0.045462515 0.38060996 0.30731094 0.06152246 0.055903476 -0.014968964 0.26367474
28 0.16427734 -0.015667355 -0.07851967 -0.12676889 0.16059706 0.20324014 -0.28765118 -0.278079 0.21265626 0.3906174 -0.30280223 -0.13280736 -0.27882233 -0.021042928 0.010282445 0.25695747
32 -0.15537907 -0.028850734 -0.19369482 0.1653721 0.21945424 -0.082223676 -0.2659746 -0.38035396 0.02008377 -0.09970952 0.098690204 0.15942161 0.075283036 0.21901365 -0.06758289 -0.11481005
6 -0.27093378 -0.26711828 0.16986147 -0.07595759 0.13778603 -0.011946003 0.27215406 -0.15570176 -0.20276417 -0.16741078 0.15235788 -0.038256798 0.041260272 -0.18497084 -0.21085022 0.2492496
16 0.16327506 0.017475601 -0.07794437 -0.09547191 0.35198903 -0.06976186 0.10453606 -0.1863507 -0.20871855 0.11802679 0.066344395 -0.06097411 -0.25306013 0.11532479 0.043951377 0.27066624
33 0.31640825 -0.25265437 0.27123794 0.36354652 -0.25174946 0.35060954 -0.1748645 -0.3432884 -0.2054796 0.24078152 -0.23030029 0.13298245 0.302258 0.036155492 -0.34247482 0.07709074
24 -0.15880157 -0.012875529 -0.29147387 0.28977656 -0.34589896 0.031802792 0.16459921 0.12287206 -0.04342201 -0.023174766 0.3918238 -0.27576873 -0.093611084 -0.034588378 0.08396333 -0.28112072
25 0.15147185 0.23445798 0.11396761 -0.047494028 0.2708887 -0.24457304 0.25676918 -0.17664069 0.0678676 -0.2917195 0.25098866 0.14964478 -0.1624761 0.11264297 0.3925544 -0.093236595
23 0.1425831 -0.35450765 0.15936114 0.088430315 0.29182076 0.025812555 0.15291701 -0.25503197 0.26591966 -0.19244981 0.19296433 0.019553738 0.20325844 0.2187592 -0.0366945 -0.2166457
14 0.36312526 -0.09665649 0.28657 0.2811296 -0.13756083 -0.114673525 0.022980152 -0.049306683 0.26012307 0.12996238 0.2820728 -0.07988504 -0.29370373 -0.21551661 -0.09473904 -0.058891337
15 0.18937777 -0.33918124 0.20078509 0.14799164 -0.15071355 0.2423889 0.079464056 -0.07212706 -0.20090349 0.042008437 0.28885055 0.068513624 -0.060261868 0.03401426 -0.13316119 -0.32285976
18 0.056267567 -0.19747233 0.20349813 -0.08529453 0.19005646 0.21444489 0.004687218 -0.27977067 0.08191914 -0.116769835 0.27929536 0.18159238 -0.022739891 0.087407745 -0.35865834 0.27377272
20 -0.09719017 0.04077337 0.24713197 0.31383848 -0.2346559 0.28532723 -0.07175353 0.1089213 -0.10380424 0.31838095 -0.03920846 -0.06656442 0.33578566 -0.14798427 -0.35881814 0.16507408
22 -0.15843122 0.18024118 0.14788589 0.15683235 -0.35226387 0.3922042 -0.24166673 -0.3864969 -0.31090674 0.01389114 -0.12681353 -0.0065775868 0.06577441 -0.072968714 -0.36503285 0.24488467
26 0.3054222 -0.15719886 0.28547308 0.07567303 0.38166887 0.10069235 -0.25253433 -0.2450251 -0.37083793 0.23721913 -0.23281178 -0.2313485 -0.01668936 0.13622679 0.28957823 0.030180361
29 0.19023111 -0.37351272 0.15533392 0.20971529 0.27763444 -0.20450859 -0.16608997 0.119489804 -0.047411326 -0.086654946 -0.3839303 -0.02623443 -0.11122125 -0.21884014 -0.29475215 0.043225124
