34 100
0 0.042252075 -0.17409651 -0.04659918 -0.043992214 0.08870669 0.09856559 0.06361055 0.109634414 0.14494865 -0.056399696 -0.16389942 -0.2033728 0.06147797 0.055723913 0.01183356 -0.07300441 -0.07711183 -0.2985896 -0.08978501 -0.056425277 -0.044503022 0.08049938 -0.22400717 -0.16727316 -0.004840647 0.06197807 -0.20076944 -0.088541664 -0.14082119 0.13597398 -0.060854174 -0.03498544 -0.031161843 -0.06885469 -0.090651155 -0.09351561 -0.057228092 -0.11770204 -0.04671428 0.0038591048 0.044899534 0.04604432 0.09934385 -0.082403824 -0.035049558 -0.05869299 -0.075232 -0.024834372 -0.0071207336 -0.094473876 0.090421535 0.08373599 -0.07140196 0.107657224 -0.068599075 0.060869318 0.07996998 0.007225856 -0.051160894 -0.08897282 0.024414137 0.24497584 -0.06632439 0.017810786 -0.048858557 0.02788719 0.15144396 -0.011971799 -0.20335335 -0.20977642 -0.19714768 -0.10175242 0.058766983 -0.060349178 -0.15366603 0.10709746 0.018882915 -0.02499691 0.0698959 -0.0647138 -0.013356445 0.25900823 0.0649956 -0.0749839 -0.013918918 -0.07449179 -0.02846306 -0.14386064 0.096249245 0.037333775 0.096742384 0.02555299 0.071567185 0.14642505 0.08895466 -0.0077811438 -0.17764907 -0.11607939 0.028883642 0.1938184
1 0.036560643 -0.13334286 -0.019259823 -0.058836833 0.12405146 0.05013514 0.08235847 0.11906258 0.14928736 -0.055689223 -0.18170321 -0.084756784 0.08097819 -0.040382486 -0.033240203 -0.13041823 -0.1390066 -0.29750082 0.018025097 -0.05131836 -0.12914525 0.06095684 -0.1840741 -0.16064952 0.01106507 0.07673572 -0.106619954 -0.007024139 -0.00095499563 0.10754133 -0.095805615 -0.008042703 0.04926488 -0.12736125 -0.027802737 -0.1352928 -0.018443279 -0.1695037 -0.09233195 -0.0472958 -0.053215872 0.010864162 0.0032766026 -0.12007614 -0.042595018 0.03804022 -0.035201404 -0.09403912 0.08805679 -0.05876096 0.050579842 0.023871306 -0.0013066628 0.07965053 -0.10049655 0.054840147 0.09936943 0.083704285 -0.07397315 -0.13152349 -0.0045947907 0.30670628 -0.0905276 0.092376 -0.16425796 -0.065500036 0.16810027 -0.0013752985 -0.23249029 -0.20128706 -0.17935304 -0.10700999 0.06977333 -0.13682614 -0.13702223 0.08225972 0.0072637256 0.05614582 0.052156296 -0.05094542 -0.070806146 0.33005872 0.07222538 -0.061455928 -0.06908277 -0.09519869 -0.08607555 -0.11052514 0.08981211 -0.051155552 0.17380442 0.037674677 0.09404759 0.18634346 -0.009236834 -0.0038613828 -0.12693691 -0.11449089 0.06477179 0.097301774
2 0.033991996 -0.25203913 0.061526313 -0.097033426 -0.09423166 0.10685262 -0.12416632 0.0048794397 0.12818108 0.03625929 -0.22877824 -0.13303146 0.21957494 -0.022069922 0.034277603 -0.14909379 -0.17363101 -0.32188618 0.018388117 -0.15545955 -0.2059954 -0.07411436 -0.32790124 -0.11102818 0.124375336 -0.004073018 -0.19587429 -0.0732244 0.018239599 0.18615766 -0.13503644 -0.13942768 0.0011741966 -0.08623292 -0.03828145 -0.011774335 -0.044654764 -0.07990911 0.070593804 0.07199233 0.07430574 0.06281513 0.06352936 -0.0375172 -0.122366704 0.063139185 -0.11943213 0.060389463 -0.077971935 -0.05554853 0.118491925 0.053161778 -0.121996954 0.07054808 -0.101161495 0.13508052 0.04525924 -0.03521693 0.023803698 -0.062645055 0.10908051 0.24784385 -0.045361213 -0.018769018 -0.16803345 0.01903566 0.010217297 0.052372523 -0.21023709 -0.019922964 0.004364289 -0.113648586 -0.01638743 0.0058275545 -0.22504354 0.04536913 0.09377152 0.007326751 0.16627342 -0.09297906 0.086376056 0.18203421 0.025934191 -0.01037081 0.02411603 -0.060178008 -0.091397926 -0.049508076 0.023219943 -0.056029376 0.045276422 -0.014540709 -0.025333907 0.116804734 -0.028187724 0.05851877 -0.031097334 -0.012305433 0.00854946 0.18592349
3 0.040105816 -0.112453885 -0.038954917 -0.032802228 0.006837004 0.081186436 -0.037931424 0.08295747 0.097346425 0.09921494 -0.14909722 -0.0689104 0.2054954 0.035369795 0.06997319 -0.07079931 -0.10327151 -0.25745353 0.04050014 -0.0686883 -0.08676535 -0.08352532 -0.31091583 -0.16313389 0.027543893 0.0057639647 -0.19772199 -0.01886347 -0.080704704 0.14535153 -0.054386955 -0.19266553 0.025715081 0.0089214165 -0.080860324 -0.07430421 -0.091515124 -0.13611366 0.114189066 -0.015658353 0.04942917 0.025920909 0.017549785 -0.022705099 -0.08286341 0.049181547 -0.11057961 0.007711594 0.008593556 -0.07207675 0.14756797 -0.0077976454 -0.01328551 0.10995006 -0.07713481 0.112044305 0.15376914 0.05422067 -0.080712624 -0.116091326 0.037726775 0.20347589 -0.14935248 0.020078216 -0.108783 -0.0076304367 0.21198454 0.047018692 -0.20044449 -0.14534992 -0.064122856 -0.10719927 0.043972034 -0.07354761 -0.15976375 0.06773137 0.06244547 -0.04486206 0.22931863 -0.0950799 0.00066911016 0.25944698 0.16216531 -0.031453915 -0.005916072 -0.067179516 -0.07170383 -0.17342234 -0.018280681 0.008693747 0.06704411 0.008583685 0.0033641101 0.1557865 0.056409724 -0.03796589 -0.009066018 -0.014797114 -0.014435857 0.18529037
4 0.10786235 -0.07728339 0.001910993 0.044764224 0.14793569 0.038456723 -0.008942044 0.09872484 0.10401689 0.012547029 -0.07432158 -0.24371853 0.042584587 0.12738034 -0.07896464 -0.015499181 -0.06958167 -0.35487437 -0.10066809 0.013115029 0.05172669 0.03413697 -0.29027385 -0.21717013 -0.11257333 0.03658531 -0.2743636 -0.09431025 -0.23302414 0.24193665 0.01835236 -0.1331376 -0.015796248 -0.059422858 -0.18511696 0.013844945 0.11727035 -0.09037365 0.10632406 -0.07172413 0.18432263 -0.016183384 0.008076 -0.0382143 -0.3009553 -0.09077939 0.06546497 -0.0014147882 0.15163827 -0.15939918 0.08286942 0.2057717 -0.14959924 0.19234088 0.05461702 0.02894246 -0.13396646 -0.022000406 -0.24881183 0.077446304 0.1498697 0.029317608 -0.13507248 0.058228638 0.021532195 0.23293926 0.20808995 0.086608656 -0.106273 -0.26484013 -0.35002962 -0.28872216 -0.04984825 -0.05509379 -0.12695988 0.19854574 0.10808628 -0.08908958 0.093374796 -0.2716803 -0.0839385 0.31409946 0.02860273 -0.22569156 0.18158557 0.056541596 0.055744447 -0.08592377 0.15698591 0.1282247 -0.012512545 0.13047493 -0.06010526 0.22427517 0.23994267 0.025833108 -0.112395085 0.042629823 -0.085833505 0.17385018
5 0.090865456 0.0029921113 -0.101069674 0.08068214 0.2160905 0.011522009 0.04605345 0.116092786 0.0657444 0.016410878 0.017007357 -0.24053115 -0.07181403 0.20258377 -0.073763646 0.03189236 0.009616325 -0.2599725 -0.14254832 0.11139544 0.14520784 0.07234016 -0.25336644 -0.1712007 -0.15763138 -0.001119864 -0.25417283 -0.06888042 -0.29160562 0.20842493 0.071573116 -0.106247135 -0.015876517 0.0014647904 -0.23267573 0.08604561 0.113129444 -0.032812063 0.15911415 -0.08290646 0.17100817 0.01476952 0.046785306 -0.02479892 -0.2953966 -0.15557472 0.028041506 0.050294388 0.17273468 -0.21499999 0.11185792 0.27890804 -0.17179295 0.24004126 0.08258454 0.03160213 -0.15703207 -0.03445493 -0.2909293 0.10759071 0.13835712 -0.029289022 -0.1770082 0.024675842 -0.007056575 0.2651971 0.22035661 0.09031896 -0.10637296 -0.27508828 -0.4009782 -0.34301904 -0.06544071 -0.1122771 -0.16875322 0.17348987 0.045681126 -0.092798576 0.040079653 -0.31544122 -0.08542812 0.3568392 0.039085127 -0.2597961 0.21565764 0.096009895 0.017116228 -0.10290671 0.23749004 0.10975089 -0.08900122 0.09211581 -0.018000135 0.19990309 0.3046913 0.08246836 -0.09450172 0.032992363 -0.086303964 0.25790256
7 0.120029226 -0.17959966 0.004657647 -0.046649646 0.06932587 0.033909306 -0.05559575 0.1157269 0.09632518 -0.03133118 -0.06381054 -0.12489857 0.06957838 0.038406584 -0.059126284 -0.106876805 -0.13348687 -0.2703668 -0.031041853 -0.049081743 -0.035182383 0.016014194 -0.24419905 -0.13043533 0.0014961694 -0.0044642943 -0.19165835 -0.06774319 -0.063282326 0.17620084 -0.037966345 -0.12558864 0.06352754 -0.15704785 -0.07430843 -0.03599871 -0.04057771 -0.11261454 0.02862729 -0.0035783232 0.014592843 0.05527661 0.05925947 -0.11070492 -0.13578549 0.04129932 -0.1265424 -0.025223687 0.048317637 -0.12962316 0.124370106 0.11360987 -0.08577021 0.12655322 -0.11288072 0.13957645 -0.0003002512 0.005964785 -0.06851315 -0.038738772 0.05777167 0.20927918 -0.085848324 0.045206256 -0.14828397 -0.0153162675 0.12723635 0.05652153 -0.1324422 -0.120899625 -0.096769385 -0.13485454 0.0147489775 -0.11488446 -0.08012242 0.039162077 -0.0007857867 0.0033546772 0.06684304 -0.091723196 -0.02313236 0.18124297 0.07050318 -0.039946403 -0.039744124 -0.07558744 -0.08736931 -0.0756462 0.029510349 -0.024061471 0.037680324 -0.013230288 0.027624723 0.12489589 -0.021324083 0.040035814 -0.057591863 -0.021079546 -0.00441424 0.39153564
8 -0.04831441 -0.07010493 0.028966812 -0.010247718 0.023028525 0.035925213 0.069109604 0.011895859 0.1608517 0.04615549 -0.16394798 -0.05095698 0.07304217 -0.0136137875 0.0360644 -0.11141815 -0.116842814 -0.20783307 0.12192073 -0.021608742 -0.12883496 -0.017090397 -0.165558 -0.10673355 0.062150367 -0.12148045 -0.03107443 0.07092968 0.11052653 0.061810527 -0.040601496 0.10729344 -0.0013655236 -0.18134657 -0.053804763 -0.01802055 -0.061291177 -0.09862553 -0.05930803 0.12287455 -0.035354577 0.11499721 -0.014505867 -0.09952893 -0.05044764 0.072149485 -0.18768902 0.033163015 0.0012585799 -0.18017371 0.12958443 0.09769811 -0.09064887 0.022311095 -0.07623828 0.14097954 0.032496642 0.049951434 0.014214173 -0.07535444 0.0056174244 0.24953641 -0.02104452 0.009356121 -0.13159107 -0.020374378 0.087009974 0.084092066 -0.17502886 -0.11836789 -0.10985481 -0.14623903 0.039410733 -0.0936224 -0.13236028 -0.002884418 -0.081905864 0.039200112 0.008166448 -0.1147704 -0.005564903 0.2735269 0.112348005 -0.041493796 -0.014339579 -0.060375754 -0.15013726 -0.02244606 0.10131422 -0.11567282 0.05047639 0.052131534 0.08897763 0.15216349 -0.05416887 0.116850734 0.02048171 0.020173227 -0.0508304 0.24958535
10 0.09009129 -0.13396671 0.025669262 -0.043247256 0.122750446 0.03933151 0.04618549 0.107094996 0.11752546 -0.035072118 -0.10205013 -0.11346278 0.064239204 0.022869978 -0.060697805 -0.09588778 -0.1360379 -0.31975606 -0.067697145 -0.043798745 -0.06909763 0.034073513 -0.16324028 -0.20705077 -0.025056602 0.08826215 -0.19246225 -0.03606228 -0.09971926 0.14549287 -0.056182418 -0.11851679 0.046772726 -0.10532157 -0.06662071 -0.10283729 0.040506482 -0.08943046 -0.035673987 -0.07018732 0.028703906 0.0369749 0.04525593 -0.12872782 -0.14569266 0.049965322 -0.08770855 -0.04577143 0.07192322 -0.14530486 0.12710719 0.1594491 -0.04751668 0.18544091 -0.05762447 0.1500614 -0.023863634 -0.0004421067 -0.14009897 -0.013492116 0.08260158 0.17224331 -0.101166904 0.1024609 -0.08901801 -0.00783415 0.18139274 0.024511017 -0.11494803 -0.17850684 -0.20605417 -0.10229653 0.040718712 -0.09229578 -0.004316065 0.099801995 0.056689024 -0.020997744 0.048865788 -0.07625824 -0.08490575 0.20827809 0.020836256 -0.12299484 -0.035561867 -0.06927048 0.019706786 -0.08723645 0.06247501 0.0399215 0.09610664 0.05619569 0.01761028 0.1896859 0.027761402 -0.06374196 0.0048055965 0.043435022 -0.03619951 0.42843217
11 0.08677758 -0.13263713 0.056451607 -0.025924081 0.16139244 0.052308332 0.0669317 0.13208224 0.16956963 -0.034208894 -0.122719385 -0.111104056 0.070897534 0.03806712 -0.069211334 -0.10688101 -0.1449358 -0.34243155 -0.078671925 -0.044015884 -0.09317696 0.037173793 -0.16309446 -0.2254764 -0.025020866 0.0872031 -0.2097033 -0.03217773 -0.088073686 0.18383765 -0.04203088 -0.100535214 0.01951055 -0.1120342 -0.031562317 -0.10271623 0.054181393 -0.074596256 -0.07606196 -0.058718916 0.01569798 0.05260201 0.0053822477 -0.13046135 -0.13666657 0.0760827 -0.08434487 -0.06302868 0.05801963 -0.15961586 0.10200505 0.1590031 -0.047688056 0.15553573 -0.032320336 0.1511501 -0.044119008 0.024359815 -0.10980113 0.019947726 0.07657643 0.1515312 -0.05540594 0.10684415 -0.07312452 -0.010223105 0.16114782 0.032013565 -0.09751703 -0.19309247 -0.21108477 -0.09475325 0.03617634 -0.079329364 0.016099604 0.120763846 0.08202375 -0.006184686 0.030552208 -0.08167948 -0.10615093 0.13933669 0.017084707 -0.13111933 -0.046646457 -0.049203094 0.028114615 -0.06345432 0.057338644 0.059305344 0.07222095 0.080757 0.015997345 0.2134452 0.017787136 -0.05139486 0.030155027 0.071105 -0.06617207 0.40161884
12 0.1189535 -0.17623852 0.09438827 -0.04741322 0.091130204 0.063608326 -0.01282224 0.10401949 0.18162926 -0.023591273 -0.17892428 -0.14218661 0.12210903 0.018208185 -0.064955495 -0.10717392 -0.16833739 -0.36344835 -0.061013095 -0.08948806 -0.11748682 0.015441286 -0.24059752 -0.22008514 -0.00026029666 0.08524838 -0.23049517 -0.05845736 -0.06893384 0.21838039 -0.05580525 -0.10701207 0.0035715445 -0.1506201 -0.04424232 -0.098150924 0.04161541 -0.11053724 -0.065943085 -0.0064401184 0.03503932 0.012400141 -0.0020709988 -0.10826311 -0.15279019 0.07606026 -0.04550992 -0.06358083 0.048552085 -0.11743117 0.08551313 0.11372782 -0.052974645 0.10088755 -0.04834196 0.11433971 -0.019892354 0.038379893 -0.07192705 0.0027587507 0.07418975 0.16046973 -0.028948585 0.07860364 -0.09505918 0.00060319 0.121781446 0.04790227 -0.13190939 -0.17386182 -0.14724472 -0.10130449 0.029570794 -0.04376013 -0.04305948 0.123511806 0.08126118 0.006470493 0.073190406 -0.0837173 -0.07842057 0.16798545 0.040927622 -0.10272256 -0.013560286 -0.048402153 0.0056965984 -0.06986345 0.015226741 0.051034585 0.09034326 0.08187561 -0.016025184 0.19273831 0.0027759026 -0.042244524 -0.020902185 0.06495074 -0.049085956 0.31616336
13 0.059895016 -0.15028706 0.00484173 -0.060439873 0.01787519 0.038250312 -0.05684377 0.07833889 0.07661386 0.0029983816 -0.08682218 -0.07344769 0.09613003 0.0013181814 -0.032589965 -0.09372831 -0.13961653 -0.24572115 0.03254261 -0.06364537 -0.10257428 -0.038802605 -0.20804429 -0.115803786 0.022322724 0.014125056 -0.14739455 0.0028889005 0.0025006388 0.11288223 -0.06397236 -0.11335947 0.034607057 -0.106424816 -0.05643649 -0.027686264 -0.004574734 -0.053863373 0.036453366 0.01740055 0.013245102 0.068961546 0.03602231 -0.08283986 -0.09891313 0.058465753 -0.13071215 0.037630532 0.019921059 -0.12854269 0.11802975 0.116613716 -0.052852396 0.12221022 -0.065615 0.13877729 0.055399735 0.03356454 -0.06037119 -0.05152415 0.011677151 0.23706695 -0.081200905 0.032310914 -0.24751344 -0.024339385 0.07970674 0.034625653 -0.21177243 -0.07944233 -0.0637699 -0.17977525 0.0030884508 -0.10050185 -0.20383605 0.002761409 0.03595703 0.032040734 0.058325797 -0.09592737 0.041089907 0.25172344 0.048041742 -0.008180796 -0.013270907 -0.022545604 -0.118074365 -0.04573702 0.067495726 -0.12004034 0.054182146 -0.043007866 -0.022075264 0.077082254 -0.029098371 0.04173729 0.024779743 0.04300488 -0.013045649 0.24572155
17 0.08339943 -0.17728372 0.023431487 -0.039185677 0.13719562 0.06095481 0.026515862 0.17276914 0.120533295 -0.16227114 -0.032809913 -0.08247063 0.063717216 -0.016996177 -0.10619795 -0.17971447 -0.16745491 -0.41991773 -0.07792509 -0.053821143 -0.0885132 0.07718267 -0.1591071 -0.23500448 -0.017346445 0.1264799 -0.20152353 -0.090510584 -0.022192426 0.17915009 -0.06949134 -0.13257505 0.099156 -0.085902065 0.0024311831 -0.12085027 0.040026132 -0.024416186 -0.13200718 -0.076111384 -0.06745996 0.06553379 0.014714371 -0.15240893 -0.00056449475 0.08342568 -0.1137609 -0.06549704 0.07098592 -0.14551415 0.093372144 0.13674787 0.014956759 0.13630013 -0.057306204 0.12996896 0.063954435 0.059637085 -0.09844337 -0.05683822 0.019051652 0.24205755 -0.09603853 0.060058154 -0.120470755 -0.10818531 0.16541407 0.022975855 -0.15939945 -0.21199892 -0.24457003 -0.07421465 0.10049435 -0.13753237 0.0090760095 0.05318411 0.03989363 0.0063041886 -0.052736472 -0.0029919394 -0.13986555 0.19911543 0.003259276 -0.07537186 -0.09529491 -0.12502672 -0.030805545 -0.08190451 0.07765052 -0.028112428 0.1292424 0.03192156 0.07527207 0.20221576 0.017405447 -0.08184736 0.049752053 0.041593015 0.026551163 0.25250643
19 0.09936923 -0.13597916 0.017819379 0.008848365 0.15245913 0.02730867 0.042363744 0.14789534 0.13121776 -0.08615181 -0.06321263 -0.10093316 0.0753821 0.0321182 -0.0732173 -0.1596318 -0.14203514 -0.4127289 -0.06537077 -0.008465726 -0.039785247 0.044933748 -0.18975993 -0.26658666 -0.05162883 0.094102204 -0.21563217 -0.05066692 -0.075528726 0.1612626 -0.038314752 -0.1373951 0.093508184 -0.050391465 -0.03656579 -0.10587759 0.036112625 -0.0292358 -0.04361768 -0.09627558 -0.04869324 0.011622083 0.027413659 -0.12583308 -0.035978507 0.064700715 -0.06837947 -0.04103541 0.09747481 -0.119586065 0.09936824 0.115220316 0.03920578 0.12384876 -0.027039543 0.109432615 0.08085368 0.06592087 -0.13340522 -0.06634295 0.026197301 0.17696036 -0.11067814 0.053971056 -0.13145676 -0.09416484 0.17135344 0.018189214 -0.13372602 -0.16189583 -0.19127576 -0.09027917 0.081972495 -0.11142225 -0.013474144 0.02821599 0.014695494 -0.0070946156 -0.025455704 -0.022326812 -0.105935715 0.27410376 0.03649091 -0.0690872 -0.05879228 -0.080688775 -0.04643661 -0.08892157 0.06628416 -0.05323703 0.11258326 0.022699563 0.039583303 0.14589123 0.02870475 -0.07680014 0.057915702 0.07502953 0.0056941668 0.31434196
21 0.080014035 -0.16883908 -0.0013219992 -0.006745303 0.108676285 0.04298757 0.015840925 0.1457558 0.09430868 -0.12462285 -0.027170945 -0.10754369 0.06360296 0.013970945 -0.064904965 -0.14362496 -0.12535666 -0.3517363 -0.069848366 -0.038283963 -0.038718585 0.054605883 -0.15826663 -0.19098519 -0.019371916 0.08348565 -0.1921688 -0.07587227 -0.06270389 0.14142211 -0.052257817 -0.129877 0.05320498 -0.0754318 -0.042128645 -0.102112785 0.010033138 -0.0389018 -0.048446156 -0.06566918 0.0019183739 0.068572104 0.07818658 -0.14562966 -0.038383983 0.037035774 -0.12125662 -0.036938947 0.046923053 -0.13363957 0.11145356 0.13903838 -0.01154297 0.16376622 -0.05261863 0.1536871 0.05893263 0.022221822 -0.11366116 -0.058302198 0.046927206 0.25725687 -0.115473576 0.055019505 -0.12278415 -0.045459364 0.17192535 -0.002525313 -0.18813981 -0.16982254 -0.21446832 -0.12270341 0.0637679 -0.11523698 -0.0789744 0.071184374 0.061444037 -0.019912079 0.0051414655 -0.044517856 -0.061291467 0.22781855 0.016443761 -0.059864264 -0.07402173 -0.06872366 -0.04137092 -0.10145948 0.084697045 -0.028207483 0.08803621 0.008898382 0.035095666 0.1498219 0.047307167 -0.04630871 -0.011232126 0.011425446 0.008325528 0.20883396
31 0.04333119 -0.025149073 0.098919004 -0.029653462 0.14585552 0.061139867 0.12229762 0.015608551 0.17119963 0.00905273 -0.2094672 -0.08737088 0.019244557 0.0460797 -0.042860817 0.04852284 -0.029772788 -0.11631961 -0.1548687 -0.050606567 -0.14802206 0.050443858 -0.030800898 -0.096699916 -0.0079704095 0.121249445 -0.07718271 0.035061847 -0.084168255 0.077337705 0.012060505 0.033293575 -0.17878656 -0.055262458 0.06002161 -0.08657016 0.0746905 -0.027794566 -0.15645348 0.09284913 0.049535118 0.09137845 0.04569967 -0.040279794 0.03443235 0.08303181 -0.13975917 0.038128916 -0.107333004 -0.10954552 0.10258213 0.10854058 -0.035223268 0.0224109 0.043618787 0.17470355 -0.055394817 0.057991333 0.1324789 0.08920441 0.00544665 0.11013759 0.0965407 0.01362005 -0.1952287 0.074149765 -0.024421595 -0.031370766 -0.33191448 -0.12829028 -0.056677863 -0.17037097 -0.021411376 -0.030807646 -0.31617838 0.17373937 0.13013244 0.08029126 0.055560995 -0.14583522 0.006181848 0.27622506 0.05620377 -0.089807935 0.019596297 0.09466205 -0.09109538 -0.0632174 0.18241842 -0.041337933 0.0721881 0.11682098 -0.026221564 0.18936649 0.056605138 0.0338046 -0.06833386 0.085043125 -0.06370605 0.3942009
30 -0.04689426 -0.11897952 -0.014336355 0.011557846 0.06606586 0.082313225 0.09418302 0.0881186 0.1195222 -0.045650676 -0.0541453 -0.052479453 0.06409906 0.009930204 -0.007006492 -0.17616074 -0.06452167 -0.29590997 -0.0099635525 -0.004706232 -0.08237925 0.047428522 -0.11182717 -0.15391523 0.01295934 -0.04381661 -0.14714676 -0.053364974 0.030914392 0.10879108 -0.05290083 -0.038080145 0.06761471 -0.042651776 0.005422755 -0.02698905 -0.032407098 0.058609765 -0.07410319 0.06300622 -0.061329592 0.15686418 0.054135248 -0.08861913 0.061816476 0.1046907 -0.18222433 0.06736241 -0.03814123 -0.15716308 0.1584151 0.10257803 -0.03603707 0.119991906 -0.0464909 0.16956443 0.11964378 0.062198088 -0.031703535 -0.07593793 -0.012341087 0.29776305 -0.09419503 -0.022624528 -0.11311694 -0.05919849 0.08617082 0.00067431014 -0.1923847 -0.13544126 -0.1431394 -0.12354208 0.064009786 -0.0822569 -0.13854787 -0.015419089 0.01819966 -0.008126657 -0.061851062 -0.039527483 -0.005276688 0.22292253 0.034403436 -0.044254117 -0.05874496 -0.071555115 -0.11548353 -0.038235717 0.19920857 -0.12921587 0.06804828 0.0018602749 0.11307296 0.1406716 0.03242138 0.047131594 0.18871172 0.087772876 -0.028519155 0.1830964
9 0.05754726 -0.22842832 0.02509552 -0.041971434 -0.085083514 0.06975355 -0.09722963 0.0065811174 0.10435085 0.085999906 -0.14150113 -0.0899682 0.18811356 0.03295745 0.08464464 -0.14382742 -0.114406854 -0.23722532 0.0033862526 -0.112487644 -0.07369824 -0.07738772 -0.30300632 -0.10289565 0.09962116 -0.119175114 -0.18321565 -0.06736177 -0.024289556 0.14467815 -0.0683124 -0.14739925 0.049038555 -0.10704339 -0.08102634 -0.012663807 -0.17827864 -0.14098656 0.14518507 0.04701296 0.089008875 0.05090063 0.12310428 -0.05269458 -0.145683 0.04593142 -0.1610942 -0.007445463 -0.06970886 -0.07605439 0.19391228 0.024190357 -0.130424 0.12525599 -0.16434197 0.1893865 0.032742493 -0.05855846 0.008780308 -0.0920002 0.13679582 0.2817871 -0.12226267 -0.0063825445 -0.110977955 0.00978992 0.12090722 0.037164584 -0.15872635 -0.021451237 0.059185486 -0.084653676 -0.0069989413 -0.038665447 -0.13680267 0.034276158 0.04060889 -0.04758633 0.20496742 -0.092274494 0.04701473 0.1392336 0.13558817 -0.0060636955 -0.060137447 -0.10966007 -0.13609008 -0.11458231 -0.004796944 -0.023532286 0.009897385 -0.033426434 0.047242466 0.109130345 -0.03377539 0.056454018 -0.07746966 -0.08829033 -0.014908599 0.41986704
27 -0.0048578093 -0.050995134 0.058926944 -0.009565467 -0.002103746 0.00996303 0.062500544 -0.060970724 0.08843194 0.10557173 -0.20622069 -0.04308745 0.067260675 0.03405255 0.076349676 -0.017644659 -0.052046467 -0.044446465 0.0015956786 -0.06372406 -0.1489974 -0.054727696 -0.06663512 -0.028917082 0.0555392 0.0010399099 -0.00840872 0.1039613 -0.0018124315 -0.051522877 -0.031155057 0.059045147 -0.1356276 -0.09137077 -0.023954382 -0.0511589 -0.045652058 -0.04968287 0.028198441 0.11125326 0.053156342 0.092206575 0.10709606 -0.07177899 -0.049747214 0.066877306 -0.20061655 0.12533544 -0.13107759 -0.11056405 0.14134939 0.10190038 -0.07753163 0.054947693 -0.034951434 0.22176005 0.021299113 -0.019535886 0.08827287 -0.024695512 0.04548328 0.24470839 0.0340349 0.011409966 -0.29265898 0.050887693 -0.04925999 -0.050490048 -0.3078083 0.054736428 0.05390368 -0.19873199 -0.06256338 -0.0046227495 -0.38843513 0.04920681 0.09586926 0.08207424 0.12262992 -0.13075519 0.17490141 0.32439035 0.032989655 0.0021705888 0.014482818 0.09053775 -0.16920276 -0.030933768 0.15542291 -0.17239049 0.030676713 -0.012829345 -0.06537784 0.044345953 -0.040066574 0.12979943 0.008497642 0.053628698 -0.08464953 0.4304921
28 -0.053707782 -0.045522816 0.012022166 -0.040930375 0.051409747 0.07476591 0.09529465 0.02042953 0.124920435 0.073950075 -0.17178571 -0.05050988 0.07531684 0.018322933 0.026985392 -0.011072478 -0.052449696 -0.093875825 0.025128007 -0.060836762 -0.17634167 -0.037174948 -0.10561635 -0.031826545 0.055419818 -0.03673059 -0.061046515 0.091111 0.022729179 0.037925407 -0.028813427 0.043512248 -0.11393345 -0.11873173 -0.0019245555 -0.044859737 -0.033037543 -0.078666195 -0.04173766 0.12106509 0.08062861 0.16676651 0.073663145 -0.076695025 -0.040789034 0.08205277 -0.23679791 0.03528334 -0.10148334 -0.17056797 0.16527301 0.11049273 -0.10151637 0.11422706 -0.058478285 0.2607466 -0.002775925 0.017317029 0.06952847 0.01737006 0.025292257 0.25802803 -0.011798319 0.023333568 -0.17145684 0.03802058 0.06544213 -0.009315347 -0.27686346 -0.081232764 -0.031068657 -0.16737066 -0.020129923 -0.083259925 -0.26974496 0.09414993 0.09410007 0.031546332 0.10599647 -0.12669246 0.06292673 0.18516035 0.101319686 -0.040493954 -0.024272872 0.040099464 -0.111092485 -0.078640215 0.09817994 -0.055953115 0.020653117 0.032089554 0.0073097856 0.14904869 0.013338599 0.079654805 -0.04685864 0.02071143 -0.08515163 0.19621836
32 -0.13081016 0.00037881997 0.009474504 -0.009854936 -0.16016296 -0.031888887 -0.013859411 -0.1616015 0.01199403 0.048076868 -0.14653939 -0.10420019 0.039685823 -0.0384812 0.07062887 -0.03300179 -0.09876915 -0.14897725 0.1683294 0.019947475 -0.07336857 -0.05241567 -0.10239132 -0.051378638 0.061602775 -0.09011257 0.057207525 0.121217474 0.09935512 -0.08941305 -0.07578485 0.16632098 0.01718176 -0.093244225 -0.116434485 0.042460103 0.038693197 -0.0014090235 -0.0064623314 0.13801706 -0.004646222 0.118481375 0.054772254 -0.09706717 -0.02802649 0.007941668 -0.22908892 0.23671366 0.0043552 -0.24442655 0.15697058 0.25950462 -0.14568105 -0.052443087 0.0052589197 0.14905441 0.11876008 -0.044524387 -0.013035269 -0.1382309 0.07265679 0.28710508 -0.020094639 -0.09950539 -0.14952193 -0.035359867 0.040306773 0.16388331 -0.18402644 -0.045731373 -0.22044174 -0.18030156 0.049571928 -0.033191506 -0.17996556 -0.09017736 -0.15797035 -0.013606594 -0.032690834 -0.11477797 0.07508254 0.5121153 0.035051797 -0.036003377 0.15128903 -0.117168255 -0.15078299 0.010459466 0.059526097 -0.25801507 0.11134094 0.043344732 0.0023423405 0.1208378 -0.06226774 0.090223484 0.0657496 0.09014946 0.026287803 0.23098895
6 0.08388964 -0.0034076285 -0.12167856 0.07557825 0.21508428 0.036316138 0.121127844 0.0631694 0.04311459 0.004176354 0.045027655 -0.29121202 -0.13892591 0.24205764 -0.05332287 0.044576358 0.06552265 -0.26425704 -0.23334628 0.12821822 0.24783485 0.12374578 -0.18405125 -0.22722596 -0.1916539 -0.0064003207 -0.2677735 -0.123183556 -0.38955802 0.1562184 0.06459115 -0.10010759 -0.0038482046 0.0038300352 -0.3014627 0.106026314 0.12631601 0.03203339 0.13761793 -0.092299014 0.24312557 -0.005020638 0.13334592 -0.025864018 -0.34695095 -0.22327784 0.053121746 0.07422893 0.16878106 -0.2293401 0.17878076 0.36121964 -0.22480111 0.34506544 0.086988136 0.00811629 -0.20193517 -0.10496996 -0.3578638 0.09918749 0.16709493 0.03947129 -0.24063337 0.029458124 0.012445709 0.2522974 0.2090911 0.039793678 -0.13686824 -0.26243314 -0.38362372 -0.32002434 -0.047150124 -0.08460552 -0.16528824 0.11901761 0.0076876506 -0.12754911 -0.026457598 -0.26757976 -0.057190035 0.3691255 0.007405325 -0.27575007 0.15745077 0.04824279 0.02588303 -0.07963199 0.3030823 0.057599097 -0.027248072 0.07612724 0.014941387 0.16174409 0.26491302 0.04767881 -0.19492386 -0.02177911 -0.09730509 0.29706317
16 0.070543274 -0.00913818 -0.08472893 0.077730864 0.18487073 0.033253185 0.086189635 0.08486203 -0.0040342486 0.04538015 0.054632515 -0.2302529 -0.101322785 0.19610518 -0.055823747 0.051603142 0.05986279 -0.23200051 -0.17423587 0.07077195 0.20148797 0.087423645 -0.16821396 -0.18604738 -0.19140393 -0.013032048 -0.23685336 -0.118474245 -0.33657423 0.13562323 0.07564006 -0.103443824 -0.013875299 0.0032712368 -0.25363702 0.07378414 0.07951705 -0.01876231 0.16645333 -0.08696894 0.2204993 0.009952103 0.058984254 -0.004750963 -0.32008442 -0.18718097 0.06280422 0.06850882 0.14408547 -0.2137269 0.13698713 0.27493826 -0.19927388 0.32316777 0.07326069 -0.013920257 -0.1741977 -0.05635624 -0.33911467 0.07775144 0.1129239 0.049661737 -0.22045146 0.062326495 0.043722004 0.34090015 0.26067054 0.037482247 -0.12515171 -0.3183395 -0.43159598 -0.39177573 -0.075655825 -0.07080612 -0.18740396 0.17075126 0.090000056 -0.12889798 0.031959336 -0.334488 -0.06635467 0.41355607 0.012864036 -0.29863304 0.21265723 0.08798545 0.045833908 -0.07277828 0.3771091 0.10604195 -0.041100193 0.09570965 -0.007127721 0.1868246 0.34481296 0.07813943 -0.11204117 -0.007745268 -0.119153626 0.22746024
33 -0.079943635 0.07899722 -0.07360401 -0.06956942 0.10270396 0.04788527 0.09736034 0.030882034 0.10155888 0.15164067 -0.1316607 0.0045925835 -0.015063654 0.042912077 0.005146156 0.036506493 -0.06467263 -0.02770462 0.0926938 0.009688247 -0.17688848 -0.05433736 -0.14443828 -0.0074911406 0.018076148 -0.03210067 0.001987666 0.15504462 0.050007835 0.044203654 0.0034748414 0.07530671 -0.044152148 -0.06774459 2.2785876e-05 0.043857552 -0.017107453 -0.053556524 -0.045146618 0.15482308 -0.13595572 0.16193831 -0.15736954 0.022495367 0.042244736 0.11421954 -0.25338498 0.15118648 -0.016903989 -0.21708523 0.10516668 0.08699821 -0.045138657 -0.04995512 -0.01999647 0.09720604 0.11884632 0.15592293 0.0910428 -0.03557524 -0.14883845 0.18369865 0.02405024 -0.050881483 -0.28695193 -0.00944173 0.033302356 0.14918879 -0.2437419 -0.1345138 -0.088338144 -0.23408113 0.011281878 -0.1781298 -0.2731245 -0.022659289 -0.09231174 0.13143341 0.03773364 -0.17966026 -0.004228434 0.37058598 0.13589658 -0.05159972 0.07535533 -0.0020292317 -0.23226215 -0.014190504 0.17202763 -0.23424 0.010977187 -0.0007158235 0.05521698 0.17075855 -0.018475886 0.18574041 0.1029368 0.048447736 -0.010761302 0.25712863
24 -0.04925578 -0.0006649174 0.107724994 -0.012894884 0.13851616 0.05607281 0.23302577 -0.063402526 0.26077712 0.12986219 -0.37480184 -0.1309563 0.04654352 0.09684218 0.041981127 0.013475393 -0.04179506 -0.11097265 -0.10251434 -0.060640533 -0.2715213 -0.031130014 -0.06346281 -0.103022106 0.034983188 0.063223444 -0.07081165 0.17361769 -0.037997615 -0.00097449624 -0.024539309 0.1691445 -0.26773387 -0.13303265 0.023830984 -0.061606154 0.06541967 -0.018566238 -0.11655397 0.17550637 0.12023021 0.063906096 0.09081339 -0.013210511 -0.031215785 0.06569412 -0.10111873 0.045242686 -0.17012139 -0.05917042 0.070804976 0.09449888 -0.07250339 0.016327044 0.04940124 0.20259288 -0.10458208 -0.0065194312 0.18646123 0.120103136 0.04421092 0.1372043 0.15227057 0.013029972 -0.25137308 0.09610534 -0.13382182 -0.09100417 -0.33657497 0.034348905 0.074705705 -0.18638913 -0.102224745 0.0232495 -0.4058744 0.16338111 0.17363073 0.11093536 0.07741288 -0.11931512 0.13614768 0.23028983 0.013295619 -0.07130632 0.018710855 0.19191103 -0.1231404 -0.007937366 0.178301 -0.101220384 0.025960188 0.07669432 -0.08678904 0.111020714 0.01853699 0.09304947 -0.055863928 0.112976685 -0.1488088 0.40738028
25 -0.04847498 0.018191703 0.07646661 0.0203462 0.15311247 0.032801386 0.25971687 -0.04867876 0.16675588 0.105685666 -0.2774916 -0.07125532 -0.0062053027 0.09553901 0.0657166 -0.0049950476 -0.03242695 -0.06677708 -0.10829906 -0.054346427 -0.21381484 0.0015721893 0.022077918 -0.081741296 0.015862418 0.09782729 -0.008014488 0.15104009 -0.061144102 -0.084346265 -0.015551038 0.1783274 -0.24355595 -0.08484679 -0.006632744 -0.084744215 0.042090684 -0.02501459 -0.08059242 0.07269856 0.08884587 0.055484924 0.08177631 -0.060455166 -0.06351504 0.02026306 -0.10731566 0.06614566 -0.12840304 -0.106812276 0.06597636 0.14750081 -0.073274866 0.07024525 0.04942386 0.18746047 -0.08803136 -0.046622865 0.098101124 0.08310268 0.06266989 0.17356652 0.10687406 0.04735206 -0.25390142 0.10030334 -0.09691574 -0.109884515 -0.32530218 0.047712274 -0.030269321 -0.21064812 -0.08638449 0.008074796 -0.39787874 0.13208216 0.17043044 0.12639979 0.047825992 -0.13101874 0.14258021 0.27407277 -0.04283283 -0.078086086 0.009001189 0.17805043 -0.11281786 0.008997577 0.25152242 -0.15786038 0.02041434 0.041110832 -0.07886603 0.077819996 0.005964055 0.13574113 -0.03559639 0.062388502 -0.15608773 0.46315697
23 -0.13786554 -0.035274595 -0.010610894 -0.0066285 0.035000913 0.051246677 0.14924572 -0.037110556 0.15332313 0.12879133 -0.28389117 -0.085509434 0.0877092 0.039899968 0.08146952 -0.023546984 -0.05692282 -0.18454556 0.09812469 0.004338598 -0.21186014 -0.06420779 -0.13326466 -0.09588063 0.027521772 -0.05294136 -0.037107814 0.19696109 0.04897045 -0.05506426 -0.046324138 0.1253255 -0.16912778 -0.0028707343 -0.04224698 0.009357278 0.02045699 0.061308917 0.007583768 0.18137383 0.041561127 0.15299737 0.073633835 0.00812207 0.106101364 0.009175513 -0.1969827 0.2253362 -0.12675491 -0.15581584 0.12557468 0.11461724 -0.03287782 0.0010253105 0.08209747 0.15084024 0.074628346 0.04305836 0.0890872 -0.018040385 -0.08384695 0.09755881 0.044736482 -0.08028908 -0.19621766 0.08126923 -0.05836936 -0.034391295 -0.24102093 0.022671698 0.011241692 -0.21444204 -0.04384531 -0.015612444 -0.3783111 -0.026129542 -0.009695181 0.04187874 -0.026146553 -0.116470605 0.17277421 0.3410572 0.048388083 0.027229398 0.12445783 0.15933155 -0.14673798 0.013902789 0.17992465 -0.20852952 -0.0066614756 -0.03183847 -0.050992027 -0.0610122 0.07149436 0.11484152 0.064832516 0.15037453 -0.085745096 0.36001584
14 -0.10548311 -0.040984012 0.058794484 0.04352316 -0.06624547 0.044868153 0.058351245 -0.07976961 0.2010217 0.10000369 -0.20361812 -0.082623295 0.10046335 0.014249619 0.070000306 -0.13708085 -0.07025517 -0.22930062 0.16555104 0.03222128 -0.117504105 -0.054387473 -0.19418775 -0.13168252 0.05580493 -0.2145686 -0.05974017 0.07349109 0.16953892 0.0679142 -0.036246285 0.16468634 0.016434 -0.14973357 -0.07430848 0.09402656 -0.009743827 0.066965505 -0.03770043 0.24383235 -0.0473317 0.13877693 -0.017956909 -0.05817232 -0.011762235 0.12071875 -0.17420536 0.18843801 -0.03509329 -0.21852148 0.17831011 0.13642907 -0.111568145 -0.037468437 -0.004807961 0.116629526 0.11876682 0.09746632 0.011956238 -0.08666097 -0.03108172 0.23828217 -0.013624775 -0.11142908 -0.15999028 -0.032352123 -0.05284177 0.119934574 -0.1765787 -0.06739423 -0.056097277 -0.21372981 0.03224221 -0.004585676 -0.23557046 -0.14151828 -0.15735433 0.025948133 -0.12643084 -0.114517614 0.09173393 0.35451436 0.095403135 -0.0048752916 0.083516575 -0.01848701 -0.21594125 0.07182432 0.15453383 -0.26908797 0.033435237 0.016847381 0.05573662 0.044791926 -0.064247146 0.1705715 0.20473205 0.19058304 -0.08954587 0.0010426072
15 -0.115742065 -0.042326164 0.06777421 0.06862849 -0.062346637 0.042538155 0.07872536 -0.08438049 0.16827829 0.05814558 -0.15940687 -0.10471476 0.06642089 0.021669205 0.057140224 -0.13189897 -0.038471926 -0.22778042 0.11136376 0.046392314 -0.082489744 -0.019061472 -0.11987233 -0.13065374 0.023165816 -0.17499834 -0.068330154 0.034121532 0.1287537 0.04388799 -0.034220163 0.17567956 0.004871772 -0.14569138 -0.09488055 0.07004835 0.027742682 0.09959306 -0.061219197 0.23104033 -0.024209935 0.15934865 0.0152298175 -0.08856071 -0.016211562 0.104177274 -0.17222846 0.20639601 -0.03843836 -0.25444847 0.19052407 0.19957757 -0.13257271 -0.0026809783 0.020604763 0.13081892 0.11416321 0.06924612 -0.034725223 -0.06708038 0.0038456449 0.2672177 -0.020734144 -0.116273046 -0.0834784 0.002613678 -0.060663726 0.09744522 -0.13866596 -0.076106936 -0.13145806 -0.21393868 0.03374232 0.03385454 -0.20024863 -0.11349667 -0.1182343 -0.0044353143 -0.16796641 -0.10333395 0.08679586 0.3449017 0.028528525 -0.03765383 0.10213747 -0.013707771 -0.14938024 0.087282345 0.19809777 -0.24784534 0.031619236 0.032856554 0.039736394 0.03888528 -0.0112808375 0.1478824 0.21879119 0.22209385 -0.112712584 0.08209473
18 -0.15912774 -0.015821187 0.041698407 0.033595715 -0.032100305 0.061148148 0.13608077 -0.08714748 0.190988 0.104226805 -0.22157817 -0.085533075 0.07481579 0.017743506 0.07657169 -0.11516316 -0.060476612 -0.20477697 0.14057016 0.02347036 -0.15363653 -0.047360733 -0.14341272 -0.11452698 0.058699645 -0.18579799 -0.03436063 0.10287997 0.158865 0.018933093 -0.044505175 0.20721944 -0.0332387 -0.1406908 -0.060180705 0.07008078 -0.0070176953 0.05938828 -0.07776204 0.2545686 -0.02646729 0.1511753 -0.003354027 -0.041602913 0.027802307 0.096422546 -0.18641454 0.1717586 -0.061549045 -0.21068878 0.16088474 0.13748986 -0.11524679 -0.041666593 0.010673109 0.13059346 0.09834428 0.06941789 0.05424094 -0.064497784 -0.024230894 0.24850404 0.009517087 -0.1107946 -0.11970201 -0.011600119 -0.026875027 0.09905617 -0.1969249 -0.080963664 -0.10006602 -0.2037192 0.026609063 -0.019099813 -0.23273748 -0.07892166 -0.11170269 0.01605064 -0.10396972 -0.11359933 0.065397985 0.33628303 0.08603167 -0.039916452 0.07474669 -0.017505553 -0.18790385 0.051458374 0.17097194 -0.23750144 0.040216587 0.04633053 0.05983343 0.08976307 -0.025615081 0.15115659 0.14587589 0.15324013 -0.093556486 0.08219595
20 -0.09946671 0.070803955 -0.0259285 -0.028738473 0.021367759 0.059508808 0.08426791 0.008138822 0.043666262 0.07331462 -0.061865643 0.022703752 0.033351354 -0.02400837 0.0023543844 0.034086443 -0.002770675 -0.027897706 0.10989643 -0.005706189 -0.13613911 -0.03823372 -0.044296347 -0.005561842 0.021638287 -0.06834779 -0.0008067095 0.10368386 0.0950569 0.0052984785 -0.011608136 0.038477037 -0.034421306 -0.051059555 0.031431995 0.014350876 0.004839171 0.03747461 -0.055218138 0.16679673 -0.02272076 0.22208706 -0.0025545224 -0.05803329 0.052808918 0.1540771 -0.28132296 0.1623233 -0.0794212 -0.21198526 0.19398753 0.11653435 -0.055696223 0.09041678 -0.020970253 0.23413786 0.12450125 0.11909772 0.030263232 -0.037983224 -0.08985788 0.29962066 -0.05370125 -0.018314874 -0.26783812 -0.01018272 0.05249717 0.04045514 -0.35452512 -0.14671277 -0.07965877 -0.249452 0.01190798 -0.111667536 -0.36379302 -0.010972944 0.033270832 0.04555301 0.032846313 -0.15366103 0.07538503 0.36601546 0.11178135 -0.023244089 0.032866303 0.028039258 -0.18304269 -0.04766659 0.20543581 -0.18549192 0.06947013 0.021281686 0.024541773 0.16400334 0.012616422 0.107936986 0.19284348 0.15260842 -0.06673183 -0.07702454
22 -0.13819629 0.02123224 -0.041903302 -0.0030076553 0.045876566 0.067165926 0.1433523 0.039360505 0.08349186 0.058912173 -0.09146451 0.01847157 0.043209814 -0.016385796 0.03189074 -0.038772132 -0.010235724 -0.07568955 0.11856316 0.013020022 -0.14693192 -0.032100867 -0.022457277 -0.03462372 0.016351357 -0.08274463 -0.001998789 0.11504388 0.10307188 -0.029706886 -0.023182908 0.075366355 -0.058361635 -0.034792654 0.008593022 -0.0047885883 -0.020514885 0.058219682 -0.05095592 0.14966418 -0.027930543 0.23852342 0.016860792 -0.060443856 0.09948127 0.11657042 -0.27474508 0.15609369 -0.09280758 -0.20703703 0.1755112 0.09593475 -0.029056199 0.106767535 -0.006995027 0.21325725 0.13646644 0.118031144 0.0160292 -0.0571862 -0.1194388 0.29034787 -0.05720928 -0.014367174 -0.23764643 -0.012565255 0.060761366 -0.009756397 -0.32207915 -0.122544736 -0.083400816 -0.24076667 0.023324816 -0.11275506 -0.3553298 -0.030377166 0.016483873 0.04385975 -0.023087744 -0.12008947 0.10440752 0.3335573 0.09521408 -0.00014909865 -0.0053892336 0.059931822 -0.17955743 -0.02303415 0.23407958 -0.2071196 0.04247246 -0.013809527 0.05378408 0.088036336 0.029738408 0.11255307 0.16932583 0.123606026 -0.07779783 -0.023755532
26 -0.17858396 -0.0314346 -0.14035887 -0.016294744 0.14949065 0.08119879 0.2487919 0.1527129 0.07834708 0.09784415 -0.17678185 0.018260669 0.106913276 -0.006172641 0.088833615 -0.051704433 -0.05238685 -0.23920622 0.17044593 0.041172504 -0.18243076 -0.049029075 -0.074329704 -0.16133 -0.04909274 0.013831244 -0.057120487 0.22077823 0.009768083 -0.11278834 -0.04783169 0.0019931395 -0.11266526 0.15570365 -0.057762906 -0.0922939 -0.019934678 0.08434044 0.052925862 0.025530115 -0.036763728 0.24747881 0.047255345 -0.048163943 0.22983143 0.0010647466 -0.27834234 0.23242542 -0.07245451 -0.24000655 0.16573845 0.088141546 0.10557345 0.16902155 0.09266775 0.1652518 0.22302584 0.14715688 -0.09924729 -0.11296725 -0.25054902 0.091323785 -0.10434901 0.018121766 -0.18328916 -0.00080097944 0.14041977 -0.13114099 -0.22054546 -0.07138542 -0.07947154 -0.1803308 0.045823257 -0.113237776 -0.31418964 -0.09928106 -0.00253468 0.028337456 -0.058063544 -0.048717488 0.1564886 0.3172427 0.0833221 0.09684546 0.034982696 0.16817208 -0.0642878 -0.043047242 0.17939655 -0.18082245 0.0216507 -0.1300953 0.0053631864 -0.1701346 0.11776794 -0.010563509 0.16252217 0.13453373 -0.07788406 0.27562264
29 -0.20895481 -0.038596254 -0.18900093 -0.074150875 0.19445911 0.07734459 0.36453936 0.12525223 0.0978117 0.21242577 -0.25706095 -0.009086224 -0.02678246 0.094667405 0.123211026 -0.09065324 -0.06715925 -0.21546079 0.118821114 -0.006634641 -0.2714567 -0.07365295 -0.11008559 -0.15765065 -0.02323118 -0.008055398 -0.052326024 0.31652167 -0.0032048207 -0.19673716 -0.07620037 0.10861034 -0.10818654 0.10579853 -0.060867466 0.009622338 -0.11454182 0.13813648 0.110209726 0.077146545 -0.09031483 0.17900477 0.036566596 0.01612058 0.14151977 -0.058004797 -0.21847622 0.26002038 -0.13149822 -0.18780294 0.07433406 0.08432855 0.060968015 0.20178269 0.032369077 0.08004143 0.10900872 0.06468539 -0.047565766 -0.0889877 -0.27541664 0.07696874 -0.043346163 0.029729294 -0.34567213 0.04810291 0.026599688 -0.17883551 -0.17322508 0.029253023 0.025812987 -0.21119003 -0.054011203 -0.11695689 -0.3640083 -0.13998993 0.0174401 0.106644385 -0.06145285 -0.050994907 0.21705209 0.25166345 -0.010613368 0.054762654 0.03746644 0.18796545 -0.15455055 0.02665977 0.31877208 -0.24112459 -0.057474263 -0.25435287 0.024464581 -0.23291112 0.053684823 0.1233348 0.2861714 0.08115078 -0.094129674 0.45910558
