34 100
0 0.104412526 -0.089784406 -0.026184393 0.06902081 0.28663594 0.11891438 -0.12019319 -0.0132867955 -0.110748895 -0.13180657 -0.08063864 -0.15966806 0.24999918 0.29970637 -0.0097164 -0.005697262 -0.089210026 -0.3005972 -0.040688038 -0.052333586 0.28207365 -0.050508603 -0.17913683 0.08262172 0.11969412 0.038446147 0.08823797 7.6448545e-05 0.0041051595 -0.044173915 0.06812237 0.021218417 0.048659377 -0.031116024 -0.029845543 0.040807292 0.13034624 -0.10360396 -0.011984167 -0.102661826 0.12472752 0.032593843 0.21359025 -0.15486622 -0.15773693 0.06359701 -0.19699891 -0.07470638 0.060206212 0.038260102 0.037584566 -0.11273353 -0.06756679 0.030260041 0.034277964 -0.071697645 -0.12876837 -0.19427909 0.15527351 -0.047137383 -0.117618635 0.14890532 0.11571385 -0.10495624 0.11181661 0.031492453 -0.01374881 -0.020387975 0.15197258 -0.03269176 -0.063166216 0.064120404 -0.011774975 -0.030952265 0.036735915 -0.16334715 -0.05967826 0.13176112 -0.10486285 0.22397487 0.04574361 0.07327224 0.025039827 0.04751897 0.046742607 -0.090367205 0.085217886 -0.038062006 -0.07835027 0.13140704 -0.05264374 -0.059117354 -0.08413571 0.14606315 0.077790685 0.09434386 0.023218244 0.0727884 0.13490286 -0.19111815
1 0.10985428 -0.10781339 0.10838998 0.023110257 0.26311526 0.08725719 -0.05615721 0.021441188 -0.17849873 -0.18691474 -0.10754659 -0.15162861 0.27044824 0.33324185 -0.0017316192 -0.008642264 -0.07929697 -0.19601153 0.05037032 -0.030318163 0.2537604 -0.03767021 -0.14690702 0.06530295 0.12117991 0.10387089 0.13999952 0.052353553 -0.016855251 0.0035573589 0.08443559 0.035688635 0.024490854 -0.08309779 0.001166948 -0.022936998 0.013681105 -0.12615295 0.09686779 -0.029225761 0.092451446 0.04761122 0.17754188 -0.11771631 -0.14512189 0.061715774 -0.047286235 -0.020865139 0.028885001 0.049963 0.049093693 -0.05792507 -0.047623314 -0.010049632 -0.024786398 -0.09705238 -0.07105344 -0.16615787 0.17242225 0.032385003 -0.07202212 0.03175794 0.15319262 0.04437401 0.02262073 0.07884366 0.0032759332 0.030938879 -0.036694605 -0.057289798 0.02911239 -0.08761946 0.014654311 0.08622793 0.03279154 -0.23975465 -0.009641491 0.090432465 -0.07143245 0.095209904 0.0059208265 -0.012560771 -0.052045997 0.04495705 0.09020709 0.005846045 0.020591468 -0.043374456 0.047883045 0.24217056 0.12138152 0.00016784831 -0.099741526 0.23004657 -0.0261683 0.0654445 0.104703926 0.023828767 0.05873899 -0.3449301
2 0.12452525 -0.013526204 -0.050823685 0.1277299 0.1796285 0.11986201 -0.09580578 0.08009055 -0.08380616 -0.11299198 -0.07167421 0.0005029456 0.07506366 0.19556935 0.08938575 -0.06047358 0.0612721 -0.14599015 0.0019218011 -0.05261909 0.19287543 -0.1558587 -0.122327715 0.14595863 0.013925185 0.07280933 0.19711992 0.025029577 0.020667179 0.077264704 -0.047820274 0.023005793 0.01860729 -0.028408192 -0.11980097 0.021008978 0.03750084 -0.12299996 0.060481813 -0.047977213 0.045526598 0.019855283 0.12207547 -0.03157221 -0.09997074 0.017577905 -0.033301774 0.00071345916 -0.0008318614 0.054171097 0.06414478 -0.044693924 0.057758808 -0.008660955 0.03405659 0.0009288535 -0.10475971 -0.05426553 0.11225642 -0.08251474 -0.07501045 0.008090112 0.13228285 0.029567417 0.08525829 0.20903741 0.049232308 0.10894539 -0.013363799 -0.10088427 0.1272446 0.041749667 -0.054424245 0.01371611 -0.0012995976 -0.26990503 0.026936486 0.16677462 -0.041211132 0.1763378 -0.021556417 0.023275815 0.074642956 0.20964007 0.14108843 0.005921184 0.015133457 -0.123603255 0.07399705 0.18563585 -0.027908929 -0.08626166 -0.042493656 0.1894747 -0.0014866454 0.07505373 0.08077024 0.021438027 0.09959246 -0.29465458
3 0.061361555 -0.013724926 0.045455735 0.049966957 0.20455591 0.099799454 -0.05011097 0.060514636 -0.09932472 -0.075929396 -0.08500877 -0.104865514 0.16668595 0.23073079 0.07643786 -0.01860697 0.058525443 -0.10080678 0.023735743 -0.030028246 0.15813114 -0.05087849 -0.085585795 0.063663155 0.05275043 0.08303335 0.13304138 0.071817026 -0.010037392 -0.018461026 0.04199067 0.02577476 -0.006545552 -0.048948742 -0.1075059 0.03448144 0.095069945 -0.1378129 0.09640814 -0.120723724 0.06550259 0.0873429 0.20908062 -0.1330903 -0.102992915 0.095886335 -0.027122026 -0.05455382 -0.048704058 0.027513243 0.06352498 -0.025717452 -0.05606327 -0.06609905 0.03143874 -0.08883452 -0.104976036 -0.17355901 0.16162579 0.066547655 -0.13644376 0.084971465 0.16040878 -0.081867 0.10458251 0.21823452 0.07227447 0.13155912 0.037833873 -0.17983475 0.112166055 -0.03239757 -0.025205284 -0.0009808365 0.017588599 -0.34717372 -0.026141211 0.14547206 -0.12739377 0.22388786 0.018768853 0.0017729888 0.093558714 0.25694594 0.16612922 -0.009303451 -0.013290801 -0.12955242 0.08565411 0.12350232 -0.068465464 0.010906395 0.04542678 0.11963351 0.031789415 0.051538497 0.103823744 0.04718306 0.028593574 -0.22946052
4 0.19585313 -0.07961725 -0.12709294 0.010670568 0.25835449 0.15227956 -0.1453229 -0.12755442 -0.050603848 -0.04435544 -0.06883821 -0.17655131 0.17999415 0.21205054 -0.14027 0.058128685 -0.143191 -0.30159712 -0.058677062 -0.09015881 0.22496644 0.06915752 -0.09206924 -0.048620038 0.13278595 0.002887592 -0.160149 -0.07216193 0.033015948 0.010591553 0.014598458 0.12382958 -0.03386899 0.054338988 -0.07693632 0.09692404 0.19473942 -0.07473481 0.035047613 -0.096383944 0.12689026 0.13143553 0.2271635 -0.07573807 0.020370575 0.03022663 -0.14202842 -0.1341962 0.049682587 0.03375114 0.119615585 -0.16062711 -0.076024234 -0.19208254 0.14910534 -0.08140883 -0.22954716 -0.2630388 0.119840816 0.123724796 -0.17982408 0.23197125 0.17325181 -0.12062271 0.081767455 0.24569023 0.018596714 0.06424861 0.3642418 -0.038658004 -0.071168005 0.15149598 0.07431258 -0.023007464 -0.038824007 -0.1649405 0.021336313 0.25843468 -0.12967579 0.24278879 0.038898956 0.26245502 0.1643206 0.1940532 0.109575875 -0.17614768 -0.07236983 -0.11569447 -0.040527288 -0.019704765 -0.28138983 -0.08697576 -0.11960898 0.13425176 0.26667655 0.11586351 -0.04719431 0.10908728 0.13865434 -0.30998445
5 0.22472434 -0.10034921 -0.12644961 0.011614751 0.26566735 0.16839017 -0.1728649 -0.22525106 -0.033134054 -0.06909522 -0.06510955 -0.28200087 0.24593636 0.33791062 -0.15335514 0.07208906 -0.19628517 -0.44488385 -0.10111345 -0.16743702 0.2784608 0.077894546 -0.084688835 -0.035612635 0.21324585 0.057992376 -0.22205465 -0.041529324 0.027832568 0.03092328 0.0065400205 0.1636896 -0.033283584 0.12077488 -0.079994045 0.16239281 0.16351941 -0.061551847 0.033116594 -0.071703054 0.1830637 0.19660641 0.21163642 -0.0513666 0.093159966 -0.008150027 -0.11991277 -0.15910234 -0.0037715356 0.002170185 0.16552807 -0.10568109 -0.15740483 -0.19866921 0.10683542 -0.100387804 -0.18233602 -0.3064983 0.11561463 0.24232909 -0.100414515 0.3328439 0.15458177 -0.11984603 0.017914621 0.24305637 0.08052213 0.020116504 0.46305186 0.059263956 -0.1253087 0.17114735 0.15690893 -0.05645041 0.046856284 -0.050381638 0.04451001 0.23084173 -0.095275246 0.19078918 0.040286444 0.34119892 0.1441295 0.16942017 0.007110625 -0.2322723 -0.15565656 -0.10047278 -0.05573598 -0.11563006 -0.3875862 -0.038411096 -0.0990767 0.08351918 0.32662162 0.16714561 -0.10658096 0.15130118 0.17467186 -0.29952982
7 0.09751156 -0.056035567 0.0703943 0.051177565 0.2785422 0.15128572 -0.0016135353 0.047342245 -0.11207991 -0.050505187 -0.112736695 -0.11181147 0.15082258 0.17071247 -0.04358482 -0.00028750845 0.015605459 -0.103049226 0.023844179 0.032086954 0.16778149 -0.050764967 -0.12963703 0.005576184 0.013991553 0.008840651 0.036820956 -0.04444765 -0.04833447 -0.064710334 0.08416974 0.029021677 -0.051772032 -0.13791122 -0.020679077 -0.0008868084 0.12906885 -0.18002313 0.0784172 -0.09925522 0.023508485 0.023622515 0.24339703 -0.1755276 -0.20603324 0.11834731 -0.15093105 -0.027839249 0.0014946997 0.062219184 0.05826412 -0.050079826 -0.0056931274 -0.026671646 0.06289115 -0.05738501 -0.1294381 -0.16474843 0.174307 -0.015527356 -0.14277102 0.015183518 0.12523343 -0.080839574 0.09400937 0.20368512 -0.01626494 0.12821475 0.083059564 -0.15054543 0.013560995 -0.0025205074 -0.08840401 0.009880852 -0.06900643 -0.30643648 -0.04014898 0.13606921 -0.14056855 0.20104827 0.04504421 0.050295103 0.08866035 0.22759911 0.18961528 -0.05250748 0.0031263626 -0.13070163 0.004980277 0.12028469 -0.025730886 -0.046287417 -0.027746396 0.13223022 0.12503238 0.056555267 0.07079818 0.010074829 0.083561346 -0.37410006
8 0.02890811 -0.044566095 -0.06495571 0.04740297 0.098276034 -0.004713885 -0.06233885 0.007579802 -0.070615776 -0.13574615 -0.064816184 -0.02397626 0.10417104 0.06509815 0.057408094 -0.05394876 0.040243454 -0.2868891 0.05013315 -0.011947601 0.23426236 -0.15320799 -0.110595234 0.12663308 0.037446164 0.14234859 0.20219292 0.030132664 -0.0033156043 0.03609279 -0.018457692 0.025990365 0.028710311 -0.010691546 -0.104071125 -0.09203729 -0.08855687 -0.16384028 0.023200406 -0.029544257 0.094992556 0.07040661 0.14300716 -0.13472763 -0.19565143 -0.15432523 -0.08469163 0.030474981 0.029522745 0.14444256 0.14216565 0.003425996 -0.056075625 -0.05892042 0.00784309 -0.17087437 -0.09740777 -0.09787182 0.13663174 -0.098012604 -0.013228054 0.061461523 0.21716987 0.13708557 -0.073075645 0.19461185 0.073140144 -0.022480758 -0.01245446 -0.030830154 0.117674135 -0.027707348 0.10017316 0.12032799 0.057765078 -0.14081457 0.039514244 0.15717593 -0.00035378098 0.0751481 -0.048036665 0.025783297 -0.020233523 0.06286193 0.12969527 -0.0032715239 -0.10162367 -0.0642893 0.06571359 -0.021842979 -0.0143066915 0.01953051 -0.03025512 0.030410627 0.0007807972 0.01871457 0.1266516 0.06263845 0.10206152 -0.30223757
10 0.07891911 -0.1221171 0.016328963 0.03883271 0.32465655 0.088348635 -0.06189849 -0.021156972 -0.12989369 -0.13085333 -0.121196225 -0.15842219 0.27140096 0.3239743 0.024105497 0.02102781 -0.07088655 -0.27931583 0.019673062 -0.049400963 0.25391448 -0.03196844 -0.18427181 0.070438795 0.06572748 0.0328586 0.045774788 -0.028596666 -0.041704576 -0.068622164 0.15983817 0.04964185 -0.00431765 -0.015152435 -0.068293795 -0.010141755 0.107906744 -0.115131736 0.01726162 -0.05932259 0.062174227 0.015521934 0.19033642 -0.14601114 -0.085552156 0.021273399 -0.05641749 -0.065597214 0.061849874 0.0739121 0.047775228 -0.03358211 -0.0387305 -0.023990292 0.056249935 -0.11230516 -0.12542711 -0.16171944 0.1432589 -0.06474389 -0.13661511 0.044929612 0.1685951 -0.071745664 0.04687801 0.10063798 -0.023852859 0.041835308 0.051235583 -0.08212678 0.040823776 0.038166337 -0.057097387 -0.0028550408 -0.02630501 -0.21868983 -0.052092552 0.08492089 -0.07743511 0.14404018 0.068211414 0.037324194 0.11698794 0.12550409 0.11764408 0.018839812 0.023230577 -0.048871987 -0.049736537 -0.0019359012 -0.09563606 -0.026115162 0.01977312 -0.025992205 0.024846196 0.02720497 0.103377305 0.12155559 0.13276166 -0.25645006
11 0.052527856 -0.10823958 -0.0024405848 0.02425588 0.31469965 0.09889527 -0.061935432 -0.0009137902 -0.1705523 -0.11927141 -0.12869442 -0.17117299 0.26781967 0.27303138 0.02246259 0.0018776251 -0.046130966 -0.29726046 0.011053028 -0.030739028 0.28165334 -0.05793812 -0.18529822 0.032421384 0.09107562 0.0057899775 0.032748308 -0.035427336 -0.048372168 -0.08756661 0.12948106 0.050882023 -0.020301623 -0.025897644 -0.08682165 -0.008831721 0.15002626 -0.13529424 0.024453357 -0.09962511 0.04586674 0.08016476 0.25134954 -0.12600264 -0.12068579 0.07158087 -0.112777494 -0.06658002 0.031813186 0.10707969 0.052115254 -0.032488793 -0.0804726 -0.111833625 0.07684744 -0.1366967 -0.11918412 -0.15533417 0.15518032 0.025244134 -0.16288881 0.06521683 0.14460957 -0.09730908 0.045619376 0.14273347 -0.012273829 0.05221158 0.10924396 -0.117846936 0.05390153 0.011145611 -0.01477775 -0.010861949 -0.058848146 -0.20813628 -0.04768587 0.11794893 -0.12063283 0.17961158 0.05525994 0.06607857 0.09773525 0.12615147 0.149009 -0.054427393 -0.02070368 -0.10775238 -0.026208704 -0.015491805 -0.1150789 -0.022040572 -0.03292535 0.01703215 0.09675836 0.02369249 0.063402124 0.10237493 0.12618524 -0.26445383
12 0.06941 -0.12638935 -0.009637491 0.026970252 0.32096285 0.06101421 -0.08259268 -0.0020291917 -0.11958088 -0.14790449 -0.118492305 -0.09688472 0.23631799 0.3194984 0.064008534 -0.01627328 -0.07852293 -0.27861542 0.024084201 -0.06505398 0.22576693 -0.04173633 -0.1968864 0.058725964 0.036613703 0.0028707776 0.04634908 -0.0682047 -0.026145948 -0.07296516 0.1659448 0.037658043 -0.01569283 -0.014292136 -0.0957352 -0.017521502 0.1485183 -0.10152043 0.001556232 -0.057057276 0.04387394 0.004195863 0.15980823 -0.12574308 -0.057502877 0.021252647 -0.05710598 -0.057070013 0.07900284 0.09090362 0.022567878 -0.028667344 -0.02831401 -0.012322641 0.081101984 -0.10181381 -0.14627793 -0.1294395 0.1291753 -0.08349698 -0.15817127 0.029307513 0.17174387 -0.089498036 0.024278892 0.14877707 -0.036058743 0.06482228 0.0489325 -0.07022525 0.059865132 0.069683015 -0.0682894 0.0015953752 -0.03335361 -0.24688226 -0.05684257 0.10590986 -0.06062031 0.16340853 0.054992575 0.018269243 0.13952045 0.14900865 0.11544872 0.023259485 0.04969924 -0.027058199 -0.04789087 0.028575912 -0.09749387 -0.07588738 0.025559833 -0.04866527 0.0012220214 0.017041367 0.122322924 0.16780603 0.13683946 -0.19635285
13 0.066538535 -0.016469302 0.058008745 0.017504992 0.13013536 0.07547293 0.008440384 0.050283067 -0.07333528 -0.07117413 -0.06873052 -0.04405231 0.12754686 0.15103915 0.019055083 -0.03550929 0.059398834 -0.06224583 0.046828404 0.009249181 0.11769411 -0.03130504 -0.038951974 0.07022754 0.020316461 0.0842246 0.10764428 0.023570487 0.00063420855 0.004851219 0.041870445 0.020095536 -0.010953985 -0.08406903 -0.044219855 -0.01300498 0.026542697 -0.1478098 0.08768831 -0.05530894 0.059090663 0.011032043 0.15035741 -0.15186329 -0.13358694 0.009260762 -0.036855217 0.0042181015 0.0073630693 0.043326948 0.076458804 -0.03777209 0.013859668 0.03818294 0.02515702 -0.066331245 -0.10700273 -0.13531505 0.15639354 -0.07425727 -0.056145024 0.029153047 0.19820048 0.037867464 0.041180618 0.24294549 0.0536029 0.1096684 -0.00791559 -0.10040812 0.086844146 -0.014173958 -0.023351526 0.06284321 0.037949987 -0.3462493 -0.003105592 0.1792189 -0.051073305 0.15241542 0.0033606584 0.0055241357 0.07435894 0.2663786 0.16451748 0.039217334 -0.002859977 -0.09289496 0.05510443 0.12382533 -0.017579976 -0.018117124 0.029121894 0.115986876 0.039597068 0.0805475 0.14100863 0.052412067 0.0619735 -0.4078351
17 0.11261921 -0.19399995 0.07965966 0.020904139 0.30954242 0.08491027 0.0050265426 0.030385759 -0.15149131 -0.1450086 -0.12691708 -0.13402691 0.28109246 0.24976477 0.0029976869 -0.016096782 -0.043551184 -0.24717164 0.10254764 -0.021748161 0.25252503 -0.02300856 -0.1410832 0.10231714 0.0415917 0.03334023 0.0362773 -0.0449132 -0.042312797 -0.07148343 0.18248127 0.051518884 -0.024923528 -0.061163764 0.023311589 -0.10126358 0.05156602 -0.12976542 0.08458923 -0.02346005 0.037058424 0.00866088 0.15753144 -0.16016124 -0.066854805 0.055225514 -0.028063057 -0.052980885 0.046478573 0.09359195 0.033593163 -0.050343003 -0.038949378 -0.036074802 0.06286211 -0.10940094 -0.09453077 -0.11802435 0.15386231 -0.07613626 -0.10871949 0.0021541798 0.11762884 0.0019218549 0.053328082 0.10706922 -0.057859134 0.047999058 0.06658062 -0.101017885 0.0003975928 -0.017664103 -0.03756937 0.049662065 -0.029822225 -0.25776953 -0.044742048 0.092257306 -0.077213325 0.09395544 0.072003715 0.06280897 0.10141375 0.11245218 0.15030748 0.0732747 0.01757232 -0.03335031 -0.04513997 0.070082955 0.011218648 -0.027454345 -0.06306613 0.053919528 0.06342932 0.06684764 0.10485078 0.08792986 0.1117369 -0.45247996
19 0.08171599 -0.17607646 0.096314736 -0.06020034 0.31057855 0.07985782 0.046542846 0.038145598 -0.21522191 -0.13155018 -0.14119932 -0.14974801 0.3036459 0.2700322 0.0020178726 -0.03066135 -0.034053404 -0.24954742 0.04733835 -0.011251051 0.23428144 0.015078247 -0.13776094 0.020524578 0.08784368 0.037625205 -0.026552796 -0.028700778 -0.020289764 -0.033780683 0.15485153 0.07622767 -0.032767545 -0.07776979 -0.040695447 -0.09140552 0.12055795 -0.1285252 0.103394866 -0.026169028 0.004132095 0.073191755 0.21878375 -0.12753588 -0.051477317 0.11008612 -0.0065603433 -0.057427373 0.05484066 0.08785007 0.06854903 -0.053122904 -0.056134403 -0.09587295 0.071959995 -0.14682093 -0.07572838 -0.1697023 0.21052986 0.046391264 -0.13385484 -0.016614128 0.18580309 0.010923264 -0.0059983744 0.17510286 -0.036446597 0.078647345 0.040287882 -0.1419043 0.060323916 -0.07302873 0.0018942822 0.04928576 -0.074189074 -0.29832962 -0.052363418 0.11814167 -0.09441379 0.079963975 0.06379521 0.04035354 0.11101808 0.16215599 0.17905954 0.061625157 -0.065919705 -0.09700892 -0.024157066 0.080301516 -0.006024487 -0.026088597 -0.08132826 0.09692334 0.07874579 0.07374345 0.06998286 0.049964845 0.04327113 -0.3773553
21 0.093590125 -0.20818835 0.05944331 -0.017092073 0.32519203 0.08741032 0.00045863172 0.03273179 -0.18204491 -0.17417625 -0.1630073 -0.14263463 0.3117995 0.29044437 0.01648059 -0.03419889 -0.062547 -0.31774372 0.039200854 -0.01694711 0.27266973 -0.026612446 -0.1811195 0.062837094 0.069360286 -0.010823835 -0.032288168 -0.059856817 -0.021065583 -0.058328293 0.17769855 0.06798021 -0.031858604 -0.042097874 -0.019515406 -0.10809582 0.10749917 -0.081451975 0.025341088 -0.0067346795 -0.012489527 0.031384043 0.17712943 -0.11020923 -0.040066745 0.06579288 -0.039840233 -0.058815878 0.092421286 0.10028088 0.054874633 -0.05775647 -0.0038212442 -0.049914975 0.06506492 -0.12557453 -0.07831637 -0.13401602 0.18288352 -0.045495477 -0.13106643 -0.029224344 0.153663 0.030333046 -0.010876207 0.13671815 -0.0362563 0.046896856 0.07423024 -0.0805902 0.033380803 -0.008202834 -0.017359486 0.027114682 -0.07473986 -0.2402034 -0.05086426 0.11640502 -0.061986815 0.07943386 0.0753342 0.071156524 0.109637134 0.124396354 0.14545192 0.047330465 -0.026115987 -0.06333916 -0.06225346 0.05899354 -0.054405324 -0.0633852 -0.05925286 0.0476041 0.09466912 0.05198538 0.05299826 0.07357241 0.07177529 -0.3200921
31 0.18006878 -0.045184985 -0.0543968 0.15595366 0.21593213 0.06661855 -0.15159257 -0.065013826 0.06769652 -0.19357921 -0.12106031 0.049469892 0.04942066 0.25666037 0.024127701 -0.055625405 -0.05048925 -0.3151532 -0.003410995 -0.045319106 0.18113878 -0.12943614 -0.19985008 0.14002147 -0.064742625 0.14659183 0.1519013 -0.053123496 -0.005123456 0.054844376 0.062733844 0.036632523 -0.016003076 0.025257286 -0.06573545 0.038491566 -0.0066782627 -0.07624286 -0.068739064 0.0329901 0.07833075 -0.122138545 0.0058006374 -0.1395775 -0.09876988 -0.22055754 -0.08688948 0.01365119 0.09658536 0.037195362 0.08544053 0.008751524 0.098070085 0.15472506 -0.0073877005 0.00021967647 -0.16074531 -0.11043508 0.036027394 -0.22061819 -0.027438685 0.022354117 0.16754092 0.007870122 -0.09625377 0.18941762 0.036615796 0.03855778 -0.00042342398 0.115359485 0.027707148 0.15491726 -0.06329936 0.076239206 0.048554637 -0.12659843 0.042410754 0.1182782 0.06845172 0.057786047 -0.03350218 0.011658578 0.08732667 0.16650549 0.015098198 -0.013190402 0.03481716 0.06602829 -0.0098828 -0.04077094 -0.116004385 -0.08391172 0.13895136 -0.11706512 -0.019229168 0.006928949 0.1923499 0.17575613 0.14805055 -0.1482155
30 0.05577875 -0.17089304 0.03459464 -0.032765858 0.07558057 -0.014506527 -0.035678346 0.06721909 -0.13550894 -0.18510963 -0.09373459 -0.01693607 0.17146578 0.15167491 0.00635467 -0.12939855 -0.048418183 -0.27805495 0.037676442 -0.032568336 0.18063238 -0.09572898 -0.0973153 0.080686316 0.024638314 0.040870026 0.057203375 -0.04928186 0.051998798 0.0069599263 0.024460327 0.03405164 -0.010710004 -0.06968883 -0.008790552 -0.15508717 0.014155246 -0.08293543 -0.00996206 0.027644034 0.014032961 0.024845228 0.106721096 -0.12417963 -0.11999496 -0.036887743 -0.1023263 -0.0072555845 0.09874704 0.11537584 0.13203698 -0.066336825 0.020948455 0.08303591 0.00570969 -0.109474525 -0.13392536 -0.13464639 0.20820934 -0.07296072 -0.047210056 0.042804793 0.21006322 0.20192385 -0.16074783 0.18430662 0.060860455 0.007882245 0.06536115 0.08345336 0.02886425 0.0072166286 0.13653633 0.1466215 0.08033929 -0.22537582 0.043055195 0.21025388 0.06166639 0.05981838 -0.04696511 0.0289183 -0.06284666 0.09710185 0.089211136 0.003410396 0.004827993 0.0149668 0.02157057 0.16982436 0.00343142 -0.0789595 -0.027744928 0.12813766 0.057201006 0.075534806 0.04178303 0.07322648 -0.003564859 -0.15724276
9 0.05951252 -0.026377844 -0.010721267 0.18527281 0.21255632 0.1470083 -0.12891263 0.040758613 0.004561533 -0.04751313 -0.027448853 0.0054391827 -0.068391524 0.051619247 0.076380886 0.020400664 0.044153433 0.02553664 0.048735596 -0.026166528 0.12062135 -0.2042749 -0.08428936 0.11558443 -0.08030427 -0.036687143 0.22878529 -0.014219963 -0.0379572 -0.029608153 -0.019503582 -0.04956063 -0.013918953 -0.095917374 -0.109416544 0.053529236 0.04671409 -0.24317001 0.06873466 -0.09397339 0.067736864 0.032160204 0.16827133 -0.0805084 -0.2367521 0.021573698 -0.12678751 -0.0007986881 -0.016638959 0.06670683 0.0150758615 0.028734304 0.013050511 -0.03633226 0.07788566 -0.059213143 -0.17789899 -0.050226785 0.11967556 -0.14636974 -0.14087929 0.024932293 0.086546056 -0.05342774 0.10882577 0.24297445 0.05847713 0.17863825 -0.025499754 -0.109640464 0.10327829 0.06483391 -0.106018186 0.03087531 0.002341405 -0.3577737 0.009149828 0.16758972 -0.06271343 0.33247352 0.045747742 0.039068446 0.06302499 0.21837397 0.22211133 -0.03218999 0.072091945 -0.16038322 0.12194472 0.23161964 -0.041698024 -0.100328594 -0.0062714303 0.14522173 0.009540879 -0.049118258 0.16841461 0.11349036 0.16556935 -0.41529596
27 0.15905854 0.013426506 0.019514332 0.17023991 0.09075557 0.119196996 -0.09502095 0.044375345 0.12283366 -0.117649004 -0.14335862 0.05349349 -0.019432757 0.15125929 0.021486053 -0.07476787 0.055077314 -0.16434167 -0.06374758 0.019691193 0.106697835 -0.16364914 -0.1457145 0.15124965 -0.099195525 0.13000828 0.14225459 0.0151740685 0.033101548 0.064758815 -0.0077283652 0.012040592 -0.040678475 -0.042972893 -0.032350104 0.036970932 -0.0019551567 -0.08120107 -0.09284035 0.009230377 0.0343276 -0.120447665 0.05106092 -0.18924135 -0.20883895 -0.14512214 -0.16341 0.003446421 0.06835884 -0.03387925 0.14792337 -0.020485673 0.16941854 0.23669252 -0.05217525 0.027618762 -0.15135534 -0.17739391 0.13701701 -0.2102455 -0.03056431 0.022322018 0.1498092 0.04351031 -0.09217962 0.26286533 0.17249176 0.093089975 0.013232888 0.084438056 0.030804558 0.12994368 -0.06695809 0.04799336 0.088488914 -0.2190479 0.049138717 0.18900128 0.062071484 0.14020488 -0.02058833 -0.0032176608 0.0051743956 0.29770544 0.049542073 -0.031328846 0.003361235 0.0057358984 0.026188657 0.08973884 -0.14607842 -0.07832211 0.23187193 -0.018221347 0.051388282 0.0044613383 0.11396854 0.036470477 0.0013659492 -0.032821797
28 0.11158998 -0.0027603442 -0.03021734 0.130381 0.10522177 0.044134226 -0.11680009 0.005211392 0.0607344 -0.116547905 -0.066052444 0.056639515 0.00081395777 0.16823174 0.06419055 -0.05670807 0.0030903427 -0.1312527 0.011584232 -0.030662777 0.101950906 -0.11383394 -0.1361787 0.12994194 -0.06401834 0.11830816 0.19162332 -0.0051522236 -0.00078627176 0.030736223 0.01223488 0.004633241 0.01436278 -0.042225547 -0.088751346 0.0380271 0.016045127 -0.14657372 -0.011990361 -0.023276167 0.100336574 -0.072567694 0.08549121 -0.175784 -0.17509934 -0.110644996 -0.118084684 -0.0028219908 0.054368176 0.040870998 0.07999375 -0.014463371 0.05790828 0.16381124 -0.0115153445 -0.017744573 -0.17606544 -0.14639328 0.11377889 -0.1968737 -0.0467126 0.05693181 0.19765073 -0.015892668 -0.021260424 0.24844402 0.067602545 0.08940132 -0.018649915 0.034104303 0.055206228 0.10955262 -0.08649843 0.06437339 0.092117384 -0.29237068 0.015898256 0.16902772 0.008271636 0.17893636 -0.024414066 -0.015572854 0.050424144 0.2561724 0.06494976 -0.015163936 0.06470133 0.0006149 0.044039376 0.17592278 -0.035975497 -0.1184827 0.090170056 0.052614458 -0.038200192 0.06021633 0.15536933 0.10794683 0.09835587 -0.11358748
32 0.07445338 -0.085670575 -0.018553216 0.08139491 0.13424692 0.054576315 -0.1520267 0.050227426 -0.013389067 -0.22300178 -0.08728296 0.115922354 -0.12857156 0.09288772 0.07642695 -0.17055741 0.039851274 -0.22754762 -0.17078073 -0.03414613 0.09183043 -0.3208094 -0.11027978 0.112752765 -0.029707711 0.07594398 0.094273716 0.011827922 0.07857511 0.18285534 -0.15116695 -0.03067786 0.008069884 -0.11678683 -0.1798176 -0.020825813 0.03890541 -0.094863765 -0.06938062 0.05355902 -0.03573493 0.05725764 0.061983958 0.03318974 -0.22201806 -0.048941396 -0.10041956 0.06124249 0.09526167 0.083724014 0.18810697 0.00891291 0.09269168 0.023071675 0.03301272 -0.09480369 -0.11723646 -0.084958516 0.19923797 0.008089851 -0.069096215 -0.043927617 0.22754607 0.21389139 -0.27573103 0.2940386 0.17593172 0.07628221 -0.14402379 0.09775476 0.18389043 0.03336535 0.14055353 0.12622683 0.050618917 -0.19325784 0.07724361 0.19231564 0.16481657 0.13444847 -0.048764627 -0.053452138 -0.09476704 0.09802828 0.1332549 -0.062326625 -0.104071714 -0.14751327 0.06442713 0.20072661 -0.09712882 -0.12642424 0.006082956 0.13408314 -0.032144196 -0.1097311 0.13126667 0.036404755 -0.055879295 -0.15080297
6 0.2609862 -0.002423914 -0.16094229 -0.02181439 0.31142858 0.1956375 -0.15056224 -0.21676578 -0.051210266 -0.042415716 -0.10849288 -0.237368 0.21617313 0.32666984 -0.1613093 0.077341534 -0.22851673 -0.4275297 -0.14874025 -0.11735045 0.29776686 0.14951953 -0.21693839 -0.17718412 0.21895312 0.05844671 -0.21429043 -0.06901766 0.050474916 0.07456467 0.0002570606 0.21430512 -0.021254435 0.092049636 -0.14247432 0.21259908 0.26180634 -0.06928246 0.019798229 -0.07380336 0.17366232 0.17529562 0.25289878 -0.06109587 0.035149228 0.0067050126 -0.22845158 -0.1550221 0.06611848 -0.038851514 0.14361133 -0.14842208 -0.17021418 -0.22730853 0.10741829 -0.08715 -0.17557345 -0.38053203 0.10478698 0.27621806 -0.14423785 0.29499447 0.16719666 -0.25900105 -0.020991664 0.32438487 0.04567995 0.029469755 0.4064109 0.03726201 -0.13815267 0.17011857 0.06599588 -0.060158268 -0.043508776 -0.033340655 -0.0073252055 0.26936904 -0.1661396 0.17749436 0.009787255 0.3193528 0.16173181 0.25543755 -0.036420196 -0.306995 -0.22438163 -0.08989704 -0.0787613 -0.06207962 -0.30093354 -0.14990117 -0.17047213 0.15575716 0.3443668 0.21665007 -0.111957856 0.06825785 0.1294428 -0.11310942
16 0.3258089 -0.04037742 -0.19499779 0.022147449 0.34957418 0.2168415 -0.22562928 -0.13482733 -0.028212195 -0.11441137 -0.12823582 -0.1264418 0.15276271 0.30959702 -0.12188266 -0.0019433415 -0.17642915 -0.43625635 -0.15505041 -0.13409968 0.27799448 0.065496944 -0.19561537 -0.10112775 0.16358353 0.072087295 -0.1556578 -0.07733548 0.11576262 0.13166562 -0.06882591 0.19220348 -0.040151954 0.112721324 -0.15371335 0.18971571 0.27416435 0.012122434 -0.0036619958 -0.06597291 0.106757805 0.1538964 0.12860982 0.030135492 0.122120105 -0.0040156147 -0.1709837 -0.1272247 0.0682394 -0.05501671 0.12893407 -0.19323963 -0.09488269 -0.23570997 0.15625075 -0.025493724 -0.19946887 -0.27275136 0.051090114 0.27621454 -0.15672782 0.28154594 0.111306384 -0.20849623 0.008033033 0.333054 0.041838825 0.06365301 0.415667 0.036157094 -0.122398674 0.22338493 0.09853046 -0.061094437 -0.05647932 -0.013427353 0.020100005 0.30033395 -0.12625554 0.19280334 -0.012157703 0.3050292 0.17054759 0.24341565 -0.010885424 -0.29169914 -0.17487629 -0.06787708 -0.058401674 -0.05750473 -0.33275488 -0.17457932 -0.16364606 0.1419825 0.32068947 0.1627413 -0.062030803 0.11536078 0.12014306 -0.17061861
33 0.12228572 -0.09806099 -0.04177115 0.039260738 0.117746994 -0.006646216 -0.108388215 0.058547296 -0.024128858 -0.22172329 -0.06411978 0.11971366 0.0024873863 0.107499555 0.048666313 -0.24004577 0.087303676 -0.32174286 -0.006294188 -0.052393194 0.10582143 -0.20370197 -0.05136523 0.1504546 -0.021940429 0.24344066 0.2050049 0.013211968 0.07797418 0.12529786 -0.12705085 0.00809102 -0.0069608334 -0.06202339 -0.09147816 -0.09024791 -0.03921094 -0.08514116 0.0022270102 -0.001358209 0.04267828 0.010874611 -0.010004175 -0.12222677 -0.11377556 -0.13345285 -0.048863262 0.070286594 -0.013738773 0.09090678 0.18699634 -0.017828627 0.0068351403 0.10602564 0.010294427 -0.048884407 -0.12533413 -0.06379771 0.114861645 -0.018317463 0.04631498 0.094988234 0.21250768 0.1986332 -0.12817883 0.22018017 0.0734288 0.007975074 0.044572495 0.0688542 0.060494125 0.04432943 0.15572987 0.13180737 0.14201495 -0.15851541 0.06612617 0.19562067 0.06602182 0.060171425 -0.11430584 -0.009194802 -0.025786849 0.11586778 0.07930138 -0.030031178 -0.035414785 0.018813893 0.061431196 0.07273063 -0.014566321 -0.027296478 0.032266825 0.059294164 -0.017541938 0.07903753 0.14887433 0.119091175 0.043538444 -0.22387855
24 0.23827386 -0.056179013 -0.04284132 0.17716198 0.15638284 0.085685864 -0.120049216 -0.11059975 0.20983326 -0.14648238 -0.10211647 0.090682685 -0.04358015 0.20510292 0.039885055 -0.016112717 -0.07482645 -0.22483072 -0.023604516 -0.08177154 0.13086303 -0.0675494 -0.14764099 0.19854699 -0.15217255 0.1688787 0.14663628 -0.04100974 0.06561956 0.12326196 0.068277456 0.072130844 0.010883536 0.064631544 -0.059374608 0.121995315 -0.06612045 -0.08111198 -0.07194769 0.13786097 0.122330636 -0.19336356 -0.115444474 -0.13540104 -0.0035424074 -0.33272386 -0.021360472 -0.027372101 0.16035482 -0.11690806 0.070808835 0.026063781 0.14800361 0.29034412 -0.006934666 0.028826963 -0.19361265 -0.1521466 0.0031391715 -0.38162372 0.035499744 0.010887233 0.16665797 0.00563809 -0.18105744 0.25316662 0.12567863 0.06969845 -0.05909922 0.22871959 -0.016286265 0.23150763 -0.11794937 0.09012887 0.1407726 -0.18924598 0.042877547 0.15929866 0.17716886 0.075357966 0.031051075 0.043482788 0.1287956 0.28800318 -0.05896105 0.1028431 0.029177945 0.13027145 0.012513623 0.06712353 -0.12070372 -0.17785281 0.2362487 -0.12676352 -0.061138768 0.027881727 0.25513577 0.22004366 0.12439424 -0.24484518
25 0.20524561 -0.0670128 0.0032098517 0.23071308 0.1136233 0.08575859 -0.16343066 -0.005644885 0.19885959 -0.1872046 -0.14767684 0.06220971 -0.0042411312 0.24852338 0.046357714 -0.06920781 -0.018131219 -0.27098936 -0.05162063 -0.034237422 0.13601139 -0.19096357 -0.18976557 0.25987035 -0.13626477 0.16763416 0.17183058 0.018488275 0.023206249 0.068471916 0.03977195 0.009908431 -0.010361846 0.005583613 -0.02222189 0.028460486 -0.04472782 -0.07119454 -0.14317328 0.062512636 0.086560406 -0.18359526 -0.008930563 -0.2302508 -0.16935585 -0.24000269 -0.14350119 -0.030570315 0.12054401 -0.03080362 0.14230989 -0.018193418 0.18465479 0.34066957 -0.084395364 0.024274295 -0.188475 -0.20145841 0.12354942 -0.32219756 -0.009597855 0.04407852 0.17305483 0.06087707 -0.12910545 0.18340561 0.15431677 0.041990474 0.0017447494 0.18381622 -0.0048236353 0.1920551 -0.092799366 0.057646055 0.15400638 -0.18757825 0.050058972 0.13369763 0.11862389 0.11568541 7.297699e-05 -0.010826097 0.006896012 0.22965685 -0.020283695 0.017192662 0.079586 0.10554014 -0.031808972 0.10881897 -0.13524789 -0.10861702 0.2567827 -0.096131735 -0.030921608 -0.0024564927 0.12017898 0.09768786 0.027465494 0.07396593
23 0.16481222 0.06186382 0.05651781 0.12401697 0.06897091 0.13758302 -0.06093292 -0.013827871 0.15376453 -0.15066466 -0.1197062 0.06851667 -0.039508328 0.12531963 0.05051416 -0.078831814 0.088121384 -0.1722706 -0.11845041 0.026178392 0.15001702 -0.14546111 -0.06362887 0.17509383 -0.054389965 0.2198997 0.2065198 0.114609845 0.09643074 0.1644078 -0.049487736 0.027195448 0.029073432 0.0020442188 -0.067861974 0.10778135 -0.116362154 -0.07198999 -0.07722306 0.093859516 0.06251511 -0.08156804 -0.059659597 -0.07084743 -0.14067258 -0.26277658 -0.045082282 0.056094363 0.10736107 -0.12723634 0.116894595 0.046321686 0.13208987 0.23764212 -0.0978083 -0.03324411 -0.053226814 -0.15345941 0.068897665 -0.19318898 0.09925203 0.0041250503 0.18237203 0.14447433 -0.25554836 0.27914742 0.2789056 0.037962373 -0.15490144 0.16291662 0.105720945 0.027062435 0.056238048 0.1159734 0.18097383 -0.168189 0.06590036 0.20875186 0.17225595 0.042597163 -0.03751514 -0.032900773 -0.0535429 0.29176813 -0.00078363693 0.025162589 -0.12153562 -0.010982647 0.124759816 0.046257693 -0.13277888 -0.028241511 0.29437682 -0.011955065 -0.005238983 -0.015101227 0.2297878 0.09250713 -0.009410461 -0.34158918
14 -0.011743401 -0.0427917 -0.11104439 0.035380635 -0.009354033 -0.03774989 -0.096396044 -0.04116612 0.010364274 -0.15500954 -0.017362503 0.04503964 -0.030332685 -0.008980773 0.08417297 -0.076950096 0.013226616 -0.28078666 -0.07344571 -0.026915073 0.18199451 -0.20230208 -0.07329294 0.13550578 0.0183429 0.08703404 0.15876226 0.030720567 0.060179237 0.114199415 -0.08868878 0.0015960453 0.08252334 0.008107195 -0.15857479 -0.047938183 -0.09353641 -0.13533323 -0.075238645 0.0336977 0.09269388 0.06696748 0.10148969 -0.049422935 -0.2020528 -0.21543387 -0.10851956 0.031475123 0.12461664 0.12662493 0.15837239 0.014780785 0.010887624 0.017941093 0.008068924 -0.19309942 -0.121191785 -0.11958082 0.15786806 -0.18138501 0.0012539373 0.05057294 0.29503357 0.23393156 -0.22401942 0.22433402 0.17036974 -0.039417863 -0.0805581 0.10573913 0.16480377 0.015599085 0.1662219 0.1505377 0.11433109 -0.1607836 0.07206079 0.22281635 0.13858014 0.11651092 -0.054038513 0.039990228 -0.06072392 0.06210474 0.10732949 -0.013021963 -0.12320684 -0.10354663 0.09265959 0.09306296 -0.10483926 -0.07684285 0.015564291 0.0777361 -0.02677472 -0.030904012 0.1065154 0.07915094 0.049320515 -0.14496106
15 -0.0155585315 -0.030045226 -0.10601006 0.0421789 -0.016042497 0.00044955162 -0.0772689 0.010285344 -0.002652542 -0.14834034 -0.042141557 0.04735632 -0.042188484 -0.07824223 0.09447744 -0.10080326 0.07491007 -0.28638837 -0.08351952 0.0027920806 0.2171281 -0.2431234 -0.057436306 0.14220661 0.0039864797 0.096469134 0.20968738 0.049333278 0.08872835 0.12458224 -0.1362894 0.0004866115 0.06741159 0.007947723 -0.15345056 -0.059634402 -0.10655459 -0.13295463 -0.0744543 0.016919142 0.0562623 0.09187652 0.0880393 -0.025358835 -0.21559696 -0.21480435 -0.12204177 0.045518983 0.09634818 0.09182215 0.15893207 0.026072744 0.018283604 0.00092192896 -0.00029783067 -0.18708245 -0.09334082 -0.09072811 0.14282013 -0.15905292 0.023568166 0.052119344 0.2435547 0.25118548 -0.23018844 0.23400018 0.2099158 -0.028396664 -0.05996914 0.09234891 0.16531205 -0.013570405 0.1878961 0.1371884 0.10983423 -0.12234818 0.07869396 0.24240738 0.12621664 0.11966968 -0.062163316 0.05117339 -0.09057467 0.07769519 0.11845407 -0.030902732 -0.15373257 -0.121266104 0.14375992 0.05574795 -0.12324171 -0.05351585 0.0520911 0.07780584 0.020795569 -0.04522977 0.10161538 0.07215547 0.032511257 -0.21258514
18 -0.010566299 -0.06959283 -0.09356905 0.035430256 0.017901102 0.0026409072 -0.06381431 -0.020626927 -0.00051257934 -0.147222 -0.040102936 0.018043764 -0.025152672 -0.06081052 0.07572221 -0.06394276 0.031996116 -0.2964313 -0.06735997 -0.0060204994 0.23058502 -0.2197862 -0.0733936 0.13053878 0.015256065 0.066686414 0.15782076 0.030325627 0.06462851 0.11766083 -0.093415156 0.007968159 0.06586671 0.0038130295 -0.13814142 -0.08189346 -0.122678 -0.13895427 -0.06995019 0.046652887 0.06051294 0.08883212 0.093171656 -0.020838825 -0.20630476 -0.21602753 -0.11592973 0.041234013 0.116560556 0.1080972 0.16898882 0.020499831 0.01270792 -0.020074835 0.012423671 -0.20691575 -0.08566873 -0.1054069 0.16078547 -0.17397997 0.015183798 0.027010053 0.2448195 0.2702207 -0.23691076 0.23158418 0.18854696 -0.032311648 -0.06087312 0.09410899 0.14843604 -0.010268142 0.17799859 0.14825843 0.09147657 -0.121217765 0.06896503 0.22470246 0.13390043 0.103089176 -0.035731085 0.08117167 -0.07288076 0.035631176 0.1254669 -0.004952213 -0.1733853 -0.1284091 0.102967106 0.053751763 -0.11197043 -0.06748359 -0.0037616102 0.07800292 0.02630274 -0.054457452 0.09752541 0.056020197 0.049438346 -0.2523579
20 0.036940042 -0.01461595 -0.022204122 -0.061520603 -0.1041145 -0.106307685 -0.013542742 0.0173552 -0.0057028993 -0.18608685 -0.08242092 0.0742716 0.083669 0.117549874 0.016395342 -0.19531384 0.03794497 -0.30737415 -0.024660809 0.005500492 0.09646858 -0.07248402 -0.06429174 0.0958398 0.023338506 0.23971769 0.106712714 0.02668915 0.07596619 0.11216906 -0.043813474 0.038941275 0.024230128 -0.046356715 -0.050901677 -0.12416991 -0.081227325 -0.0636431 -0.05294058 0.034890924 0.074286155 -0.026510905 0.05823202 -0.21232098 -0.1585803 -0.19832204 -0.08362323 0.04804552 0.07670605 0.10085676 0.23345268 -0.041640423 0.050131593 0.20374277 -0.07304503 -0.097426616 -0.109684944 -0.19774872 0.18534996 -0.106048524 0.07214981 0.07583021 0.3504201 0.2633878 -0.24801648 0.28097415 0.14957424 -0.03565205 0.002996843 0.13362083 0.083586924 0.003076059 0.17116068 0.18542396 0.18984723 -0.22806145 0.079182506 0.2543524 0.1161267 -0.00033513474 -0.13017657 -0.025016377 -0.06848065 0.20253421 0.036634993 -0.002366065 -0.08595356 0.028429799 0.058396205 0.07192609 -0.057072297 -0.023407882 0.1388251 0.047493402 0.0030916599 0.1208283 0.08406216 0.039417613 -0.053841885 0.039400835
22 0.013294577 -0.008715249 -0.01568907 -0.048833124 -0.07253225 -0.07937295 -0.0029324288 0.006212462 -0.017327907 -0.15910147 -0.06094747 0.044934075 0.07963116 0.08091672 0.056848977 -0.1358746 0.04034189 -0.2640156 -0.026404807 0.008909755 0.13617338 -0.07650059 -0.06627687 0.09470033 0.040308956 0.18988635 0.13659859 0.06450443 0.0688462 0.10910889 -0.03620217 0.04157664 0.05034567 -0.025683194 -0.088163726 -0.09167129 -0.09654774 -0.0991846 -0.02831515 0.04579936 0.087359816 0.02168758 0.08869591 -0.15231659 -0.16224386 -0.19003347 -0.06297469 0.039665964 0.09691998 0.08352518 0.18918514 -0.009363644 0.012288591 0.122883 -0.06420848 -0.1542118 -0.07557366 -0.19016664 0.18422407 -0.1221913 0.052814856 0.04918543 0.33343488 0.23990616 -0.23397614 0.26790112 0.15950012 -0.03711664 -0.063824296 0.08915474 0.1302698 -0.03954211 0.16011128 0.17852798 0.15314792 -0.23583044 0.054723095 0.24715534 0.098444745 0.025944889 -0.08835997 -0.0077773705 -0.05468623 0.18543471 0.065866224 0.022527631 -0.13229044 -0.023543172 0.09244666 0.11239082 -0.034335226 -0.031114273 0.08741036 0.10069659 -0.013871032 0.10395971 0.090847984 0.02814853 -0.037240416 -0.03288921
26 0.1651069 0.06446567 0.15610807 -0.03639528 -0.026051054 0.083828166 0.011791487 0.0774172 0.051162016 -0.18531963 -0.15776907 -0.010281969 0.16218922 0.23484842 0.018620618 -0.18017176 0.13802704 -0.24995257 -0.11992872 0.049617477 0.13221078 -0.022645595 0.023021687 0.14173868 0.0849868 0.37833682 0.1459087 0.2324092 0.15094449 0.18967578 -0.08940575 0.0745294 0.019150991 0.011314212 -0.010167231 0.034244023 -0.1111173 0.040581327 -0.037037417 0.06980559 0.04793149 -0.008389223 -0.055692688 -0.13287199 -0.061470766 -0.21080665 0.022627883 0.04869981 0.040575642 -0.16411036 0.20642254 -0.033786003 0.06593487 0.26719204 -0.19545603 -0.050370622 0.031363226 -0.2560831 0.1436702 0.08174892 0.19558884 0.12249955 0.24847162 0.24065273 -0.30184174 0.2780168 0.33565524 -0.03550682 -0.038037088 0.14493361 0.076519884 -0.10273326 0.23412073 0.11999667 0.28397244 -0.14768226 0.07912625 0.2525577 0.113179654 -0.079788536 -0.11662609 -0.074536666 -0.15212257 0.35423854 -0.06455077 -0.0081451135 -0.21645725 0.047052883 0.13810599 0.019582752 -0.12095598 0.10935287 0.3275721 0.06093306 0.04799645 0.13864575 0.13178232 0.009562334 -0.17649792 -0.20085658
29 0.26747802 0.035906482 0.05579169 0.117690094 0.025858853 0.15693554 0.046052493 0.24698482 0.015482177 -0.1222778 -0.2636139 0.07068162 0.0918718 0.05805604 -0.048995957 -0.27737084 0.24272634 -0.32498226 -0.08434722 0.08295587 0.23824307 -0.14351416 -0.09316991 0.2325615 -0.050733104 0.4448293 0.2837491 0.15539514 0.17605919 0.17544985 -0.14066233 0.11279761 -0.050656915 -0.07721104 0.1017182 -0.043323006 -0.107547626 0.0032321655 0.010921476 0.034649387 -0.020439515 -0.09162962 -0.041321147 -0.27095237 -0.20093127 -0.13438827 -0.10635171 0.017210681 -0.03432389 -0.23069435 0.21650687 -0.07593971 0.124991484 0.28223 -0.13458282 0.1230666 -0.014314222 -0.15492463 0.09617301 -0.0048173484 0.16058512 0.055376306 -0.0063981586 0.103830904 -0.23079306 0.2460744 0.31785148 -0.017058969 0.08741495 0.096287236 -0.06176804 -0.025532601 0.17492844 0.08485693 0.20521447 -0.024090204 0.10756264 0.26910967 0.06826405 -0.03717899 -0.10353399 -0.0546382 -0.17040712 0.3251867 -0.06431883 -0.020567909 -0.17182001 0.09148358 0.07590414 -0.08136025 -0.03919008 0.11509702 0.31779963 0.040207695 0.15002969 0.1419266 0.11882296 -0.071432754 -0.17880291 -0.3598733
