34 100
0 -0.06679519 -0.1493403 0.12447428 0.11500153 0.13686602 -0.12619478 0.11822312 0.19183743 0.053098317 -0.0373625 -0.20424733 0.24448347 -0.20655005 0.14352266 0.015479673 0.108267374 0.10530662 -0.15469116 0.27587494 0.18715878 0.14741495 0.3141947 0.1537094 -0.20149234 0.17421666 0.15518758 0.2219915 -0.27258885 0.040700678 -0.1782552 -0.15225631 -0.16372755 0.2039977 0.14078763 -0.2469248 0.029521525 0.22645746 0.20598084 -0.0458693 0.35657555 -0.18706286 0.09094199 0.24404813 -0.23879212 0.056385018 0.25354868 0.2567098 0.16671596 -0.10495446 0.28298452 -0.258214 -0.24855532 0.1415798 -0.2275108 0.20563158 -0.044934597 0.20333093 -0.09084583 0.13536124 -0.27210703 0.16752288 0.042504735 -0.2553871 -0.052308846 -0.12766974 0.18440919 0.14601201 0.15231864 -0.11961578 -0.2763507 0.12204394 0.2437715 -0.13741572 -0.009739654 -0.2802624 0.10535683 0.15218064 -0.13719828 0.045146227 -0.28857833 -0.14266303 -0.125927 -0.15237452 0.07546834 -0.20638052 0.07357065 -0.28603637 -0.25883922 0.20859848 0.07473571 0.20384328 -0.25313425 0.07111286 -0.21123432 0.09308749 0.1640756 -0.09023744 0.122382134 0.15779892 -0.044353902
1 -0.04260717 -0.13246866 0.11511277 0.09716213 0.11845041 -0.1105648 0.07296972 0.17810212 0.09085925 -0.051007185 -0.20947026 0.18489945 -0.17079362 0.080694236 0.027879497 0.09698333 0.060712185 -0.09198563 0.1796956 0.13298489 0.11051127 0.20917684 0.10276327 -0.16213474 0.12922189 0.11389706 0.17325115 -0.22580065 0.063147396 -0.14071581 -0.1362368 -0.15090795 0.17467722 0.11174679 -0.20709878 -0.024273738 0.21152428 0.124949634 -0.04620418 0.26902762 -0.12240359 0.06726898 0.20154494 -0.16729389 0.05346968 0.17340846 0.196174 0.110750824 -0.09922915 0.22842847 -0.19340612 -0.1799745 0.1005099 -0.16033052 0.16510499 -0.043088168 0.1510525 -0.10583743 0.11788325 -0.20592119 0.09500465 0.019343957 -0.18450819 -0.020807194 -0.11618523 0.1276748 0.11476791 0.119481355 -0.10449645 -0.2275882 0.10804618 0.18618205 -0.08428899 -0.02612177 -0.20373003 0.0796285 0.14471428 -0.11329777 0.045691144 -0.22317491 -0.12252434 -0.12109628 -0.14254743 0.07516916 -0.1747643 0.06572187 -0.229873 -0.22064604 0.16173725 0.06905305 0.16965526 -0.18014582 0.08959445 -0.15258043 0.09001523 0.1481236 -0.086713046 0.093009256 0.13564943 -0.017531551
2 -0.080767415 -0.14989124 0.112810515 0.13445364 0.10399521 -0.08782738 0.10566903 0.17629372 0.08485959 -0.042722337 -0.1843698 0.16923717 -0.15134539 0.0830538 -0.029694526 0.08625314 0.120950714 -0.10139743 0.20959462 0.12713178 0.09969568 0.22203556 0.15337473 -0.14003585 0.1397239 0.082129136 0.14458025 -0.21102017 0.06110089 -0.13345 -0.12470663 -0.08231184 0.15072393 0.13154562 -0.17760399 -0.014437369 0.20004064 0.15462984 -0.05586041 0.2949833 -0.09819138 0.06429877 0.16947526 -0.20449807 0.047590412 0.18587707 0.12703344 0.12797233 -0.10441432 0.21092904 -0.17198196 -0.19172268 0.16053624 -0.14957145 0.14832471 -0.058119055 0.16433175 -0.08002564 0.12600741 -0.18471073 0.14193977 -0.047990784 -0.20481367 -0.051777873 -0.11639314 0.17034127 0.09236619 0.11056848 -0.13423744 -0.23621643 0.093093716 0.18609095 -0.07122874 -0.06935617 -0.1836452 0.09384548 0.115709014 -0.14018074 0.09455368 -0.23944075 -0.15371975 -0.10562728 -0.13959628 0.09874189 -0.19449471 0.09824753 -0.20321226 -0.19156486 0.13343494 0.017318519 0.15060927 -0.1807892 0.06593305 -0.12169539 0.1043235 0.13168612 -0.06552903 0.08286514 0.16052645 -0.053861707
3 -0.04221511 -0.08978041 0.07388492 0.07912145 0.09723072 -0.08139869 0.081113346 0.14006372 0.065786734 -0.058383852 -0.13545346 0.14730732 -0.1303922 0.04792885 -0.006144894 0.08240695 0.08409076 -0.08179288 0.14157416 0.08783025 0.06517751 0.14901394 0.08758955 -0.09076547 0.10115991 0.05538884 0.1223555 -0.14671622 0.04230553 -0.09599861 -0.09898564 -0.08241046 0.111162424 0.090234816 -0.13218442 -0.020210437 0.15394086 0.08773655 -0.02695219 0.20885159 -0.0697436 0.059462942 0.12047708 -0.13482177 0.06296147 0.12083888 0.097048044 0.08915488 -0.07572842 0.16101786 -0.105814114 -0.13350782 0.104687855 -0.09241099 0.11860632 -0.060064092 0.10104487 -0.08080977 0.10371792 -0.12877312 0.10936984 -0.012740023 -0.1306557 0.004350484 -0.077730626 0.104519404 0.07547123 0.08140026 -0.08335217 -0.1578624 0.05875472 0.12311996 -0.04718924 -0.02616629 -0.14444011 0.06692884 0.08454059 -0.086293235 0.05339267 -0.18839134 -0.100453556 -0.09525347 -0.09755557 0.06854558 -0.14641818 0.07788651 -0.16121835 -0.14113316 0.101493716 0.03502879 0.1097496 -0.1387269 0.08088899 -0.119433716 0.07414496 0.0906879 -0.058188893 0.047379613 0.102723874 -0.030350309
4 -0.007942158 -0.011127492 0.04593002 0.053012673 0.05655358 -0.07423256 0.02151134 0.04078551 -0.023177477 0.05088768 -0.086588964 0.07686022 -0.05304461 0.051743686 0.05243051 -0.004049698 -0.015254084 -0.025002552 0.07726427 0.073515505 0.017398376 0.13548993 0.054530933 -0.11387964 0.050628312 0.08658719 0.1059028 -0.054778133 -0.07021856 -0.056145437 -0.04019177 -0.025981342 -0.007678806 0.013776338 -0.06528323 0.06897696 0.037225593 0.12309007 -0.07086856 0.076606035 -0.09982777 0.098864466 0.074133456 -0.069633216 -0.0048843157 0.13620304 0.1059206 0.083724156 -0.007375421 0.08986896 -0.08909458 -0.100960806 -0.014625364 -0.10422173 0.09095847 0.0003992077 0.050638113 0.038479924 0.0022777542 -0.084986344 0.04051649 0.09534603 -0.101770386 -0.08044315 -0.06341704 0.05148571 0.03407843 0.060364787 0.0014601084 -0.07773969 0.06017279 0.07568817 -0.06784957 0.07663063 -0.14137837 -0.030829018 -0.0036599748 -0.04273392 -0.047392927 -0.08805038 -0.00724319 -0.03536406 -0.010723456 0.034132697 -0.04385384 -0.081437215 -0.054826215 -0.018409908 0.110411406 0.05816848 0.13983299 -0.06936683 -0.0023966487 -0.07097639 0.0069689425 0.057789095 -0.0015054476 0.079445 0.012153844 -0.0465377
5 -0.0067457594 0.026762975 0.02493656 0.027787356 0.057020854 -0.0752325 0.013125761 0.014367288 -0.05414558 0.12568332 -0.117857516 0.05643944 -0.0038857283 0.09838921 0.070190325 -0.041346986 -0.101013124 0.00021155784 0.04102982 0.08619195 0.036957048 0.12839858 0.033797864 -0.1418639 0.05499725 0.12028359 0.073655695 -0.015477451 -0.084887736 -0.021263603 -0.01172707 -0.03677426 -0.045136735 0.0018586594 -0.07315971 0.11827867 0.0029299916 0.15037309 -0.077302694 0.06350855 -0.15083553 0.10428561 0.07894872 -0.04883399 -0.049792126 0.1322184 0.12527132 0.10048286 0.036098454 0.10782347 -0.13328844 -0.120281704 -0.0545631 -0.13241202 0.07163734 0.06836212 0.04164161 0.07229136 -0.071715295 -0.094396606 0.040862754 0.1149951 -0.11278379 -0.155469 -0.08663282 0.035505228 -0.024508413 0.034220092 0.0037653805 -0.058287658 0.0895878 0.0992693 -0.11363579 0.08521319 -0.14573756 -0.06663185 -0.06267022 -0.053726718 -0.080370456 -0.07937947 0.006188144 0.014069925 0.013415656 0.08647013 0.011991692 -0.13490056 -0.044376012 0.028919645 0.1255956 0.03494008 0.15210643 -0.043764427 -0.04256903 -0.014468247 -0.008237593 0.055429235 0.039282456 0.070939764 0.021403264 -0.073695004
7 -0.027577935 -0.09179587 0.0765273 0.06973654 0.103707716 -0.090476856 0.07639637 0.13831684 0.0547171 -0.06378019 -0.13556987 0.14654267 -0.13105352 0.05498211 0.0038451648 0.07752687 0.07367496 -0.07684691 0.13765928 0.09490546 0.064040236 0.14699496 0.08201684 -0.10260367 0.09776606 0.06334185 0.12401116 -0.1509966 0.040689085 -0.09569077 -0.09543664 -0.09559255 0.121182695 0.08734985 -0.13808122 -0.021638058 0.15251458 0.08818052 -0.028964559 0.19637892 -0.08031045 0.06362496 0.12947196 -0.12204519 0.064538896 0.12502512 0.117470905 0.09236743 -0.07525072 0.16510382 -0.107906684 -0.13360716 0.08288041 -0.10269966 0.12952897 -0.044087794 0.09790481 -0.0744186 0.09555065 -0.13110171 0.08759229 0.0032149903 -0.11415413 0.011607477 -0.086647086 0.09668766 0.07495417 0.09384185 -0.08152271 -0.15738218 0.056537505 0.124296896 -0.05176468 -0.010227352 -0.1481409 0.056312058 0.09444172 -0.08499836 0.034683064 -0.18293272 -0.09096093 -0.10372262 -0.10174 0.06217957 -0.14230359 0.057714995 -0.16275313 -0.14720851 0.10862206 0.049747996 0.11920655 -0.13991663 0.08597097 -0.1266996 0.07285699 0.097919025 -0.06317848 0.051212896 0.09726016 -0.022538275
8 -0.069035344 -0.09142484 0.10337279 0.0997271 0.06346525 -0.07939858 0.065284535 0.11362284 0.055630162 -0.01318762 -0.14801808 0.06473665 -0.05606444 0.057703055 -0.039584816 0.06056378 0.045666013 -0.03438557 0.09925836 0.084770456 0.06257435 0.14107624 0.11854407 -0.112954006 0.107429974 0.07893717 0.056921083 -0.13484013 0.05859974 -0.04904283 -0.06054412 -0.04352213 0.07235187 0.09703324 -0.10691044 0.03338973 0.12547934 0.118841074 -0.061030786 0.20355931 -0.08876645 0.053614113 0.12374411 -0.13319862 -0.02069972 0.113326885 0.06562493 0.098493636 -0.08826392 0.13208558 -0.13018262 -0.13289917 0.110433884 -0.0939594 0.09919542 0.013373709 0.11091177 -0.044706576 0.020615954 -0.1338774 0.08975414 -0.05780879 -0.15854345 -0.058570072 -0.10692281 0.09980266 0.028599814 0.09230053 -0.097219855 -0.16097897 0.08907449 0.14577678 -0.052130267 -0.087662145 -0.107344896 0.030220088 0.063522965 -0.120040245 0.07583469 -0.14791042 -0.09294859 -0.026307797 -0.112309866 0.09235287 -0.121922 0.05192569 -0.13662535 -0.11224766 0.07289675 -0.012293972 0.11932817 -0.10292174 0.039255206 -0.034946702 0.05695963 0.081634395 -0.022964174 0.051189784 0.14827594 -0.060667694
10 -0.04814346 -0.0866832 0.024002131 0.035981137 0.054050617 -0.03713404 0.0801564 0.028377954 0.00039893668 -0.04013421 -0.032163978 0.0943829 -0.06845297 0.034213874 0.026969057 0.057199214 0.05574778 -0.030167874 0.15198693 0.040911656 0.04552015 0.16415946 0.093894914 -0.07952603 0.021473188 0.04181172 0.10361213 -0.122478895 0.025127146 -0.09241593 -0.08092554 -0.08376447 0.104538456 0.0720162 -0.08098121 -0.017868951 0.08129485 0.07629703 0.0052990136 0.16691118 -0.0762828 0.012750572 0.07614781 -0.11674607 0.037983235 0.08800541 0.08315948 0.03240417 -0.060661465 0.09487144 -0.11991061 -0.08659991 0.07756229 -0.07631092 0.07842295 -0.048766553 0.11805564 0.0047624595 0.12239997 -0.084175184 0.038576934 0.003489389 -0.054604232 0.014607353 -0.05931852 0.08417005 0.086821705 0.05891781 -0.05641355 -0.08482692 0.0022433968 0.10170462 -0.019825714 -0.020591378 -0.07675481 0.056711443 0.098987624 -0.02633876 0.031203412 -0.10004361 -0.0733422 -0.058216386 -0.06678455 0.011825586 -0.07094218 0.072251454 -0.09655797 -0.12660894 0.079478234 0.079824865 0.049235538 -0.10642996 0.040003173 -0.07852298 0.09466143 0.096917555 -0.071264915 0.008212199 0.035570193 0.018512886
11 -0.0051783 -0.0112296175 0.046479613 0.064190194 0.043895952 -0.08319534 0.04622942 0.07339212 0.010633366 -0.011453744 -0.019517401 0.08471915 -0.058682725 0.045613024 0.011562084 0.07309914 0.011684528 -0.063016824 0.119275376 0.08213848 0.048054554 0.13408813 0.072367616 -0.054795522 0.053097483 0.060635194 0.08244884 -0.08814066 0.013452698 -0.067322984 -0.06482306 -0.07832359 0.07123008 0.04059176 -0.07815908 0.052410614 0.06671214 0.056742013 -0.009136725 0.10522817 -0.07662178 0.031217482 0.080147624 -0.058010884 -0.015135519 0.08059625 0.08974886 0.07073472 -0.06273088 0.10606292 -0.07441334 -0.077461615 0.04103921 -0.078108475 0.07746777 -0.009660115 0.07641371 -0.035276033 0.037248574 -0.11407095 0.049571622 0.043299645 -0.072769605 0.03790741 -0.009017392 0.06357366 0.05981957 0.047333926 -0.009306699 -0.086078584 0.06176909 0.07154599 -0.049051136 0.039579123 -0.090440616 0.04014516 0.057570424 -0.03551463 -0.004010329 -0.0988161 -0.02521717 -0.047827505 -0.053931165 -0.006209884 -0.049327936 0.0041625705 -0.12498771 -0.090420954 0.08490427 0.05255843 0.084032506 -0.09369076 0.03378769 -0.088228315 0.013424592 0.04887121 -0.022771804 0.036441542 0.032436628 -0.00020170235
12 0.007721909 -0.10955274 -0.0017027743 0.028782807 0.03709932 -0.03190194 0.04000244 0.053132974 0.0056533003 -0.062224783 -0.034161642 0.096845426 -0.11910576 0.076316185 -0.03466186 0.05250459 0.10491845 -0.053197652 0.13281795 0.083681695 0.05651456 0.08746506 0.008795286 -0.052101225 0.04021286 0.01001537 0.081579715 -0.1279475 0.03849686 -0.10788803 -0.07566828 -0.050231386 0.093628526 0.025408503 -0.08547762 0.03393135 0.09667602 0.07574509 0.053995498 0.13936102 -0.086898334 0.031355802 0.11086552 -0.10131077 0.0344648 0.099205405 0.11727752 0.059289534 -0.028031137 0.11412598 -0.095446005 -0.07342451 0.06395395 -0.07246568 0.08951113 0.01100282 0.054912504 -0.06681824 0.08627401 -0.10570988 0.06762477 -0.008708051 -0.066514574 -0.004446367 -0.04121995 0.06655083 0.06425241 0.09067097 -0.045280825 -0.10360427 0.010458935 0.05299526 -0.043852948 -0.02853372 -0.067421086 0.029832931 0.08666733 -0.031052163 0.051668286 -0.1233733 -0.061640516 -0.061342306 -0.07417096 0.010412745 -0.06901393 0.09499721 -0.10031113 -0.09894025 0.059752405 0.056917593 0.05986438 -0.10492201 0.055983283 -0.13558757 0.025340462 0.07775 -0.06492018 0.033548716 0.032025002 -0.0069236737
13 -0.058125883 -0.11035442 0.088665925 0.094329216 0.09074695 -0.07925507 0.069688134 0.14075808 0.071767904 -0.05370661 -0.15662123 0.13512367 -0.12349693 0.052212223 -0.005930657 0.08567199 0.069968626 -0.06648419 0.13026774 0.09226011 0.071087494 0.1573084 0.09632121 -0.10686225 0.10686803 0.05749282 0.11573904 -0.16886291 0.048351057 -0.09068366 -0.101974405 -0.08264635 0.1103998 0.09826995 -0.13288206 -0.014150505 0.16014346 0.0984667 -0.035523128 0.22128373 -0.085942626 0.06651254 0.13563947 -0.14374796 0.04924365 0.13723058 0.100152165 0.08776497 -0.089520395 0.16251652 -0.12269795 -0.13949147 0.105959095 -0.10335355 0.12524326 -0.04486139 0.1159554 -0.07543861 0.09547805 -0.14333645 0.103531025 -0.019556187 -0.14530675 -0.022471882 -0.09840555 0.10753769 0.06443087 0.0977943 -0.09008834 -0.17194816 0.076694526 0.13390753 -0.055488557 -0.04749557 -0.14154786 0.056175046 0.098168686 -0.10770346 0.06475591 -0.18307625 -0.11001318 -0.0869226 -0.11816183 0.08096279 -0.1496867 0.07913434 -0.15933937 -0.14748876 0.10589473 0.026977222 0.13363978 -0.13100675 0.07014728 -0.0996857 0.07926783 0.10111579 -0.05731781 0.061394855 0.12739226 -0.040643662
17 0.00010705565 -0.085184045 0.06396067 0.05168429 0.061499104 -0.06734519 0.021771539 0.0869212 0.031459883 -0.050967667 -0.09857945 0.10119229 -0.09034105 0.027801435 0.030260395 0.049788557 0.030379176 -0.029575814 0.0851777 0.07195775 0.052357387 0.10058853 0.03900188 -0.09959741 0.03906773 0.03590018 0.10604926 -0.12761025 0.036610335 -0.089311 -0.08499375 -0.09726556 0.08941719 0.049666893 -0.103589594 -0.021286007 0.11595145 0.052851364 -0.007849223 0.12039965 -0.07588943 0.03788538 0.10471172 -0.07340314 0.042307045 0.11172481 0.12112876 0.033680454 -0.04425364 0.122286394 -0.09786393 -0.070527956 0.027552309 -0.07601914 0.113879085 -0.011657836 0.06914823 -0.049985778 0.0732954 -0.09976542 0.014455158 0.0307407 -0.056952972 -0.00079500675 -0.07738756 0.054087475 0.057696454 0.09235148 -0.047375645 -0.113386095 0.053772803 0.07323153 -0.046209514 -0.0014166776 -0.09897974 0.020216685 0.09620063 -0.040997338 0.017772341 -0.09038837 -0.062475637 -0.07890953 -0.075616434 0.020782754 -0.08940251 0.034008484 -0.114115514 -0.12320944 0.0995996 0.06738625 0.09220348 -0.092750244 0.07652011 -0.08945684 0.055942662 0.09065205 -0.058532875 0.05085879 0.051286973 0.015839096
19 -0.013506454 -0.080175206 0.058555443 0.045853212 0.06900443 -0.06200424 0.041405834 0.09174594 0.048429094 -0.037401944 -0.107618466 0.11785658 -0.12383963 0.060358804 0.027532768 0.072001964 0.03217949 -0.056278236 0.11767865 0.08506648 0.07408465 0.13993102 0.047504693 -0.094656125 0.064744316 0.06590125 0.1264732 -0.15018213 0.014632245 -0.10820784 -0.08450081 -0.09722921 0.11646385 0.056391973 -0.12101363 -0.010025777 0.11722714 0.06947218 -0.026168223 0.15884095 -0.0791011 0.046724826 0.12731263 -0.09867085 0.026030505 0.11815108 0.13964759 0.066265665 -0.07188607 0.13098669 -0.12209451 -0.10717049 0.039283153 -0.10990789 0.108257785 -0.028579134 0.09290486 -0.062029928 0.08756645 -0.13526994 0.044815235 0.041170955 -0.09655786 0.007843368 -0.058933645 0.08337995 0.08238503 0.085444465 -0.03997306 -0.13548884 0.049464114 0.10385547 -0.045757227 0.011285212 -0.114228606 0.038112555 0.100897916 -0.060644656 0.015945977 -0.13834977 -0.056330062 -0.08608623 -0.09531562 0.022073459 -0.09080141 0.037625305 -0.13619147 -0.14168462 0.0972517 0.081236795 0.12739885 -0.09657849 0.056280877 -0.12890665 0.048637502 0.08612631 -0.08044258 0.06889583 0.05827613 0.0048726955
21 -0.02359363 -0.09187472 0.04933276 0.055520244 0.0700881 -0.065308265 0.033832997 0.09275624 0.046719126 -0.022320613 -0.10873331 0.11810495 -0.11691158 0.049736038 0.035832673 0.052242488 0.03341584 -0.05382123 0.10934177 0.07053399 0.058174215 0.12802437 0.045081466 -0.084305376 0.05956185 0.06084629 0.10800566 -0.12898691 0.03545728 -0.09561947 -0.083655134 -0.109389745 0.11430098 0.047516674 -0.1292704 -0.029414626 0.121910006 0.07691428 -0.034273695 0.13063966 -0.08117529 0.034354936 0.12269571 -0.07266164 0.055515263 0.100238115 0.1329088 0.067336395 -0.054303862 0.12212995 -0.0989587 -0.09720172 0.03256746 -0.09919055 0.10461472 -0.022353524 0.086504295 -0.054690816 0.089459896 -0.11591739 0.038979277 0.041996226 -0.080437176 -0.0021733828 -0.049832277 0.0674379 0.080427006 0.061262086 -0.053083178 -0.12726787 0.06250368 0.098985225 -0.06735965 0.032337062 -0.12361954 0.042283032 0.101740845 -0.0667168 0.0025765249 -0.13492514 -0.06957079 -0.095084235 -0.07880453 0.029376471 -0.09103349 0.009872837 -0.1302003 -0.13808638 0.10273149 0.053600032 0.10487735 -0.115252055 0.03571666 -0.09706916 0.051900256 0.12511903 -0.06575364 0.058360618 0.05512464 -0.0098236
31 -0.10772698 -0.094149366 0.03877162 0.11544696 0.039031822 0.015947036 0.023528282 0.07353346 0.044185486 0.06750283 -0.12186944 0.08636994 -0.07367874 0.06217941 -0.020947147 0.02832521 0.08026532 -0.06986246 0.1297346 0.08058221 0.10555486 0.13380308 0.08333955 -0.05298218 0.087694496 0.044296876 0.06131352 -0.12775744 0.0014240076 -0.085682616 -0.07684107 -0.011064155 0.0751343 0.06582854 -0.11404497 0.004022141 0.0887963 0.13600774 -0.039061394 0.15978764 -0.06955736 0.015906248 0.10231729 -0.14516309 0.012959527 0.12816913 0.07184262 0.053558003 -0.040436834 0.076215215 -0.10949863 -0.12385033 0.0999317 -0.15227155 0.029749196 -0.023134079 0.11078292 -0.023826927 0.060449593 -0.12586308 0.13062702 -0.03646837 -0.1748017 -0.13915262 -0.045280322 0.13846521 0.06094379 0.006097924 -0.062456336 -0.15540406 0.10538695 0.09874067 -0.07554172 -0.052997533 -0.1269365 0.06929965 0.05290441 -0.08390432 0.041911807 -0.11738248 -0.12987769 -0.024967043 -0.07555901 0.05236978 -0.08715743 0.047318235 -0.09627494 -0.1208762 0.080224834 -0.05997134 0.08609029 -0.08244389 -0.09063998 -0.017059356 0.056252748 0.083448276 0.00828175 0.08588198 0.0963182 -0.087619945
30 -0.037589263 -0.073425144 0.08780626 0.069922835 0.053018536 -0.07393362 0.03350751 0.100631215 0.041498695 -0.010550393 -0.13655394 0.054256853 -0.05764515 0.04967249 -0.011491616 0.039406657 0.028588584 -0.024684943 0.07115886 0.072007045 0.05387798 0.09896364 0.07972887 -0.10568814 0.081556454 0.07820989 0.045257647 -0.1213709 0.04144785 -0.038171936 -0.05064146 -0.05832235 0.06178898 0.07883902 -0.09914714 0.020779977 0.10830889 0.087662034 -0.042152315 0.15131775 -0.07629874 0.050033838 0.11758208 -0.10073189 -0.01230851 0.09897137 0.08897036 0.08326787 -0.07239351 0.12126002 -0.11257375 -0.11646649 0.07473962 -0.08247915 0.086742386 0.0022929064 0.08219442 -0.045208894 0.01768659 -0.11520861 0.05089049 -0.030616792 -0.13223264 -0.059031688 -0.09674422 0.04938891 0.025697758 0.08308369 -0.06547364 -0.14007367 0.077684805 0.10600292 -0.045921504 -0.072270036 -0.11100942 0.011139975 0.06937194 -0.09789116 0.04135904 -0.11537681 -0.06724694 -0.033777907 -0.08732401 0.078253046 -0.10587911 0.03275518 -0.1053212 -0.09131721 0.07070665 -0.0022983532 0.11315074 -0.086194836 0.037960168 -0.044796012 0.033334732 0.07828324 -0.019852763 0.057038575 0.11850512 -0.0407761
9 -0.03403165 -0.112835884 0.053774998 0.07026401 0.069599845 -0.03190691 0.07837415 0.092011765 0.050522987 -0.029947774 -0.103331186 0.08653075 -0.06941724 0.050484143 0.00080162473 0.0057400633 0.047482632 -0.03157855 0.15983748 0.08013739 0.030850628 0.13514248 0.12425763 -0.097166955 0.06630037 0.021061104 0.09106597 -0.10992107 0.03431714 -0.08530151 -0.08459793 -0.027683973 0.111442976 0.08223624 -0.09338432 -0.039085105 0.095904425 0.083809875 0.008445059 0.1695838 -0.039253414 0.031558108 0.0644783 -0.11577839 0.00731166 0.081934474 0.029124081 0.044808175 -0.0367304 0.13993147 -0.10307983 -0.12036142 0.09261382 -0.09407605 0.045437217 -0.033110447 0.12125306 -0.011191156 0.10010042 -0.06983755 0.043595128 -0.05243513 -0.099022344 -0.026355157 -0.05286991 0.13585882 0.049265016 0.04738275 -0.10179369 -0.12779394 0.0077009248 0.12441529 0.001393328 -0.034338087 -0.056815617 0.09065862 0.076926075 -0.08463876 0.08464125 -0.14027247 -0.105877995 -0.05187943 -0.08398184 0.054879665 -0.08365594 0.06115742 -0.09486151 -0.10131639 0.06583598 0.021481564 0.057734046 -0.081968606 0.045972593 -0.028154125 0.08947106 0.07044616 -0.034558844 0.044687387 0.06470515 0.036399916
27 -0.11420565 -0.088667795 0.07814873 0.118406296 0.035451345 -0.021256862 0.042329326 0.093356445 0.060429446 0.042664308 -0.14537686 0.06104867 -0.035565127 0.060933325 -0.05628059 0.03318376 0.06223365 -0.06609073 0.100604035 0.08059804 0.093862 0.14279914 0.11891525 -0.07308377 0.118478805 0.06904844 0.045580387 -0.11935285 0.034491003 -0.039100893 -0.04097348 0.0082116425 0.07007173 0.090669304 -0.118886545 0.018856814 0.10505786 0.14256066 -0.072414026 0.18219449 -0.06872781 0.027409052 0.1115534 -0.13485639 -0.034683794 0.103972994 0.040780645 0.07361453 -0.0516387 0.09723008 -0.13337567 -0.1367374 0.11656305 -0.13634688 0.03574978 0.009095149 0.12252979 -0.017782513 0.010625677 -0.123148024 0.13222283 -0.070067555 -0.17685407 -0.1178863 -0.07306873 0.14165452 0.028108563 0.03781755 -0.10857783 -0.1600172 0.10138564 0.13929297 -0.07519169 -0.08263784 -0.10708506 0.07136044 0.032576915 -0.11707542 0.07258631 -0.121893734 -0.11908345 -0.0024842983 -0.089068994 0.08071379 -0.0996599 0.04471967 -0.11297064 -0.107004724 0.06928389 -0.07609015 0.08438291 -0.07322464 -0.058507003 0.019380126 0.062442426 0.0755788 0.0118556535 0.060821515 0.14883147 -0.09274952
28 -0.07827814 -0.08179407 0.050750285 0.09132012 0.04331348 -0.0066230493 0.0354521 0.07727388 0.054900263 0.0074347225 -0.115339994 0.060754154 -0.053113922 0.045557287 -0.03414109 0.048810005 0.06349023 -0.048658736 0.086794734 0.062079493 0.07536172 0.096736506 0.076912306 -0.054854043 0.07750731 0.03427337 0.036919005 -0.11655961 0.03108098 -0.05541644 -0.0649127 -0.016387137 0.059399948 0.07996884 -0.07470566 0.0065206336 0.0894378 0.08960192 -0.029007776 0.15600143 -0.045244105 0.014684575 0.085264675 -0.12428509 0.01676489 0.10378389 0.041594584 0.05287049 -0.06390144 0.08555801 -0.085017666 -0.095324084 0.10094401 -0.08610739 0.04679195 -0.022513736 0.0887434 -0.042488042 0.04700685 -0.10413171 0.10206033 -0.05952982 -0.13599706 -0.08612174 -0.06350661 0.09472553 0.03328126 0.031593204 -0.06738161 -0.12421946 0.07636191 0.09028989 -0.039260745 -0.08651599 -0.08580007 0.04089451 0.051654596 -0.081853345 0.06466525 -0.10310717 -0.10265125 -0.022782465 -0.08594714 0.06861664 -0.094381675 0.0710025 -0.090084784 -0.09660961 0.052487377 -0.04183428 0.0701039 -0.07550114 -0.014299586 -0.021791838 0.052413527 0.04427413 -0.0008584005 0.049683206 0.113980204 -0.070539676
32 -0.12174398 -0.12103515 0.12638906 0.113115415 0.04964051 -0.06445128 0.08134558 0.11496392 0.045734208 0.004074671 -0.15962432 0.031050978 -0.017197328 0.07715345 -0.08835545 0.046523284 0.051048286 -0.058032136 0.08225607 0.08529106 0.06749378 0.16671482 0.16208988 -0.12723352 0.15899572 0.09537142 0.028412633 -0.14432533 0.068953454 -0.014230522 -0.02025089 0.0010958181 0.07664222 0.12865247 -0.10415304 0.054941483 0.10484977 0.16834089 -0.086294234 0.24117129 -0.112979084 0.05062003 0.12987904 -0.14736822 -0.049840424 0.119231954 0.01808834 0.11983198 -0.09219849 0.1278038 -0.15124734 -0.15183975 0.14596033 -0.10122006 0.08991284 0.048858643 0.15602821 -0.0143492855 -0.017870164 -0.15440343 0.14475463 -0.09579786 -0.19463855 -0.10027547 -0.114526026 0.14328255 -0.006184945 0.105264336 -0.14148198 -0.17515725 0.10360471 0.19941628 -0.0898532 -0.12137136 -0.08786167 0.04427389 0.039518543 -0.17059578 0.11997364 -0.15000077 -0.1141511 0.02528546 -0.11985184 0.106812075 -0.13750497 0.06283879 -0.14961608 -0.11426041 0.055555217 -0.091937855 0.09962785 -0.11464755 -0.0036088522 0.027326362 0.059979703 0.05866341 -0.0051397164 0.041528948 0.21748967 -0.099990256
6 -0.007115287 0.047262877 0.04103383 0.027867937 0.05781617 -0.081147574 0.0134023875 0.015976664 -0.07189666 0.14847502 -0.12503482 0.05844922 0.00010964554 0.104806475 0.07722892 -0.06337621 -0.10934582 -0.010177413 0.03685565 0.09518361 0.026088536 0.14788604 0.047378 -0.1627523 0.073156185 0.14676431 0.08618295 -0.00320738 -0.12111916 -0.010494267 0.0057683075 -0.015930057 -0.07355415 9.746791e-05 -0.06723304 0.14240324 -0.011043601 0.1775325 -0.1075664 0.060070116 -0.15962642 0.1328207 0.075441286 -0.05705256 -0.05714292 0.15770255 0.13295037 0.11892404 0.04950564 0.10409596 -0.13421257 -0.13603574 -0.06656867 -0.14825165 0.08005233 0.06704287 0.039896335 0.09932582 -0.1013474 -0.097476736 0.051488362 0.14704147 -0.14282836 -0.18234402 -0.093330294 0.036415763 -0.028565533 0.042246394 0.01386101 -0.057452906 0.09720142 0.1107908 -0.12762366 0.11138797 -0.17977369 -0.07948571 -0.0934331 -0.059099797 -0.10344589 -0.077220544 0.025373932 0.025348078 0.035013102 0.085696906 0.005704242 -0.17796195 -0.037297647 0.050809704 0.13892439 0.027669298 0.17192003 -0.048135087 -0.060159825 -0.018790005 -0.027289867 0.035833634 0.055823337 0.09239273 0.022258144 -0.09187057
16 -0.0057751173 0.057230406 0.019878242 0.010972077 0.045704 -0.06433839 0.0026997752 -0.004157163 -0.073022276 0.15744796 -0.11514256 0.03467176 0.027683388 0.10556522 0.07381246 -0.0681805 -0.1321772 0.0060100206 0.011301565 0.080890074 0.030486546 0.11186322 0.025042754 -0.14205207 0.059426874 0.13373482 0.050441884 0.017189046 -0.104504034 0.011610458 0.016386798 -0.016886253 -0.07559284 -0.008487154 -0.05781427 0.13822573 -0.02919885 0.15413727 -0.08553269 0.036334008 -0.15192118 0.10741985 0.06269505 -0.033329148 -0.068490885 0.120871484 0.115067735 0.101315975 0.06066116 0.09226479 -0.12983604 -0.116088174 -0.074768744 -0.13134107 0.0495921 0.08775307 0.026167009 0.09705844 -0.11672658 -0.081189595 0.038183965 0.12347576 -0.11594777 -0.18574284 -0.085701406 0.01917965 -0.050650135 0.016580746 0.013672156 -0.03435003 0.09199984 0.09683407 -0.12257594 0.09139898 -0.14371875 -0.080745906 -0.10076891 -0.049619496 -0.10076721 -0.05305953 0.02724597 0.04454659 0.03862718 0.09391066 0.035707157 -0.16887033 -0.019669015 0.067141175 0.1189753 0.011308302 0.14376692 -0.022914525 -0.07058753 0.017198673 -0.027406346 0.029977228 0.06881229 0.06987341 0.019089358 -0.08726924
33 -0.17148522 -0.17433715 0.16588317 0.18301387 0.04148753 -0.061423168 0.05179453 0.1650971 0.06425367 0.028894298 -0.23525499 0.05759953 -0.061791442 0.103611656 -0.09483414 0.07379833 0.10795599 -0.090350054 0.1391396 0.123214856 0.15180176 0.22225237 0.19320717 -0.17152625 0.18269476 0.11736076 0.045171086 -0.26002938 0.0686049 -0.0647274 -0.07752403 -0.036939062 0.11185415 0.1907504 -0.17012353 0.07130499 0.16088492 0.21680129 -0.06667313 0.34346974 -0.15686387 0.046033975 0.21675277 -0.24433461 -0.060650505 0.22223935 0.096506074 0.13649537 -0.15036286 0.19500466 -0.24083392 -0.21806444 0.22482757 -0.16855644 0.12313284 0.014296024 0.22331019 -0.05678131 0.03721369 -0.25281855 0.19883636 -0.12824869 -0.3085478 -0.2052007 -0.1641302 0.17133574 0.031312484 0.14075339 -0.14444874 -0.2829209 0.19239518 0.21659313 -0.1329802 -0.23099339 -0.17721039 0.053830236 0.105926976 -0.21160112 0.1636872 -0.18857785 -0.19195624 0.00486679 -0.1618933 0.13661422 -0.21516714 0.14791271 -0.19742139 -0.18820122 0.09839965 -0.129224 0.1645828 -0.16891888 -0.033167806 -0.0070077437 0.066464216 0.108158134 -0.0023517874 0.11036154 0.29327282 -0.1404222
24 -0.111746706 -0.07149625 0.026644578 0.10727805 0.018737812 0.031155141 0.01189829 0.05715003 0.047197837 0.099016115 -0.10382204 0.076992586 -0.051922563 0.06293747 -0.022051455 0.00074768486 0.07359648 -0.08441551 0.12879246 0.07281868 0.10570869 0.12887388 0.08346313 -0.033443965 0.08838274 0.05542599 0.053747356 -0.096019246 -0.005689226 -0.06380087 -0.04781423 0.014051745 0.076426946 0.043254282 -0.122665755 -0.013633771 0.077319235 0.13814178 -0.05963706 0.124936 -0.049137957 -0.004139281 0.09499912 -0.11409723 -0.0058573773 0.09350377 0.06596357 0.04447069 -0.003568937 0.05113981 -0.11355515 -0.12123574 0.08572721 -0.16892782 -0.011136351 -0.022128977 0.106141 -0.0016348334 0.039719567 -0.101607785 0.12638554 -0.033245474 -0.16350499 -0.14261895 -0.01485124 0.14714126 0.062157582 -0.031429935 -0.07526166 -0.14006597 0.09671508 0.105012715 -0.079967685 -0.027319519 -0.12304035 0.10063058 0.024752397 -0.07124894 0.024254952 -0.09256455 -0.12028395 -0.016509354 -0.043470062 0.03954784 -0.05824299 0.011347909 -0.077501774 -0.10708383 0.07550126 -0.078229 0.053589903 -0.062971875 -0.14078954 0.015405018 0.054676276 0.088899225 0.02535846 0.08119139 0.077641666 -0.0856753
25 -0.11438884 -0.07756983 0.026265476 0.094825275 0.018017158 0.039542273 0.010867799 0.054285347 0.032161616 0.09992192 -0.11303753 0.05501718 -0.035287134 0.06438108 -0.03326333 -0.014521213 0.06285078 -0.08073845 0.10464498 0.06902101 0.102622174 0.11410341 0.08125663 -0.03424654 0.09651019 0.055239875 0.036362488 -0.08825565 -0.0055328924 -0.047674194 -0.03300336 0.022542212 0.07238806 0.05900968 -0.116124146 0.002209792 0.052454073 0.1424951 -0.044045523 0.118519515 -0.05423471 -0.0037245895 0.08455283 -0.11026993 -0.02534247 0.08111504 0.043776833 0.041485727 -0.0051921303 0.0533318 -0.10627143 -0.11974677 0.08606072 -0.15954077 -0.026031809 0.0047588367 0.10705166 0.00258274 0.019439753 -0.103410974 0.1288595 -0.041099712 -0.16901602 -0.15414023 -0.0105521735 0.14280462 0.04347674 -0.025109772 -0.07108225 -0.13486947 0.0931952 0.0999239 -0.086480916 -0.03816798 -0.10388441 0.09000143 0.02492157 -0.086958215 0.03299141 -0.08765195 -0.12038434 0.012678155 -0.050964277 0.03936366 -0.05416527 0.016832855 -0.07393407 -0.096720055 0.054474704 -0.10549061 0.041008122 -0.052991353 -0.13808243 0.038082585 0.03710504 0.06894205 0.03117295 0.07784681 0.09033808 -0.07981041
23 -0.14668743 -0.09103777 0.11901595 0.12879418 -0.030150633 -0.0117105935 0.022115616 0.07804965 0.047468685 0.060005847 -0.12468455 0.04247512 -0.028851386 0.07385655 -0.08546129 0.03871128 0.07552758 -0.09471381 0.09200509 0.0596185 0.108172566 0.16763051 0.12790743 -0.07763304 0.12867019 0.07043158 0.013459021 -0.14211172 0.050329432 -0.009771509 -0.023814814 0.009177501 0.06683251 0.105701916 -0.11754507 0.07426 0.10243978 0.16603331 -0.08128829 0.21306409 -0.0888948 0.0052399933 0.13477391 -0.1703937 -0.08358947 0.12890814 0.051948346 0.09461542 -0.06406404 0.100615144 -0.16828178 -0.11202635 0.14849393 -0.11729869 0.05039301 0.06031419 0.14643484 -0.017064987 -0.026439397 -0.16208835 0.15582334 -0.08597444 -0.21541354 -0.1554854 -0.0937689 0.13649145 0.020020228 0.07121831 -0.107746854 -0.16572025 0.14533946 0.1468342 -0.119708285 -0.12952407 -0.103194505 0.066451296 0.030837324 -0.13097516 0.10474253 -0.104221426 -0.12440871 0.045605533 -0.07962806 0.06987085 -0.12704831 0.053856343 -0.122564994 -0.099121965 0.06315078 -0.12079669 0.083373 -0.098882444 -0.0839518 0.034436632 0.029217921 0.070679724 0.015706534 0.079177216 0.19260746 -0.12960692
14 -0.11334631 -0.09234214 0.09187344 0.07717919 0.02158624 -0.020113098 0.05295859 0.06900313 0.026291786 0.0021233894 -0.1075322 0.017726071 -0.011104729 0.060106788 -0.06342296 0.04198112 0.031149987 -0.037053682 0.04884736 0.04987538 0.051561 0.12137007 0.11810216 -0.09382105 0.11296211 0.051847216 0.011333862 -0.1213869 0.041349493 0.008453225 -0.017663058 0.0055080457 0.057646275 0.09293329 -0.061598375 0.036768932 0.07041164 0.12074137 -0.059346545 0.19105454 -0.091283135 0.031957768 0.09612158 -0.12729988 -0.025802527 0.10300714 0.005357828 0.074022606 -0.07453625 0.0820282 -0.11184875 -0.0929183 0.10748747 -0.07516803 0.0739996 0.04423678 0.12493255 0.0009737867 -0.014858423 -0.12079117 0.10711312 -0.07187018 -0.13543269 -0.08726558 -0.10671498 0.11094771 -0.01156559 0.0844996 -0.09896456 -0.10819113 0.09036481 0.14987421 -0.069996946 -0.11611162 -0.05172777 0.025893575 0.02901445 -0.11688895 0.10010581 -0.09202403 -0.100168966 0.016627219 -0.089924335 0.08537751 -0.10902638 0.057683997 -0.08952739 -0.076542296 0.040688694 -0.074469365 0.07377955 -0.08307737 -0.02186534 0.035998944 0.055227354 0.02875361 -0.0008718455 0.033614125 0.17530842 -0.09836341
15 -0.08977516 -0.058716398 0.097146735 0.096612096 0.01676793 -0.040419795 0.04863952 0.073327 0.025254173 0.01824412 -0.08992925 0.00089041144 0.0068650716 0.022848433 -0.06375918 0.043150015 0.033437006 -0.006287923 0.030924521 0.044829622 0.042414032 0.11046483 0.11873725 -0.0827847 0.107486844 0.054423437 -0.0065905415 -0.09232387 0.047916014 -0.003492357 -0.008096448 0.007898446 0.011451268 0.08305125 -0.04328915 0.061271913 0.07388309 0.10492524 -0.065355934 0.16483846 -0.07285562 0.04145601 0.06905389 -0.110458724 -0.042434253 0.07944751 -0.004311192 0.061248556 -0.079595044 0.037640728 -0.08545038 -0.08571645 0.11276193 -0.05618058 0.050877504 0.034689512 0.088419765 -0.007765038 -0.03191415 -0.08987574 0.097884506 -0.07219443 -0.1530933 -0.073060155 -0.090248466 0.07792908 -0.014876286 0.075561315 -0.0779078 -0.11618754 0.092706464 0.12035459 -0.050783377 -0.10010016 -0.06321335 0.011215659 0.012602809 -0.10734393 0.06865213 -0.07189301 -0.06587938 0.042100653 -0.0775203 0.0678827 -0.09170437 0.042472634 -0.10021706 -0.069140755 0.029810913 -0.073514044 0.08043434 -0.05550054 -0.01763149 0.03133254 0.028638037 0.029230285 0.009330743 0.024081493 0.15463811 -0.08581248
18 -0.098189175 -0.063310005 0.10745935 0.08050542 0.022894323 -0.03938957 0.06122711 0.06997164 0.025194235 0.009756681 -0.09195967 0.015463999 -0.0018363439 0.047313146 -0.07227686 0.0479279 0.032293 -0.028132025 0.04143383 0.060281422 0.03842429 0.11544808 0.110386014 -0.08210245 0.108837016 0.06744303 0.009840009 -0.085850224 0.052779682 0.0046690777 -0.0077522513 0.00438077 0.021800792 0.079588905 -0.053117268 0.05738094 0.06711538 0.11565124 -0.08317413 0.17402816 -0.090722784 0.04204067 0.07876189 -0.11593473 -0.029761638 0.09575187 0.011651235 0.087609954 -0.056096926 0.053583823 -0.09733996 -0.08450115 0.10162823 -0.061507292 0.08773997 0.048963606 0.090227365 -0.002812688 -0.04742851 -0.113552146 0.10525314 -0.063313164 -0.14518383 -0.073055 -0.10461797 0.091307245 -0.009279765 0.0754427 -0.09179433 -0.10545646 0.094912395 0.1407547 -0.068935364 -0.09648286 -0.06872991 0.018979147 -0.002251775 -0.104635194 0.07541332 -0.0871474 -0.06363172 0.03930332 -0.07541439 0.07347065 -0.096357666 0.029570732 -0.0998227 -0.0795131 0.03599563 -0.068979725 0.07394266 -0.082558826 -0.01121688 0.021240363 0.03992116 0.026556496 0.00535842 0.028943177 0.15919405 -0.09195201
20 -0.09140917 -0.075135544 0.10315673 0.111094296 -0.0062442343 -0.022854624 0.0029832963 0.067995615 0.0033774022 0.019044865 -0.09245759 0.010298625 0.007336708 0.028364368 -0.0106621 0.04962814 0.022749132 -0.013581467 0.049268823 0.054231107 0.071308926 0.11469862 0.10750411 -0.10758724 0.07974668 0.034973823 0.0036014384 -0.1428793 0.041242316 -0.009306907 -0.04815142 -0.027016412 0.036951393 0.094960436 -0.05754201 0.04618954 0.06545335 0.089665845 -0.022831481 0.1657221 -0.08998725 0.010239536 0.09794036 -0.11241947 -0.03944668 0.12014545 0.03521195 0.01917476 -0.08102961 0.07734698 -0.12589313 -0.07592756 0.09431893 -0.063826546 0.05095963 0.013275847 0.11095013 -0.004660469 -0.00054509565 -0.12532371 0.074194446 -0.065108284 -0.15454528 -0.11454791 -0.09741004 0.06778922 0.00012423168 0.09665568 -0.03788595 -0.12465988 0.12488064 0.097071275 -0.063268594 -0.12951693 -0.08260451 0.016038356 0.06755788 -0.09806197 0.08250576 -0.042209018 -0.09896138 0.03152491 -0.087114945 0.051185444 -0.101165175 0.073823676 -0.08826028 -0.09896088 0.051213652 -0.06449405 0.08679862 -0.06734062 -0.029137105 0.03693206 0.030674657 0.041099172 0.017919715 0.05746969 0.15754908 -0.069126904
22 -0.09238106 -0.0730583 0.08223247 0.07927574 0.0412629 -0.03213232 0.03623575 0.09937695 0.024001647 0.00010267785 -0.12766919 0.012996733 -0.024634369 0.04914566 -0.06884393 0.036826447 0.05091813 -0.010345768 0.052399397 0.07684484 0.080466524 0.0941859 0.097861215 -0.07360829 0.08380459 0.059302524 0.013152538 -0.12065707 0.022251572 -0.032791752 -0.030812476 -0.02679354 0.0441925 0.10691732 -0.09245421 0.027470121 0.063305795 0.086919025 0.0025997777 0.17208877 -0.09159896 0.04475209 0.08813133 -0.12710361 -0.023981683 0.11189893 0.040027417 0.059909113 -0.10160646 0.078802764 -0.1041089 -0.13050357 0.12309098 -0.10659136 0.07697602 0.012052019 0.100110054 -0.03320001 0.02118588 -0.119793475 0.074008584 -0.07428608 -0.13779123 -0.08777097 -0.10192073 0.077759236 0.017643142 0.065113306 -0.07277164 -0.14361455 0.101642564 0.09374389 -0.055091217 -0.15144794 -0.09653384 0.014013602 0.047995917 -0.10099852 0.07957114 -0.0915041 -0.0865194 -0.018638974 -0.09752229 0.08014411 -0.10900952 0.099950396 -0.09159486 -0.10001715 0.032952536 -0.06861541 0.104199946 -0.06541836 0.0014359411 -0.0062687816 0.041311577 0.059365522 0.0049239057 0.056947365 0.15331018 -0.054627877
26 -0.10980697 -0.071219325 0.13446341 0.07433775 -0.0762226 -0.0067423605 -0.025712274 0.038163096 0.019094814 0.015637197 -0.08494736 0.0105981985 -0.031765096 0.071363695 -0.08426669 0.03571047 0.07132086 -0.10511306 0.038113613 0.016630247 0.0990987 0.11377625 0.069250554 -0.05919841 0.08705551 0.025120065 -0.0261948 -0.13805941 0.03210276 0.021876078 -0.007841241 -0.0030589101 0.042445954 0.11279267 -0.064932644 0.113911 0.06276338 0.10806653 -0.017517546 0.18617812 -0.0735127 -0.006002725 0.12123904 -0.16369793 -0.109580934 0.13328147 0.04986192 0.083646424 -0.069051504 0.1079565 -0.14811918 -0.05772851 0.13390525 -0.033872597 0.061975148 0.08127278 0.120561145 -0.036234375 -0.038707837 -0.14773265 0.13780814 -0.084325865 -0.17782603 -0.14803833 -0.098245926 0.061366085 -0.008474962 0.11687866 -0.053349927 -0.1292297 0.11590038 0.07879937 -0.11171719 -0.16805911 -0.053991705 0.010624505 0.03942187 -0.10678333 0.1282236 -0.06736662 -0.08217475 0.08232411 -0.049901593 0.037206117 -0.13039793 0.094994925 -0.09142551 -0.049751848 0.023588926 -0.11963711 0.07021297 -0.08918849 -0.033329587 0.0014939448 -0.030562213 0.006892137 0.0051309327 0.08957428 0.17756101 -0.100617625
29 -0.106812805 -0.07701045 0.11956301 0.06840932 -0.0825233 0.001213252 -0.029954419 0.033065967 0.014993392 0.02603548 -0.0858849 0.001212432 -0.022841305 0.07520733 -0.095013596 0.01747595 0.07422278 -0.11917932 0.034824815 0.013767671 0.10432924 0.1076953 0.064021006 -0.049977675 0.08856733 0.03222784 -0.027565785 -0.12751266 0.031724513 0.022163473 0.006074345 0.00880684 0.05177135 0.11552255 -0.07492916 0.1150243 0.04941786 0.11836072 -0.017598115 0.16740783 -0.065798044 -0.019637322 0.120836124 -0.14761814 -0.12816761 0.11514774 0.044537336 0.08438073 -0.058080044 0.113321975 -0.14995137 -0.0581717 0.12990724 -0.038111016 0.03926703 0.094306916 0.12373302 -0.032138593 -0.04341168 -0.14687955 0.14028855 -0.0831058 -0.17262477 -0.15266508 -0.073600605 0.0689773 -0.010444475 0.105512396 -0.05817891 -0.12775442 0.10607366 0.073540516 -0.121418975 -0.1559006 -0.041080408 0.018376896 0.038097203 -0.11214434 0.12709934 -0.06348619 -0.08418508 0.09117516 -0.04523765 0.0277222 -0.11807383 0.08864767 -0.08916865 -0.045010634 0.013464289 -0.13497087 0.046695933 -0.08266564 -0.04485671 0.014072556 -0.041458778 0.007438409 0.0045783315 0.08363524 0.17142706 -0.09347454
