34 100
0 -0.024605444 0.12794821 -0.0054078978 -0.20821148 -0.13901867 -0.1501916 -0.08278236 -0.10870411 0.060256347 0.008093202 0.03298573 0.2977878 0.1156105 -0.017999327 0.0729811 -0.15388107 -0.13802122 -0.12174481 -0.052963123 -0.15325376 0.051453464 0.19152279 0.059979323 -0.1333439 -0.05283745 -0.03561409 0.16671084 0.008253525 -0.052299146 -0.087725215 0.0016426125 0.13157615 -0.18431495 0.038072847 -0.025135864 -0.10542039 -0.06764413 0.023389734 -0.03498931 -0.08330926 -0.18353121 -0.02026874 -0.10359588 0.05263921 -0.085044004 -0.17972471 -0.01930631 -0.098902665 0.14290918 0.04294524 -0.046783544 0.12851357 0.013744866 0.09372608 -0.1303006 -0.018475618 0.2580663 -0.060475007 0.058545925 0.008002986 0.21754216 0.10941091 -0.19266126 0.048352677 0.0020491297 0.044740345 -0.11919478 0.09695365 -0.072951004 0.2705324 -0.040985703 0.009648829 -0.050128896 0.024455843 -0.048620734 -0.08717922 -0.14419478 -0.08440076 -0.026647007 0.14010142 0.011305569 0.0030453347 0.053544287 -0.16174324 0.0711354 0.11847899 -0.05930346 0.21881005 0.101444155 0.13230398 0.1994744 -0.055373807 -0.06408814 -0.09321118 0.00038413645 0.20934522 -0.038851444 0.044864964 -0.110169746 -0.099266924
1 -0.023649987 0.04715501 -0.034936704 -0.09013394 -0.0868032 -0.10301764 -0.05858753 -0.014479657 0.07404072 0.0056311027 0.06853072 0.21878733 0.082510844 -0.01273982 -0.034392666 -0.15806952 -0.11115215 -0.08824947 0.09425624 -0.04886717 0.061896108 0.1270333 0.09393538 -0.1681254 -0.004762848 0.0014712905 0.14024244 -0.09975985 -0.041470997 -0.07416427 0.0691453 0.1347924 -0.19445868 -0.019692244 -0.05791154 -0.17901717 -0.077137426 0.021727616 -0.038579673 -0.10409491 -0.14481437 -0.1002681 -0.09990715 -0.016225312 -0.074071094 -0.16051812 -0.048930306 -0.057014003 0.20555761 0.06528661 -0.055396635 0.17755222 -0.041174296 0.08294925 -0.18470125 -0.052319907 0.2911343 -0.044019762 0.030786542 0.023008253 0.22573222 0.05308333 -0.18797539 0.035320725 0.045562424 0.059007548 -0.16855317 0.09948828 -0.07233327 0.28531295 -0.12577167 0.059284814 -0.09265687 -0.12698781 0.0041097905 -0.097140424 -0.0681822 -0.026677689 0.0020710626 0.047354933 0.05651044 -0.031273495 0.009805893 -0.19158672 -0.019306557 0.016017167 -0.14533103 0.11385815 0.13128772 0.16640717 0.18481016 -0.09276411 0.011465052 -0.06457444 0.060025167 0.20246242 -0.021615831 -0.116369165 0.06898638 -0.2531536
2 0.0068825427 0.028019294 0.006897134 -0.22245844 -0.04152693 -0.06369884 0.1402217 -0.10425114 0.09268248 -0.047834508 0.09341537 0.12863813 0.028839432 -0.034102272 0.03263158 -0.054511767 -0.109410115 -0.14664465 0.09876057 0.013861225 -0.03001338 0.10173965 -0.03475075 -0.18205564 -0.009746375 0.0813691 -0.011975044 -0.052010626 -0.096234195 -0.09122941 0.114846945 0.089852646 -0.046976596 -0.019544268 0.038492844 -0.24243984 0.02316733 0.048933115 0.08210706 -0.0024115734 0.017380059 0.023576947 0.026103731 -0.05418615 -0.093685284 -0.14732242 -0.10525771 -0.0501605 0.18325402 0.1049004 -0.051750448 0.08576034 -0.10992801 -0.044942696 -0.21093777 -0.14161281 0.32786387 -0.042838432 0.079005845 -0.074333474 0.21002614 0.081228204 -0.1876403 0.056679823 -0.028719096 0.05397538 -0.088191584 0.014590689 -0.010336387 0.2562051 -0.06775988 0.032885034 -0.1697306 -0.14849709 0.043895286 0.02077299 -0.13815987 -0.025755322 -0.08640076 -0.045995645 0.04760225 -0.06531702 0.04285682 -0.140561 -0.01912482 0.12705193 -0.12375753 0.067217134 0.06978697 0.14849648 0.22189689 -0.10579929 -0.0023386218 0.07557881 -0.043904025 0.14144044 0.009113322 0.08623179 0.030362934 -0.045278076
3 -0.023602402 0.014285886 -0.03885705 -0.12458348 -0.06703542 -0.0811791 0.04579038 -0.0864401 0.110779464 -0.01932734 0.13470837 0.12681541 0.10273878 -0.07091424 -0.013222726 -0.105752125 -0.09473434 -0.11374423 0.044239186 -0.010615724 3.777673e-05 0.1379683 -0.01607293 -0.21814135 -0.04498608 0.093347944 0.084848925 -0.084049314 -0.15961125 -0.15999264 0.12085963 0.19205947 -0.15263397 0.010319586 -0.07090837 -0.25985098 0.016405487 0.06747352 -0.007582341 -0.06660685 -0.035901364 -0.079712346 -0.071690984 -0.0046133073 -0.13405544 -0.10700647 -0.043993626 -0.012426032 0.23143981 0.13226487 0.014564734 0.0838163 -0.108097404 0.004618655 -0.23985672 -0.1622462 0.31747258 -0.040683508 0.070305474 -0.087067306 0.22209288 0.038431153 -0.109421894 0.074077345 -0.017531695 0.0038808687 -0.14015914 0.10128456 -0.06339695 0.22086094 -0.0992649 0.060106646 -0.14175048 -0.116452545 0.072114214 -0.048997004 -0.03544795 0.0018604372 -0.09599946 -0.014639867 0.13498503 -0.108857945 0.020550627 -0.13295063 0.041571308 0.07761061 -0.14234729 0.085684285 0.05710647 0.10011253 0.13088624 -0.124024786 -0.006568988 -0.02174342 0.010970188 0.1609301 0.05561643 0.048884317 -0.0059748944 -0.17633699
4 -0.07791559 0.23144042 0.005750598 -0.11552466 -0.13885196 -0.1700372 -0.17997582 -0.09507008 0.089188226 -0.038045898 0.036082324 0.070003614 0.13750027 -0.04546309 0.17273012 -0.08110976 -0.02769262 -0.03909169 -0.09331215 -0.2678335 0.03863522 0.19304873 -0.040395655 -0.07076412 -0.15359159 0.059082907 0.06522402 0.054877765 -0.20534487 -0.33230308 -0.028107919 0.0478355 -0.19965838 0.12830631 0.040060613 -0.24311678 0.10625444 0.18270606 -0.23990072 -0.017621055 -0.276854 -0.15290047 -0.27410835 0.07475934 -0.23127146 -0.23122036 0.025049075 -0.08851172 0.026331881 -0.017855259 0.17012364 0.14183629 0.050096247 -0.04079093 -0.20226468 -0.081482485 0.25822365 -0.09855631 0.057674635 -0.049999602 0.27198425 0.12440532 0.030613095 0.17924239 -0.157739 -0.0151925655 -0.089564174 0.1408747 -0.20305145 0.048172392 0.02446735 -0.002239806 -0.13006645 0.102281615 -0.0031160302 -0.19501138 -0.19256407 -0.046064842 -0.1914784 0.1448376 0.16944662 -0.068377696 0.07849544 -0.035236277 0.2785513 0.21360123 0.032219633 0.23321313 -0.11257093 0.085321866 0.11765015 -0.15940782 -0.1735697 -0.041227452 -0.15634689 0.23022856 0.24594389 0.18482219 -0.037340865 -0.0853695
5 -0.14598744 0.28744137 0.046437643 -0.15051533 -0.2013371 -0.19370411 -0.21169181 -0.106847234 0.06030767 -0.040785797 -0.0036354088 0.10962595 0.16440338 -0.022605358 0.19252229 -0.09941702 -0.042614218 -0.03150124 -0.14924483 -0.37403783 0.08803428 0.25173274 -0.053073138 -0.075879745 -0.16713044 0.055210784 0.047377393 0.020575292 -0.2844437 -0.44590494 -0.029875405 0.0412476 -0.22469188 0.15791948 0.021675473 -0.18723911 0.060363293 0.20598766 -0.2861506 0.003156463 -0.28006187 -0.18450244 -0.3080928 0.0849784 -0.23650123 -0.23236531 0.03690747 -0.009817118 -0.011339345 -0.047088105 0.18530716 0.1519928 0.073131844 -0.031245671 -0.18633309 -0.08616117 0.2723073 -0.15702392 0.03841381 -0.0027857276 0.26875436 0.1321785 0.044773158 0.22519362 -0.14244401 0.009024944 -0.10584225 0.13991416 -0.20125154 0.055083014 0.02382561 -0.05683172 -0.13725741 0.18403974 0.0058947983 -0.24794644 -0.22490935 -0.011690199 -0.24479698 0.17315313 0.15412334 -0.089066915 0.078637935 0.0024799698 0.3536667 0.21424174 0.077068925 0.30295345 -0.04719588 0.067949004 0.06064789 -0.14700297 -0.15511224 -0.116745144 -0.14931245 0.28076744 0.22603467 0.2120207 -0.041400682 -0.038917284
7 -0.014443828 0.07481974 0.009927371 -0.1579199 -0.13857335 -0.12596749 -0.02061085 -0.05619803 0.111851886 0.018156208 0.15814377 0.13198707 0.088848196 -0.063112184 -0.023296917 -0.1265161 -0.083535835 -0.13943905 0.05393576 -0.09367588 0.0077101947 0.20358352 0.031968884 -0.25752717 -0.046678193 0.05984429 0.054742564 -0.05095474 -0.13406864 -0.09350108 0.10375747 0.16048071 -0.14631546 0.010488518 -0.0016689802 -0.18962096 -0.0137111135 0.049596693 -0.04085173 -0.03485284 0.008341255 -0.009697965 -0.011490565 0.04861781 -0.08651373 -0.08727025 -0.054127887 -0.0475046 0.21187875 0.11817636 -0.039400864 0.042573683 -0.08598906 0.019836979 -0.18306346 -0.087881416 0.28477138 -0.04326333 0.028788641 -0.0953998 0.12627053 0.033209305 -0.0877447 0.026879426 -0.03395332 -0.0012199876 -0.16369271 0.022020424 -0.07304405 0.23159814 -0.082823776 0.047506437 -0.15172635 -0.032257367 0.09988982 -0.087341554 -0.05128298 -0.025043264 -0.0835595 0.061438374 0.09234097 -0.1440963 0.09022884 -0.108703814 0.088610575 0.1139813 -0.13800883 0.1300605 0.08180664 0.07403102 0.16931897 -0.12138934 -0.078314 -0.059973896 -0.0017634636 0.20771323 0.08204074 0.10288963 -0.034966886 -0.32801932
8 0.07278095 0.052953836 0.021888074 -0.16047889 -0.02686062 -0.11532292 0.043962307 -0.13079795 -0.02082897 -0.046142776 0.021242607 0.29078212 0.046406087 -0.061643004 -0.04260928 -0.05516147 -0.0053634434 -0.17941315 0.02907895 0.16752028 -0.060299736 0.013569494 -0.004250755 -0.14120546 0.026474198 0.008518809 0.050001148 -0.038387615 0.01176925 0.04112548 -0.0008998037 0.14449966 -0.07847808 -0.017923446 0.115918785 -0.15350749 -0.11145131 0.006182475 -0.016886024 -0.0075368993 -0.0073098755 0.0042633787 0.013217401 0.018982526 -0.11316242 -0.14163962 -0.017289441 -0.033956822 0.053725187 -0.056043614 -0.099225596 0.107673466 -0.10493638 0.01062836 -0.13557945 -0.01124455 0.30161452 -0.117954254 0.16739447 -0.0016992463 0.09853796 0.14619589 -0.15341215 0.10326349 -0.026823377 0.08383829 -0.053604256 0.067583196 -0.0866739 0.15065736 -0.1594262 0.08908021 -0.14901006 -0.13784885 -0.07277302 -0.03690803 -0.08338343 -0.054442376 -0.07060004 0.009088175 0.05354804 0.0151080275 -0.08416853 -0.16300946 -0.0349984 0.03650191 -0.10998123 0.06205138 0.006986927 0.14592308 0.17303269 -0.024511397 -0.042791195 0.018845676 -0.08538111 0.011041168 0.081712164 -0.038189203 0.14279155 -0.24009818
10 0.028079059 0.053414 0.0050938292 -0.09238289 -0.14149731 -0.14951684 -0.09734843 -0.033327416 0.056927305 0.020553697 0.09449776 0.20294012 0.08457049 -0.08086929 -0.00015162573 -0.20449221 -0.1540341 -0.13266462 0.056063972 -0.047742736 0.022813495 0.18390597 0.037836526 -0.18269996 -0.014504236 0.0139164245 0.09559442 -0.08503231 -0.10597012 -0.10861838 0.050080735 0.17462665 -0.16227287 0.04986334 -0.06247151 -0.21311067 -0.048538763 0.08478364 -0.08131833 -0.101334386 -0.19327013 -0.09083927 -0.15414527 0.06388502 -0.08309899 -0.1612167 -0.012828648 -0.058063515 0.16326517 0.07924693 -0.029939834 0.117140464 -0.06072193 0.06558917 -0.2572376 -0.04554494 0.2823671 -0.021810055 0.061876573 -0.068938024 0.22401114 -0.00018557651 -0.072924316 0.06370329 -0.016202232 0.006034067 -0.08948341 7.2763854e-05 -0.03962635 0.20670356 -0.0743053 0.06616581 -0.09502989 -0.07274971 0.059098322 -0.1237077 -0.05873834 -0.028795693 -0.040065512 0.10758276 0.07710685 -0.061713245 0.0829915 -0.08188856 0.0860648 0.06919681 -0.01732463 0.14543018 0.009504893 0.048483938 0.10938625 -0.086377084 -0.04908323 -0.035902277 -0.035475157 0.19991863 0.16391794 -0.08959951 0.029805232 -0.18614568
11 0.04808097 0.049565963 0.013126671 -0.10788302 -0.142439 -0.1805123 -0.061513864 -0.046318933 0.055596378 -0.012369769 0.06950768 0.25825086 0.09476871 -0.105658785 0.008377543 -0.16789025 -0.1713765 -0.12536877 0.030563287 -0.05097911 0.01671324 0.19983773 0.058060315 -0.16208337 -0.023881322 -0.015930926 0.07897898 -0.07692381 -0.11216638 -0.12085916 0.033941206 0.15891007 -0.17712471 0.08232168 -0.023178486 -0.17163782 -0.024716992 0.08525755 -0.11400394 -0.08996349 -0.22280882 -0.08171259 -0.1686744 0.074332014 -0.104210325 -0.16031644 0.0049591395 -0.08098215 0.101110905 0.0040048975 0.0070050852 0.1334592 -0.02412981 0.08082043 -0.21809505 -0.02038225 0.28213647 -0.034038316 0.06604933 -0.05281523 0.23752621 0.040646464 -0.06752857 0.07166827 -0.011283904 0.022881284 -0.10740984 0.035005614 -0.06780781 0.17678463 -0.05975789 0.033928584 -0.06151101 -0.01181095 0.018999174 -0.1222209 -0.09167094 -0.033188507 -0.030584872 0.10256176 0.031849705 -0.049200762 0.05767147 -0.08857175 0.09272524 0.058234055 -0.0045685163 0.20358159 0.022848865 0.05215246 0.101375826 -0.043883584 -0.07352365 -0.064515546 -0.03457277 0.1897893 0.17889246 -0.07848559 0.05822491 -0.2355168
12 0.03687858 0.05795283 0.034782328 -0.08353189 -0.15260692 -0.16836986 -0.053780764 -0.008640828 0.10368481 0.002848505 0.11704418 0.15669294 0.10218004 -0.09605264 -0.013264104 -0.15189014 -0.13312294 -0.1335016 0.068771526 -0.0868065 0.023732414 0.21655814 0.0709001 -0.20086534 -0.02691375 0.013102308 0.04014038 -0.0898185 -0.14291203 -0.14776081 0.06819196 0.12629451 -0.16380581 0.073580205 0.0041618743 -0.21740344 0.001166312 0.090296365 -0.107534125 -0.07096196 -0.16236906 -0.07903739 -0.1426889 0.06395305 -0.09292579 -0.13388416 -0.012886949 -0.04855854 0.1587059 0.046116125 0.019806523 0.113220386 -0.036916517 0.038304437 -0.22960518 -0.0438782 0.2772997 -0.024482371 0.045334622 -0.077329926 0.21357857 0.017979166 -0.031967733 0.04674498 -0.017616209 0.033847637 -0.11856134 0.0069559366 -0.06891163 0.18125966 -0.077486545 0.061450154 -0.11898393 -0.03802799 0.082620025 -0.13125095 -0.072544634 -0.019510956 -0.04176977 0.06744794 0.06252645 -0.107337594 0.07585077 -0.096838824 0.08875746 0.080915034 -0.06173497 0.17046769 0.02646935 0.05318349 0.12221873 -0.090853006 -0.0835988 -0.043012947 -0.036490764 0.22229238 0.19082941 -0.05277797 0.08256307 -0.29687962
13 0.04041136 -0.023208372 0.006978379 -0.08802156 -0.04690213 -0.049930044 0.06059929 -0.067566566 0.06966769 0.0046471846 0.08403251 0.12402254 0.031848516 -0.052262604 -0.0009710512 -0.081342705 -0.10574635 -0.11670218 0.013625149 0.027394354 -0.0074890656 0.10852476 0.013395618 -0.172001 0.0016140708 0.022498144 0.060254615 -0.0658247 -0.056998122 -0.03792481 0.0733119 0.16045247 -0.08949058 0.015791453 0.009984739 -0.16012159 -0.01513884 0.09133497 0.0012057356 -0.060119037 -0.0076338276 0.009679001 -0.013643699 0.0007797476 -0.07458171 -0.11139814 -0.03162949 -0.08295129 0.16661727 0.09622244 -0.072542414 0.10876379 -0.12355604 0.011740539 -0.20283885 -0.08945323 0.31606597 -0.016991673 0.09906439 -0.055856016 0.13565704 0.042797998 -0.11414982 0.05499488 0.008511968 0.031379413 -0.11066393 0.04463958 -0.03571703 0.26399693 -0.08869089 0.11495001 -0.15104255 -0.10803606 0.029184392 -0.07002659 -0.08610203 -0.052673273 -0.07903335 -0.00018009753 0.095404126 -0.090808615 0.018955322 -0.13083734 0.0747589 0.12278582 -0.13511187 0.109037474 0.023998735 0.0959463 0.1585555 -0.086568795 -0.07252674 0.041432947 -0.009700198 0.14925058 0.1705821 0.013287738 0.045102607 -0.3182389
17 0.017126158 -0.010276922 0.0021203863 -0.10626612 -0.12537792 -0.17069793 -0.11509578 -0.00029311463 -0.003836834 0.029421644 0.0942084 0.22297406 0.036967494 -0.09687143 -0.066477366 -0.24754263 -0.14278342 -0.10199012 0.074544385 -0.01645753 0.0065981527 0.17913282 0.04298359 -0.16550331 0.04346588 -0.08241235 0.121921524 -0.09953501 -0.090786666 -0.07945525 0.0413714 0.1469548 -0.22024569 0.061635643 -0.115188494 -0.20204726 -0.12914722 0.05588784 -0.10819875 -0.12602736 -0.14074282 -0.045724045 -0.15715213 0.09633099 -0.115688376 -0.1743646 0.0027551372 -0.07129016 0.18456914 0.10595393 -0.062032476 0.11956838 -0.121265024 0.1230843 -0.26643395 -0.030203516 0.30515617 -0.033643372 0.089530595 -0.09587516 0.19264647 -0.010884821 -0.0942592 0.0042228135 -0.005955578 0.054859925 -0.08377507 0.00075080595 -0.07700365 0.24215664 -0.12801369 0.08239974 -0.12887587 -0.108155005 0.0924547 -0.14677882 -0.04773441 -0.05257286 -0.031274628 0.13971217 0.08646131 -0.06419501 0.06321051 -0.14161736 0.08670692 0.037533388 -0.034395207 0.18513075 0.045881867 0.029109823 0.16736937 -0.031476256 -0.076923266 -0.06398719 -0.014182627 0.18297023 0.092947856 -0.09440806 -0.04547433 -0.14566027
19 0.034098696 0.0054005566 0.019596694 -0.14913025 -0.1586205 -0.20531797 -0.10988137 -0.012194603 -0.0047767977 0.028899336 0.101369254 0.25291312 0.05248879 -0.099450015 -0.10623589 -0.2227154 -0.12997875 -0.13950448 0.11943438 0.01118946 0.008478075 0.17194758 0.02723046 -0.19331147 0.04831952 -0.039950896 0.096394345 -0.081139736 -0.121428594 -0.07478592 0.068656005 0.14818163 -0.2006101 0.0813485 -0.049376402 -0.21385129 -0.14356601 0.03522036 -0.11625219 -0.09705378 -0.11964128 -0.03146712 -0.14492358 0.09857691 -0.09716613 -0.17692897 -0.022214944 -0.047340486 0.14425951 0.065421686 -0.07598428 0.096578464 -0.12763509 0.1316002 -0.2357461 -0.021749364 0.30838254 -0.045381352 0.09478169 -0.12472675 0.1957512 0.017581778 -0.096906245 0.025975823 -0.025993364 0.0409659 -0.08144744 -0.035829227 -0.056713168 0.17429449 -0.14062491 0.048621017 -0.1080592 -0.06725161 0.10463542 -0.14276467 -0.030643173 -0.04785042 -0.032299157 0.18110715 0.058775626 -0.07722496 0.08848894 -0.108737186 0.06598387 -0.0005111301 -0.010230843 0.18885519 0.07041727 0.014154273 0.14415784 -0.027155306 -0.07461845 -0.10128436 -0.03591299 0.17507142 0.057724915 -0.07579703 -0.009514156 -0.12570745
21 0.019621046 0.0009035661 -6.122162e-05 -0.15166216 -0.14200965 -0.176769 -0.06916101 -0.046746578 0.026957585 0.023604723 0.08578997 0.2268581 0.067232646 -0.09799318 -0.06499905 -0.1982205 -0.13400853 -0.1293961 0.06095891 -0.01807446 0.024198446 0.1731959 0.023112845 -0.17586446 0.0078122984 -0.03337357 0.10867453 -0.062444862 -0.1211526 -0.108630285 0.06317338 0.14439175 -0.21120867 0.08811363 -0.09392458 -0.20359132 -0.0873965 0.053711902 -0.11152544 -0.10864222 -0.13808851 -0.05450722 -0.15895647 0.09042876 -0.1115953 -0.16433841 -0.018536473 -0.05928999 0.16050638 0.099656515 -0.034243017 0.08688465 -0.10434253 0.122522384 -0.2273595 -0.04416485 0.28885636 -0.024051594 0.06287769 -0.10976624 0.20787378 0.0055943076 -0.08385551 0.025294168 -0.02065939 0.033813506 -0.11053151 0.002124383 -0.06033373 0.20282713 -0.109059244 0.055842627 -0.11431077 -0.066119015 0.10117169 -0.1292323 -0.04266007 -0.04918784 -0.043691497 0.1540984 0.077339485 -0.09045337 0.09488953 -0.1152641 0.0781913 0.026059927 -0.022954967 0.19668895 0.056431156 0.022139557 0.15751752 -0.047657307 -0.06473273 -0.07613266 -0.022430824 0.19833043 0.093856186 -0.03564751 -0.042726975 -0.17549503
31 0.1585517 0.05698531 0.09449207 -0.06863675 -0.11094461 -0.15716125 0.032644354 -0.1310452 0.12524642 -0.057784628 0.025409305 0.18521143 0.099483155 -0.12804128 0.06262415 -0.029200757 -0.15122357 -0.15825474 -0.12538873 0.012290432 -0.014093871 0.20707352 0.053283155 -0.05319352 -0.08317874 0.019611629 -0.04191542 0.04806337 -0.06270482 -0.0643128 7.8739395e-05 0.12305923 -0.04183081 0.04671679 0.23992038 -0.05114425 0.034781825 0.17131962 0.046361815 -0.09719902 -0.07206365 0.11505852 -0.06956224 0.004370017 0.064709686 -0.15708724 0.050268386 -0.20477267 0.02188824 -0.020233773 -0.058052503 0.22386618 -0.09311803 0.0053687347 -0.07792668 0.013675929 0.2163995 -0.025551528 0.13823609 -0.010905335 0.14587641 0.06354581 -0.05127788 0.004589679 0.071425326 0.15105504 0.005576954 0.08074919 0.0070361146 0.13176334 -0.020294677 0.14388889 -0.029421926 0.04676024 -0.023584487 -0.09165935 -0.2637681 -0.13217866 -0.021938473 -0.09668434 0.0445518 -0.01985194 -0.068318665 -0.045392234 0.18808347 0.13324876 -0.050181758 0.17635769 -0.07948398 0.06053566 0.06760948 -0.032934032 -0.20606877 0.21192466 -0.09726827 0.08520579 0.24504484 -0.105635114 0.10242207 -0.1913472
30 0.02079109 -0.04588665 0.018348197 -0.18985216 -0.0052684643 -0.05702587 0.08844846 -0.13776311 -0.07459924 -0.02577471 -0.029640187 0.28151816 -0.01909873 -0.027994946 -0.06158957 -0.053175595 -0.055940468 -0.11594567 0.015831208 0.15154962 -0.0062000104 -0.017065555 -0.033198502 -0.11163214 0.0707229 -0.052593384 0.088328406 -0.04137348 0.011211531 0.034676936 0.04138828 0.13117586 -0.090864435 0.037202843 0.03962154 -0.07509575 -0.13642186 0.024538428 -0.04534141 -0.016361238 0.032597765 0.035656575 -0.008979354 0.01288455 -0.12161527 -0.15572914 -0.032221008 -0.04222702 0.037169237 -0.003145802 -0.13894537 0.11081633 -0.1446331 0.07297218 -0.13806605 -0.041756112 0.3633861 -0.10675255 0.16604844 -0.000369672 0.096072264 0.14278287 -0.19209741 0.10431762 -0.0076067634 0.058627028 -0.09183055 0.041989774 -0.06763613 0.23554114 -0.16434573 0.06742992 -0.15135415 -0.109188 -0.051186036 -0.0904442 -0.087414764 -0.06762319 -0.11039207 0.10210528 0.04368271 -0.029011032 -0.024214828 -0.1688275 0.020377917 0.04748283 -0.081779085 0.15113293 0.089266405 0.12681441 0.18438207 -0.0026560924 -0.042239837 -0.052584156 -0.016567819 0.067353606 0.06807886 0.02504466 0.06291081 -0.21144924
9 0.01906235 0.09518587 -0.062383834 -0.08104348 -0.07776469 -0.07796156 0.060249064 -0.08463767 0.2000164 -0.025476873 0.2196284 0.13363585 0.1455005 -0.058180153 0.025407799 -0.04491452 -0.043609083 -0.18220133 0.08285439 0.012231841 -0.075319566 0.1519276 0.009063171 -0.23979525 -0.08525969 0.22657962 -0.009550716 -0.041734762 -0.10426801 -0.036895722 0.12465749 0.16813493 -0.09104491 -0.061316676 -0.0021441318 -0.274842 0.06000909 -0.017330531 0.07475155 -0.016245022 -0.03936772 -0.11742682 0.056303546 0.030413054 -0.067148015 -0.06108468 -0.10875846 0.013404924 0.2728476 0.0802555 0.005831948 -0.0094581805 0.0044648442 -0.023748543 -0.21812451 -0.1580821 0.23901235 -0.0038825127 -0.019185891 -0.07835331 0.19280556 0.031353842 -0.09409025 0.07853768 -0.0004143756 0.009676248 -0.18412614 0.118837275 -0.02682642 0.24926163 -0.15736781 0.081893615 -0.15473753 -0.13209291 0.015965117 0.031204227 -0.08313449 -0.032788035 -0.084178895 -0.10275226 0.14982322 -0.10479992 -0.017313479 -0.1455473 -0.020768886 0.068611294 -0.21399531 0.023332208 0.061964862 0.17506042 0.1818506 -0.16736059 0.020607218 0.017344989 -0.049081016 0.13037314 0.030956877 0.106582984 0.11484408 -0.40462682
27 0.10013269 0.02451296 -0.003562201 -0.115886636 -0.028177852 -0.050564073 0.116014004 -0.20644048 0.12834543 -0.083311945 0.02834385 0.15538377 0.094736695 -0.097969875 0.072807424 0.014024217 -0.0915756 -0.113850266 -0.13787292 0.10520606 -0.05387861 0.06881132 -0.03649029 -0.10174738 -0.115433246 0.089754164 -0.01462008 0.07382539 -0.028619412 -0.03209243 0.0142771425 0.18574485 -0.034305163 -0.036532853 0.20632243 -0.07516309 0.08262067 0.1848103 0.089559264 -0.06641517 0.060884986 0.07111423 0.010874927 -0.06687889 -0.018555094 -0.1649701 0.019509435 -0.23103838 0.02888353 0.058849595 -0.059134245 0.22481553 -0.16510282 -0.026711557 -0.08341895 -0.07265644 0.28189045 -0.06466613 0.14366364 0.011044907 0.12798828 0.10173146 -0.12692681 0.04865855 0.025768038 0.062931426 -0.043945294 0.15014535 -0.018565694 0.10896809 -0.013174137 0.119413085 -0.031289168 -0.04141961 -0.080143325 -0.007902031 -0.16069773 -0.09691781 -0.06877992 -0.1295072 0.10568852 -0.009409491 -0.0839323 -0.029869864 0.090470746 0.09174648 -0.091179706 0.028074289 -0.09650617 0.09956625 0.09402281 -0.07963748 -0.12273098 0.23515457 -0.04671044 -0.032886587 0.22156478 0.008085913 0.08561607 -0.29444686
28 0.059103057 0.04728645 0.031303525 -0.19361767 -0.034814924 -0.08641047 0.16538958 -0.176837 0.053254437 -0.05113393 -0.025169538 0.25678152 0.105179586 -0.09221851 -0.0021541642 0.01118684 -0.057648662 -0.15473256 -0.055935763 0.06790955 0.016630948 0.038910225 0.01408106 -0.12567529 -0.0543672 -0.00040333223 0.02542453 -0.010326226 -0.021307526 -0.04895342 0.008904829 0.11656177 -0.0633924 0.025248023 0.15644026 -0.06473812 0.021110002 0.07515863 0.021141749 -0.003905807 -0.010099566 0.006765736 -0.0038548051 -0.03076082 -0.07272029 -0.11323631 -0.0070432327 -0.08097648 0.031340968 -0.027692357 -0.012553329 0.14111814 -0.06382827 0.010375026 -0.04362065 -0.03337263 0.25875098 -0.05626789 0.09160836 0.015993768 0.1368247 0.11779422 -0.109092 0.06780365 0.021361168 0.109814435 -0.1016776 0.11956121 -0.0359919 0.15923458 -0.068339445 0.08283599 -0.10463482 -0.07741196 -0.07024336 -0.0052741794 -0.1520522 -0.066796124 -0.06652754 -0.08840489 0.028112043 -0.023692079 -0.06631981 -0.14195676 -0.002627916 0.06349044 -0.12031297 0.1106305 0.016477635 0.13742748 0.15067203 -0.029605709 -0.055640012 0.0949078 -0.05964741 0.06400016 0.16606647 0.00052559056 0.16811287 -0.43008396
32 0.09164176 0.19295706 0.031127876 -0.15614416 -0.11387701 -0.11666671 -0.08129739 -0.23290661 -0.013639372 -0.020956535 0.040888842 0.29759184 0.05288916 -0.03458261 0.045352567 -0.05621677 0.06735087 -0.26201186 -0.092817254 0.25338188 -0.1635172 0.031267565 -0.12008646 -0.088778004 -0.032767776 0.2133297 -0.025878442 0.0863513 0.026086686 0.13691428 -0.021185698 0.21569371 0.015339815 -0.09268405 0.1706672 -0.14879762 -0.18081567 0.007576945 0.058332123 0.0022254775 0.045020938 0.039170124 0.084150426 0.10308748 0.008877177 -0.13958971 -0.039418902 0.010959708 0.042127162 -0.04734783 -0.20337464 -0.0003553079 -0.09701436 -0.05174603 -0.1575739 -0.0303443 0.21877895 -0.16062202 0.15971002 -0.014726505 0.01360547 0.12808459 -0.13215217 0.19299774 -0.06397858 0.075720035 0.03685922 0.015692648 -0.013333637 0.15298174 -0.23504141 0.122145124 -0.17669417 -0.07109733 -0.09547447 -0.050486714 -0.18780671 -0.12488504 -0.1768683 0.057319317 0.16720055 0.046162054 -0.08748559 -0.03156615 0.1330934 0.10682841 -0.0058660153 0.016288793 -0.10067747 0.13417926 0.11711592 -0.087627195 -0.09277923 0.09805612 -0.25433075 -0.043310784 0.114202894 0.041053277 0.1443308 -0.11208734
6 -0.121678665 0.305806 -0.0059203445 -0.17501886 -0.2403927 -0.18866313 -0.21020055 -0.18863939 0.08203195 -0.021396069 0.023520717 0.20024359 0.18526566 -0.011694611 0.27216756 -0.09615468 -0.11385337 -0.08604519 -0.19119528 -0.35420877 0.05255472 0.2831847 -0.14426841 -0.082313225 -0.20591263 0.21282274 0.054712486 0.090693235 -0.311788 -0.44484895 0.0026197177 0.12002019 -0.19088201 0.19822793 -0.03344634 -0.14732601 0.058612473 0.1945742 -0.25664183 -0.0013561297 -0.32789448 -0.20996295 -0.296832 0.084081545 -0.18422446 -0.26793993 -0.03375245 -0.014908725 -0.034918275 -0.03286911 0.14019269 0.11517056 0.10040684 0.010984356 -0.196868 -0.16037694 0.26973617 -0.103527784 0.011838872 -0.048376057 0.32956526 0.1070709 0.00766215 0.33518368 -0.15237963 -0.08696394 -0.11506505 0.12844397 -0.07944397 0.088836044 0.04743916 -0.08113899 -0.07344808 0.25665888 -0.02518077 -0.22120312 -0.25813693 -0.06763759 -0.27095956 0.23960328 0.18739904 -0.09222118 0.12993208 0.07119439 0.42007205 0.21015662 0.141428 0.3186795 -0.00025856876 0.038550507 0.006750138 -0.16266835 -0.10263254 -0.1610823 -0.1832996 0.31414747 0.19691549 0.3400753 -0.08452564 0.025650134
16 -0.093645915 0.2548752 0.009056723 -0.091346905 -0.18285358 -0.18608151 -0.23424117 -0.12748149 0.10171924 0.0039032346 -0.0046333536 0.032372613 0.17166837 -0.010260805 0.22027227 -0.05855313 -0.04753397 -0.040465564 -0.14859106 -0.34867212 0.09125046 0.20589449 -0.08982271 -0.028368086 -0.18054412 0.10525944 0.09035448 0.11721381 -0.2629702 -0.42705968 -0.020852389 0.031196728 -0.19214869 0.22063993 0.04130651 -0.21399795 0.13990189 0.24646944 -0.30389616 -0.023747232 -0.35933787 -0.19255818 -0.37170973 0.07281659 -0.20453961 -0.2856269 0.0118600335 -0.10791621 -0.040893406 -0.020391129 0.19127986 0.17007533 0.06280867 -0.009839211 -0.18608491 -0.10444362 0.24964525 -0.055647578 0.048575312 -0.068715945 0.33674562 0.1308365 0.06747758 0.25680304 -0.17436081 -0.056516107 -0.07239905 0.13998549 -0.15794936 0.00029590193 0.055082474 0.0091167055 -0.111842625 0.1653564 -0.006174509 -0.26333708 -0.21887073 -0.094424024 -0.23507234 0.24813263 0.21695629 -0.099529505 0.13809595 0.019006994 0.3728826 0.22277929 0.10212133 0.29161453 -0.13298963 0.06559911 0.08577252 -0.1870297 -0.20358302 -0.059833393 -0.19447961 0.28984752 0.36921996 0.25236282 -0.023655036 -0.060248885
33 0.00714934 0.11554337 0.1338239 -0.18967815 -0.010171187 -0.065878995 0.07240055 -0.172553 -0.0625833 -0.043115966 -0.08787111 0.23941599 0.012089977 -0.048511274 0.060309093 -0.03520314 0.021634815 -0.18301992 -0.18071131 0.13073412 -0.023568867 0.048723903 -0.06575683 -0.025623644 0.024387904 -0.00018808096 -0.0058034756 -0.025001638 0.028340444 -0.004709377 -0.07567285 0.14606637 0.032059476 -0.03903051 0.12849931 -0.042634655 -0.18955235 0.07419209 0.050549477 -0.009030162 0.075940795 0.10750366 0.039904814 0.0014042751 -0.037138805 -0.09977154 0.0047204266 0.04330576 0.04490599 -0.027588189 -0.14437026 0.10210571 -0.13714741 -0.080875024 -0.10641809 -0.022897763 0.25153205 -0.15185782 0.22950096 0.046400744 -0.005469617 0.13581151 -0.1153668 0.102352954 0.02407575 0.21168873 0.07219957 0.08876479 -0.049207173 0.24520355 -0.15909205 0.18204555 -0.25134167 -0.10640128 -0.06304871 -0.08436037 -0.28909644 -0.10467273 -0.18879136 -0.099252254 0.11425793 0.032394636 -0.15431842 -0.13837191 0.19208801 0.20939906 -0.084662855 0.11295269 -0.03596733 0.15275598 0.12558444 -0.013764212 -0.11695028 0.1502486 -0.17477669 0.03358595 0.12989148 0.023037616 0.06611992 0.0019431047
24 0.16862792 0.055029254 0.103252344 -0.27409345 -0.15506828 -0.22484455 0.19416976 -0.23503636 0.19825025 -0.1271094 0.012254317 0.31064582 0.1679988 -0.24163593 -0.014385996 0.034847196 -0.16935022 -0.21876279 -0.13084738 0.11480579 0.0138657 0.19767086 0.072631076 -0.11960268 -0.15626144 0.03946611 -0.079224706 0.1075364 -0.066284604 -0.07150157 0.02722664 0.14540415 -0.04520575 0.028450906 0.3533498 -0.00096678245 0.11986797 0.14561528 0.12215676 -0.09153823 0.053319532 0.19065444 -0.020639826 -0.07535667 0.097453184 -0.11446655 0.036710296 -0.25642312 -0.0023483583 -0.010330374 -0.013011901 0.24249367 -0.12404111 0.013193209 0.07898234 0.018354816 0.16684201 -0.02250717 0.10522474 -0.029957568 0.1502591 0.07777302 -0.08899068 -0.10311516 0.09189865 0.20774154 -0.041125108 0.1267591 0.02809353 0.05107445 0.01893922 0.10258606 0.056121733 0.06701486 0.008217547 0.019266969 -0.25441977 -0.12334906 0.05087858 -0.22676581 -0.028473755 -0.023112802 -0.08170643 -0.04050695 0.07532318 0.0390488 -0.11042415 0.13717917 -0.020522872 0.040614348 0.071551606 -0.0102440035 -0.1984143 0.29111126 -0.054684922 0.019482132 0.14999717 -0.09609598 0.1282105 -0.36727512
25 0.14896333 0.018411832 0.034863327 -0.16323401 -0.04081218 -0.07208499 0.15922974 -0.24013026 0.105382994 -0.10605065 -0.05511663 0.2971177 0.10393897 -0.14094113 0.1539523 -0.031550333 -0.22712193 -0.1260213 -0.24152476 0.069551036 -0.018124586 0.13703412 -0.0005070481 -0.04766385 -0.13037826 -0.018759804 0.0027694292 0.05930291 -0.005356682 -0.09454091 -0.066620074 0.19928584 -0.02763197 -0.021237172 0.21051468 0.03836425 0.08910075 0.23941848 0.16266717 -0.11628235 -0.03018353 0.13105868 -0.042609327 -0.123280406 0.015639747 -0.21216615 0.08402898 -0.32212642 -0.032361224 0.037739784 -0.061669976 0.35526663 -0.15844248 -0.0049942313 -0.04082401 -0.009983681 0.26629537 -0.054089885 0.17467514 0.082727626 0.18966594 0.08509024 -0.1705438 0.008596142 0.08675266 0.12707275 0.018877424 0.16674519 0.033766877 0.13857739 0.13161922 0.08389071 0.07052455 -0.0017808318 -0.1365294 0.036749836 -0.2538421 -0.09986943 0.018096171 -0.19090316 -0.011874807 0.084258616 -0.11076882 -0.012950473 0.09796487 0.11839957 -0.005906408 0.08081377 -0.10879157 0.07082107 0.05048595 -0.005446744 -0.11700014 0.33319163 -0.020495892 -0.022997538 0.24390978 -0.11072028 0.04489696 -0.19042903
23 0.025839427 0.126704 0.033674244 -0.28645843 -0.07622185 -0.100969695 0.10754144 -0.30204687 0.092112474 -0.11127879 -0.06265999 0.18450704 0.14520478 -0.12943192 -0.044326525 0.068485364 0.050373122 -0.13495336 -0.12924743 0.20020984 0.011208023 -0.051834814 -0.06380315 -0.07346178 -0.16013402 0.12087352 -0.003579132 0.15122081 -0.04822413 -0.05744808 0.028574824 0.14744031 -0.05010672 -0.06075836 0.3734307 -0.09275099 0.023633266 0.18384624 0.06651345 -0.045117445 0.18880072 0.11182327 -0.033188485 -0.11107269 0.0023969118 -0.19052072 0.04116935 -0.16683982 -0.023092149 0.04304169 -0.059995286 0.27592313 -0.25270802 -0.05551976 0.052980144 -0.06856162 0.27751687 -0.18639345 0.19326572 0.027724853 0.1104896 0.17484494 -0.16174465 0.04256827 -0.017213458 0.15573697 -0.01594849 0.17504077 -0.055667125 -0.038134214 -0.113886945 0.11336248 -0.050707243 -0.066633 -0.03799418 -0.03404602 -0.1553522 -0.103303514 -0.109293535 -0.13080351 0.15264374 0.01245691 -0.104742356 -0.035182092 0.04802636 0.0011778133 -0.099696 -0.031681277 -0.09752319 0.12076721 0.08106939 -0.10905167 -0.13727278 0.27368146 -0.109804265 -0.10028052 0.032754935 -0.05662029 0.13090134 -0.06390497
14 0.08243503 0.12043199 0.02925265 -0.21705003 -0.021440856 -0.10387645 0.0385946 -0.24301317 -0.057206605 -0.095943905 -0.039933033 0.27893212 0.02264419 -0.031842314 0.0008417705 0.05031314 0.063293636 -0.18956138 -0.025452856 0.2582161 -0.12378353 -0.08068874 -0.10082689 -0.06408729 -0.016946591 0.10454157 -0.002789317 0.08243912 0.022767594 0.10054733 0.0085722385 0.14268903 -0.011252411 -0.031181984 0.29314384 -0.15408449 -0.11287683 0.033893984 0.0068270783 0.05087987 0.0713588 0.078760244 0.04446318 0.020365957 -0.088339046 -0.19911686 -0.02192349 -0.06855981 -0.06650571 -0.12902088 -0.1607193 0.119661525 -0.14270595 -0.046716463 -0.10092827 -0.030921217 0.34713158 -0.19929495 0.2452492 0.000996839 0.07514213 0.26162806 -0.21178342 0.19469947 -0.099927925 0.05825441 0.00899129 0.060029663 -0.0829187 0.046991743 -0.18291672 0.07070998 -0.13280691 -0.077196 -0.15116198 -0.03943235 -0.1350367 -0.09239022 -0.14820777 0.058525875 0.08174497 0.048930477 -0.105732486 -0.11251737 0.009857925 0.063896924 -0.04480825 0.029940363 -0.06357854 0.18472278 0.15195034 -0.047613874 -0.097055264 0.057788037 -0.18814243 -0.0914301 0.07384255 0.04003089 0.16528675 0.0033895285
15 0.09285708 0.124806 0.021882936 -0.18408777 -0.02067801 -0.10306994 0.010059911 -0.2177024 -0.07211319 -0.0714745 -0.019418143 0.31449577 0.01418033 -0.052131366 0.046139084 -0.0052934326 0.041952126 -0.19785452 -0.03217892 0.23402268 -0.13334459 -0.04196931 -0.0966432 -0.06258194 0.00095329096 0.08830996 0.006749719 0.047334492 0.039985485 0.10066592 -0.044811226 0.14983292 -0.011091543 -0.01410559 0.1899663 -0.14232543 -0.11183641 0.019832335 -0.017853593 0.03888407 -0.031789955 0.019045783 0.029518774 0.06820782 -0.11897239 -0.18571189 -0.020995567 -0.043786954 -0.052913047 -0.13368337 -0.12150038 0.06755602 -0.07565762 -0.028707268 -0.14644094 -0.01751729 0.30033067 -0.1526237 0.21061851 -0.0003850877 0.08193619 0.19630383 -0.14071465 0.20856318 -0.089799 0.05637385 0.02127646 0.046048824 -0.0753037 0.08651732 -0.1708696 0.086394675 -0.1546223 -0.09918372 -0.16101447 -0.027719514 -0.16071601 -0.10052718 -0.14483042 0.044820663 0.089503996 0.06527232 -0.10294226 -0.105086155 0.037372645 0.08267021 -0.011977679 0.055752125 -0.09945009 0.15768385 0.14637329 -0.020833096 -0.07825189 0.06551202 -0.21751603 -0.07042225 0.14950196 0.044656057 0.15068755 -0.10066835
18 0.094776675 0.120425224 0.007104709 -0.22128074 -0.017626818 -0.121928826 0.058872048 -0.24146558 -0.051973153 -0.11033978 -0.035346426 0.3434566 0.04913911 -0.06244003 0.022716984 0.028516036 0.016351936 -0.19137426 -0.013156195 0.2510183 -0.12532046 -0.06045861 -0.09781281 -0.06867191 -0.029198756 0.10603117 -0.0056753177 0.06120066 0.015002171 0.064752154 -0.008895022 0.15017287 -0.019470949 -0.021858696 0.25587136 -0.14135776 -0.08637903 0.029165251 0.023800034 0.041238032 0.0013750831 0.029475408 0.02213598 0.0050613084 -0.10019874 -0.2120073 -0.020931864 -0.07686034 -0.072226346 -0.1419043 -0.116373934 0.14214385 -0.10700649 -0.018124398 -0.10043427 -0.03593433 0.32777172 -0.17070572 0.2231826 0.0050074346 0.13107345 0.23234053 -0.20183131 0.19365412 -0.07625473 0.060032826 0.0058297715 0.08288646 -0.051181406 0.03979963 -0.14749397 0.049689453 -0.08938127 -0.09061165 -0.17175068 0.0046154577 -0.14823258 -0.08341211 -0.10595624 0.008525052 0.058363564 0.07551243 -0.11945966 -0.11579865 -0.029520182 0.02127951 -0.026058674 0.025648221 -0.049095105 0.17715216 0.13259155 -0.024748584 -0.048018645 0.072026946 -0.1829453 -0.09274216 0.07378325 -0.0019409376 0.1899296 -0.042844646
20 0.061329186 -0.0108733745 0.115280375 -0.1649721 0.028533306 -0.02431687 0.14169474 -0.1620489 -0.07370832 -0.032948956 -0.14117204 0.17003259 -0.05558465 -0.011594026 -0.014158148 0.070207 0.0150125595 -0.13183242 -0.08220305 0.19237061 0.012029077 -0.07825987 -0.051630665 -0.008325732 0.060791563 -0.041640073 0.011562167 0.024428675 0.07275294 0.046317015 -0.01464382 0.06750819 0.039292894 0.045221932 0.26340237 -0.024030052 -0.108955316 0.12767044 -0.039986562 0.028459605 0.107260786 0.13830486 0.02526367 -0.051838215 -0.05012935 -0.17088537 -0.025485095 -0.076587275 -0.085902095 -0.08625419 -0.1650885 0.17866524 -0.1822769 -0.043727946 -0.05973716 -0.015681384 0.34112152 -0.11010133 0.24586089 0.035678215 0.011373213 0.20546146 -0.15495738 0.14653961 -0.005167071 0.1415457 0.010597594 0.034116432 -0.05204678 0.1689954 -0.157493 0.17593287 -0.2149418 -0.10623227 -0.08340712 -0.11436043 -0.20419073 -0.13567173 -0.15953802 0.003819306 0.06640434 -0.010408733 -0.09105878 -0.13060293 0.123651244 0.1402481 -0.09514422 0.13181302 -0.03453872 0.14432672 0.16776499 -0.0049830293 -0.14742388 0.1337826 -0.13260764 0.015955718 0.26352212 0.03447616 0.20887542 -0.26653826
22 0.018682288 0.07251577 0.07200917 -0.2581027 -0.0097589055 -0.06982834 0.13379 -0.22025295 -0.047405247 -0.0566577 -0.1369759 0.21463417 0.02661638 -0.04796079 -0.0657734 0.09281367 0.08406401 -0.14013134 -0.0377024 0.20095173 0.02793223 -0.12531587 -0.052145474 -0.041217137 -0.011414092 0.019608231 0.035340987 0.063741155 0.032400385 0.01570621 0.0034406856 0.052653115 -0.024195801 0.04609451 0.28650016 -0.07314472 -0.07143 0.084667884 -0.07348682 0.043638267 0.09195261 0.06410116 -0.012461218 -0.046998747 -0.082407504 -0.1575609 -0.025311135 -0.0388451 -0.07983603 -0.09492871 -0.08110446 0.14765137 -0.13804677 -0.028222574 0.013071795 -0.035376266 0.29408896 -0.1399825 0.18544015 0.015557685 0.059796393 0.2190995 -0.14403915 0.14183986 -0.053340796 0.13618937 -0.044002954 0.084820524 -0.08071885 0.0655152 -0.18527217 0.12227994 -0.18442374 -0.09384886 -0.07355218 -0.08678898 -0.15766534 -0.113592915 -0.15211603 0.010058106 0.08917223 -0.009167525 -0.074764274 -0.14391227 0.04075351 0.054148648 -0.112123854 0.09569481 -0.013758319 0.15663981 0.16972826 -0.036938563 -0.11132679 0.084023856 -0.14905733 0.0022834712 0.13569924 0.04140139 0.21820825 -0.2689514
26 -0.08626754 0.08489929 -0.0017370759 -0.24888925 0.006680131 -0.005639514 0.03866652 -0.2969426 -0.045681387 -0.0120223025 -0.20391795 0.14402418 0.11773495 -0.055135738 -0.1188231 -0.019142035 0.12658831 -0.06103447 -0.16608071 0.20481093 0.14104216 -0.2227175 -0.098252624 -0.05535683 -0.098086715 -0.014501454 0.1718434 0.094852924 0.013947458 -0.11061916 -0.033812117 0.17552306 -0.11059358 -0.060781136 0.21284992 -0.059006777 -0.09233688 0.2512066 -0.046092663 -0.09404618 0.18626487 0.007638148 -0.15981238 -0.16375314 -0.069073 -0.23968734 0.08735261 -0.1336634 -0.039103866 0.14697254 -0.081149355 0.36468142 -0.3677373 -0.005567688 0.05263983 -0.05380161 0.31527627 -0.20713621 0.22724065 0.09330271 0.077396415 0.15059343 -0.15735492 0.076893434 -0.017550375 0.13739368 -0.0072199823 0.1946808 -0.08614038 -0.039062362 -0.111343004 0.18014139 -0.121624954 -0.21483704 -0.019641047 -0.14076683 -0.043403592 -0.07590739 -0.15017812 -0.011019559 0.24665914 0.021020664 -0.07725155 -0.059242375 0.037856907 -0.04975127 -0.059061915 -0.07960732 -0.13133585 0.112607926 0.09136445 -0.122068584 -0.07723575 0.25958645 -0.059619144 -0.076568075 0.13133484 -0.17765658 0.109375544 -0.08498285
29 -0.06512583 0.08409915 -0.035398792 -0.3219086 0.06341468 0.04793559 0.11136014 -0.35769695 -0.082610264 -0.040200427 -0.25213987 0.26176077 0.084912755 -0.17597482 0.0008042874 -0.050351948 0.08133974 -0.05760297 -0.27997565 0.29398733 0.10911948 -0.2056675 -0.17011118 0.016331796 -0.12291366 -0.012657164 0.19854121 0.1269591 0.09045545 -0.02842536 -0.15245894 0.29148355 -0.065096654 -0.09855944 0.12072374 0.0067646145 -0.07965998 0.25935426 -0.02537555 -0.12676461 0.13848017 0.020878585 -0.099045336 -0.13947077 -0.09046878 -0.1857134 0.07173532 -0.1477626 -0.05625823 0.16398963 -0.03098439 0.30815023 -0.3469544 -0.0141694 0.039721265 -0.08348561 0.24287568 -0.16648115 0.22272635 0.082535855 0.07068513 0.069035366 -0.11427703 0.08190583 -0.036622703 0.19255872 0.034044966 0.295626 -0.098886445 0.013415734 -0.11351888 0.24145669 -0.1413482 -0.2823707 -0.09388721 -0.028892862 -0.17816986 -0.15671587 -0.21484266 -0.15284172 0.290451 0.110199496 -0.13193157 -0.032564264 0.123311624 0.015977085 -0.016674178 -0.075540215 -0.2506642 0.09836941 0.08639286 -0.068862535 -0.06905947 0.4015139 -0.14993942 -0.15952356 0.1582432 -0.06769892 0.0069681555 -0.08902011
